This is an ARPA-format language model file, generated by CMU Sphinx
\data\
ngram 1=7063
ngram 2=15650
ngram 3=20930

\1-grams:
-0.7131	</s>	-3.6065
-0.7130	<s>	-0.2337
-4.4132	അ	0.0354
-4.4132	അംഗവുമായ	-0.0579
-4.4132	അംഗീകരിക്കലല്ലേ	0.0354
-4.4132	അംഗീകരിച്ചതാണ്	-0.0580
-3.9359	അകത്തേക്ക്	-0.0571
-3.9359	അകത്ത്	-0.0577
-4.4132	അകന്നു	-0.0578
-4.4132	അകപ്പെട്ടു	-0.0580
-4.4132	അകപ്പെട്ടുകിടക്കുന്നു	0.0354
-4.1120	അകലം	-0.1782
-4.4132	അകലങ്ങളിൽ	-0.0575
-4.4132	അകലയാണ്	-0.0577
-4.4132	അകലയും	0.0354
-4.4132	അകലെ	0.0354
-4.4132	അകലെയാണ്	-0.0580
-4.4132	അകിടുള്ള	-0.0580
-4.4132	അക്കാദമി	-0.0580
-4.4132	അക്കാദമിയുടെ	-0.0580
-4.1120	അക്കൗണ്ട്‌	-0.2716
-4.4132	അക്കൗണ്ട്‌സ്	-0.0580
-4.4132	അങ്കിളിന്	-0.0580
-4.1120	അങ്കിളിന്‍റെ	-0.0580
-4.4132	അങ്കിൾ	-0.0580
-4.4132	അങ്ങകലെ	-0.0541
-3.0706	അങ്ങനെ	0.0351
-4.4132	അങ്ങനെതന്നെ	0.0354
-4.4132	അങ്ങനെത്തന്നെ	0.0354
-4.4132	അങ്ങനെയാണ്	0.0354
-4.4132	അങ്ങനെയായിരുന്നെങ്കില്‍	-0.0553
-4.4132	അങ്ങനെയുള്ള	-0.0578
-4.1120	അങ്ങനെയൊക്കെ	-0.0579
-4.1120	അങ്ങനെയൊന്നും	-0.0580
-4.4132	അങ്ങനെയൊന്നുമല്ലാ	-0.0573
-4.4132	അങ്ങനെയൊന്നുമില്ല	0.0354
-4.1120	അങ്ങനെയൊന്നുമില്ലാ	-0.1782
-4.4132	അങ്ങനെയൊന്ന്	-0.0580
-4.4132	അങ്ങനെയൊരു	-0.0580
-4.4132	അങ്ങേരത്	-0.0580
-3.8109	അങ്ങോട്ട്	-0.0577
-4.4132	അങ്ങോട്ട്‌	-0.0580
-4.1120	അച്ഛനമ്മമാരെ	-0.0580
-4.4132	അച്ഛനമ്മമാരെയെല്ലാം	-0.0580
-4.4132	അച്ഛനമ്മരാണെ	-0.0579
-4.4132	അച്ഛനിന്ന്	-0.0579
-3.6348	അച്ഛനും	-0.0244
-4.4132	അച്ഛനെ	-0.0580
-4.1120	അച്ഛനോടും	-0.2716
-3.9359	അച്ഛനോട്	-0.0576
-4.4132	അച്ഛന്	-0.0580
-3.7140	അച്ഛന്റെ	-0.1213
-3.0150	അച്ഛന്‍	-0.0334
-4.1120	അച്ഛാ	0.0359
-4.4132	അഞ്ചാംലോകത്തിനുള്ളില്‍	-0.0573
-4.4132	അഞ്ചാമത്തെ	-0.0580
-4.4132	അഞ്ചു	-0.0580
-4.4132	അഞ്ചുദിവസം	-0.0577
-4.4132	അഞ്ചുദിവസമായി	-0.0572
-4.4132	അഞ്ചുമിനുട്ടെ	-0.0580
-3.9359	അഞ്ച്	-0.0579
-4.4132	അഞ്ഞൂറ്	-0.0580
-4.4132	അടക്കാന്‍	0.0354
-4.4132	അടക്കിയിട്ടുണ്ട്	0.0354
-4.4132	അടക്കിയിരിക്കുന്നത്	0.0354
-4.4132	അടക്കുന്നു	0.0354
-4.4132	അടക്കുന്നുണ്ട്	0.0354
-4.4132	അടങ്ങ്‌	-0.0580
-4.4132	അടച്ചിടും	0.0354
-4.4132	അടച്ചിട്ടില്ലേ	0.0354
-4.4132	അടച്ചോ	0.0354
-4.4132	അടവുകളും	-0.0580
-4.1120	അടവുകള്‍	0.0355
-4.4132	അടിച്ചുപൊളിക്കാം	0.0354
-4.4132	അടിച്ചുപൊളിച്ച്	-0.0578
-4.4132	അടിച്ചോണ്ട്	-0.0576
-4.4132	അടിത്തറ	-0.0580
-4.4132	അടിപൊളി	0.0354
-4.4132	അടിയന്തിര	-0.0580
-4.4132	അടിയില്‍	-0.0579
-4.4132	അടിയുണ്ടാക്കുന്നു	0.0354
-4.4132	അടിസ്ഥാന	-0.0577
-4.4132	അടിസ്ഥാനം	0.0354
-4.4132	അടിസ്ഥാനത്തിന്റെ	-0.0580
-4.4132	അടിസ്ഥാനത്തിൽ	-0.0580
-4.4132	അടിസ്ഥാനപരമായ	0.0354
-4.4132	അടിസ്ഥാനപരമായി	-0.0561
-3.3716	അടുത്ത	-0.1234
-4.4132	അടുത്തയിരിക്കുമ്പോള്‍	0.0354
-4.4132	അടുത്തവട്ടം	-0.0580
-4.1120	അടുത്താണ്	-0.1782
-4.4132	അടുത്തു	-0.0577
-4.4132	അടുത്തുതന്നെയുണ്ട്	0.0354
-4.4132	അടുത്തുനിന്നും	-0.0580
-4.4132	അടുത്തുവന്ന	-0.0561
-4.4132	അടുത്തെത്തി	-0.0577
-4.4132	അടുത്തെത്തിക്കു	0.0354
-4.1120	അടുത്തെത്തിക്കൊണ്ടിരിക്കുന്നു	-0.1782
-4.4132	അടുത്തേക്കെങ്കിലും	-0.0580
-4.4132	അടുത്തേയ്ക്	-0.0580
-4.4132	അടുത്തൊരു	-0.0578
-4.1120	അടുത്ത്	-0.0576
-4.4132	അടുപ്പമായിരുന്നോ	0.0354
-4.4132	അഡ്രസ്‌	0.0354
-4.4132	അഡ്രെസ്സാണുള്ളത്	0.0354
-4.4132	അഡ്രെസ്സാണെന്നാണ്‌	-0.0579
-4.4132	അഡ്രെസ്സാണോ	0.0354
-4.4132	അഡ്രെസ്സാണ്	0.0354
-3.9359	അഡ്രെസ്സ്	-0.0580
-4.4132	അതങ്ങനെയല്ലായിരുന്നു	0.0354
-4.4132	അതത്യാവശ്യമാണ്	0.0354
-4.4132	അതത്ര	-0.0580
-4.4132	അതദ്ദേഹത്തിനും	-0.0580
-4.4132	അതയയ്കുന്നുണ്ട്	0.0354
-4.4132	അതര്‍ഥമാക്കുന്നത്	-0.0580
-4.4132	അതറിയലല്ല	-0.0571
-4.4132	അതറിയാം	0.0354
-4.1120	അതല്ല	-0.0580
-4.4132	അതല്ലമമ്മ	-0.0577
-4.4132	അതല്ലാ	-0.0580
-4.4132	അതല്ലേ	0.0354
-4.4132	അതവള്‍ക്ക്	-0.0580
-4.1120	അതവിടെ	-0.0580
-4.4132	അതവിടെയാണ്	0.0354
-3.9359	അതാ	-0.1882
-4.4132	അതാകും	-0.0580
-4.4132	അതാണെന്റെ	-0.0576
-4.4132	അതാണോ	-0.0579
-3.2990	അതാണ്	0.0448
-4.4132	അതാദ്യം	-0.0573
-4.4132	അതായതു	-0.0570
-4.4132	അതായത്	0.0354
-4.4132	അതാരാണെന്ന്	0.0354
-4.4132	അതാരാണ്	-0.0579
-4.4132	അതിക്രമം	-0.0580
-4.4132	അതിക്രമിച്ച്	-0.0580
-4.4132	അതിഗംഭീര	-0.0579
-4.4132	അതിഗംഭീരം	0.0354
-4.4132	അതിജീവനത്തിനുവേണ്ടി	-0.0580
-4.4132	അതിജീവിക്കാം	0.0354
-4.4132	അതിജീവിച്ചത്	0.0354
-4.1120	അതിഥികളെ	0.0354
-4.4132	അതിഥിയാണോ	0.0354
-4.4132	അതിനകത്ത്	-0.0580
-4.4132	അതിനടിയിലേയ്ക്	-0.0580
-4.4132	അതിനനുവാദമുണ്ടല്ലോ	0.0354
-4.4132	അതിനനുസരിച്ച്	-0.0559
-4.4132	അതിനപ്പുറം	-0.0580
-4.1120	അതിനര്‍ത്ഥം	0.0431
-4.4132	അതിനല്ലേ	-0.0518
-4.4132	അതിനായി	-0.0573
-4.4132	അതിനാലാണ്	-0.0518
-4.4132	അതിനാൽ	-0.0580
-4.4132	അതിനിയും	-0.0580
-3.5679	അതിനു	-0.0123
-4.4132	അതിനും	-0.0580
-4.4132	അതിനുമാത്രമുള്ള	-0.0580
-4.4132	അതിനുമുമ്പ്	-0.0579
-4.1120	അതിനുള്ള	-0.0580
-4.4132	അതിനുള്ളിലെ	-0.0580
-4.1120	അതിനുള്ളിലേക്ക്	-0.0580
-3.4587	അതിനെ	-0.0577
-4.4132	അതിനെക്കുറിച്ച്	-0.0575
-4.4132	അതിനെപ്പറ്റി	-0.0579
-4.4132	അതിനെയാണ്	-0.0572
-4.4132	അതിനെയാർക്കും	-0.0580
-4.4132	അതിനേക്കാളും	-0.0580
-4.4132	അതിനൊന്നുമുള്ള	-0.0578
-4.4132	അതിനൊപ്പം	0.0354
-4.4132	അതിനൊരു	-0.0580
-4.1120	അതിനോട്	-0.0579
-3.1577	അതിന്	0.0463
-3.5099	അതിന്റെ	0.0368
-4.4132	അതിന്‌	-0.0578
-3.7140	അതിന്‍റെ	-0.0539
-4.4132	അതിപ്പോൾ	-0.0580
-4.4132	അതിലധികമോ	0.0354
-4.4132	അതിലും	-0.0580
-4.4132	അതിലുണ്ടായിരുന്നവ	-0.0580
-4.4132	അതിലൂടെയാണോ	-0.0580
-4.4132	അതിലെ	0.0354
-4.4132	അതിലെവിടെയാണ്	-0.0580
-4.4132	അതിലേക്കുള്ള	-0.0580
-4.4132	അതിലൊന്നും	-0.0580
-4.1120	അതില്‍	-0.0541
-4.4132	അതിവിടെ	-0.0580
-4.4132	അതിശയിപ്പിക്കുന്ന	-0.0580
-4.4132	അതിശയൊക്തിയല്ല	0.0354
-3.6348	അതിൽ	-0.1136
-4.4132	അതീതമായി	0.0354
-3.3338	അതു	0.0401
-3.6348	അതും	-0.0243
-4.4132	അതുകഴിഞ്ഞ്	-0.0580
-3.9359	അതുകൊണ്ടാണ്	-0.0946
-4.1120	അതുകൊണ്ടാ	0.0360
-4.4132	അതുകൊണ്ടാണിത്	-0.0580
-4.4132	അതുകൊണ്ടാണോ	-0.0579
-3.7140	അതുകൊണ്ടാണ്	0.0363
-4.4132	അതുകൊണ്ടെന്താണ്	0.0354
-4.4132	അതുകൊണ്ടൊന്നും	-0.0580
-3.2669	അതുകൊണ്ട്	-0.0325
-3.8109	അതുതന്നെ	0.0386
-4.4132	അതുതന്നെയല്ലേ	-0.0580
-4.4132	അതുതന്നെയാണ്	-0.0577
-4.4132	അതുപോലും	-0.0580
-4.4132	അതുപോലെ	-0.0573
-4.4132	അതുപോലെയൊക്കെ	-0.0580
-4.4132	അതുപോലെയൊന്നുമില്ലാ	0.0354
-2.8567	അതെ	0.0378
-4.4132	അതെഇതൊരു	-0.0580
-4.4132	അതെങ്ങനെ	0.0354
-4.4132	അതെചിലപ്പോൾ	-0.0580
-4.4132	അതെടുത്തോളു	0.0354
-4.4132	അതെത്ര	-0.0580
-4.4132	അതെനിക്കറിയില്ല	0.0354
-3.8109	അതെനിക്ക്	-0.1517
-4.4132	അതെന്താ	0.0354
-4.4132	അതെന്താണ്	0.0354
-4.4132	അതെന്തുകൊണ്ടായിരുന്നുവെന്ന്	-0.0553
-4.4132	അതെന്നോട്	-0.0579
-4.1120	അതെന്‍റെ	-0.0580
-4.1120	അതെപ്പോഴും	0.0354
-4.4132	അതെഭക്ഷണത്തിന്	-0.0575
-4.1120	അതെയോ	0.0355
-4.1120	അതെല്ലാം	-0.0580
-4.4132	അതെവിടെയാണ്	0.0354
-3.9359	അതേ	-0.0577
-4.4132	അതേക്കുറിച്ച്	-0.0580
-4.4132	അതേസമയം	0.0354
-4.4132	അതൊക്കെ	-0.0572
-4.4132	അതൊന്നു	-0.0580
-4.4132	അതൊന്നും	-0.0580
-4.4132	അതൊന്നുമല്ലാ	0.0354
-4.4132	അതൊരിക്കലും	-0.0580
-3.4130	അതൊരു	0.0018
-3.4130	അതോ	-0.0570
-2.0970	അത്	0.0218
-4.4132	അത്തുണ്ട്	0.0354
-4.4132	അത്ഭുതം	-0.0578
-4.4132	അത്ഭുതകരമാണ്	0.0354
-4.4132	അത്ഭുതങ്ങൾ	-0.0580
-4.4132	അത്ഭുതത്തിന്റെ	-0.0580
-4.4132	അത്ഭുതപ്പെടാറുണ്ടായിരുന്നു	0.0354
-4.4132	അത്ഭുതപ്പെടുത്താം	-0.0541
-4.4132	അത്ഭുതപ്പെടുത്താൻ	0.0354
-4.4132	അത്ഭുതമെന്ന്	-0.0580
-4.4132	അത്യന്തം	-0.0580
-4.4132	അത്യാവശ്യം	-0.0580
-4.4132	അത്യാഹിതം	-0.0580
-4.4132	അത്യാഹിതങ്ങളാണ്	-0.0580
-3.6348	അത്ര	0.0355
-4.4132	അത്രക്ക്	-0.0580
-4.1120	അത്രയും	-0.0580
-4.4132	അത്രയേയുള്ളൂ	-0.0580
-4.4132	അത്രയ്ക്കൊന്നും	0.0354
-4.4132	അത്രെ	-0.0579
-4.4132	അത്രേ	-0.0580
-2.8815	അദ്ദേഹം	0.0423
-4.4132	അദ്ദേഹത്തിനത്	-0.0580
-4.4132	അദ്ദേഹത്തിനറിയാമായിരുന്നു	0.0354
-4.4132	അദ്ദേഹത്തിനു	-0.0580
-4.4132	അദ്ദേഹത്തിനേയും	-0.0580
-3.7140	അദ്ദേഹത്തിന്	0.0406
-3.2669	അദ്ദേഹത്തിന്‍റെ	-0.0417
-4.4132	അദ്ദേഹത്തിന്‍റേത്	-0.0580
-4.4132	അദ്ദേഹത്തില്‍	-0.0577
-3.5099	അദ്ദേഹത്തെ	-0.1011
-4.4132	അദ്ദേഹത്തോട്	-0.0580
-4.1120	അദ്ദേഹമത്	-0.0580
-4.4132	അദ്ദേഹമാണ്	-0.0578
-4.1120	അദ്ദേഹമായിരുന്നു	-0.1782
-4.4132	അദ്ദേഹമെന്താ	-0.0580
-4.4132	അദ്ദേഹമെന്താണ്	-0.0578
-4.4132	അദ്ദേഹമെന്തിനാ	-0.0578
-4.4132	അദ്ദേഹമെന്‍റെ	-0.0580
-4.4132	അദ്ദേഹവും	-0.0580
-4.4132	അദ്ധ്യയന	-0.0580
-4.4132	അധിക	-0.0580
-3.6348	അധികം	-0.0579
-4.4132	അധികകാലം	-0.0580
-4.4132	അധികനേരം	-0.0580
-4.4132	അധികപ്രസംഗിയായ	0.0354
-4.4132	അധികമില്ല	-0.0570
-4.4132	അധികമില്ലല്ലോ	0.0354
-4.4132	അധികമൊന്നും	-0.0580
-4.4132	അധികസമയം	-0.0570
-4.4132	അനങ്ങരുത്	0.0354
-4.4132	അനങ്ങല്ലേ	0.0354
-4.4132	അനന്തമായ	-0.0580
-4.4132	അനാഥനായതെന്നോ	-0.0579
-4.4132	അനാഥന്‍	-0.0578
-3.9359	അനാഥാലയത്തിലേക്ക്	-0.0948
-4.4132	അനുഗ്രഹിക്കുകയാണെങ്കിൽ	0.0354
-4.4132	അനുഭവവേദ്യമാകും	0.0354
-4.4132	അനുഭവവേദ്യമാണ്	-0.0580
-4.4132	അനുഭവിക്കുന്നത്	0.0354
-4.4132	അനുഭവിച്ചിട്ടില്ല	0.0354
-4.4132	അനുമതിയുണ്ട്	0.0354
-4.4132	അനുയോജ്യമായതെന്ന്	-0.0553
-4.4132	അനുവദിക്കുന്നു	0.0354
-4.4132	അനുവാദമില്ല	0.0354
-4.4132	അനുവാദമില്ലാ	0.0354
-4.4132	അനുവാദമുണ്ട്	0.0354
-4.4132	അനുസരിക്കണം	0.0354
-4.4132	അനുസരിക്കേണ്ട	-0.0580
-3.9359	അനുസരിചിട്ടുണ്ട്	-0.2704
-4.4132	അന്തരിച്ചു	0.0354
-4.4132	അന്തരീക്ഷം	-0.0580
-4.4132	അന്തരീക്ഷത്തിന്റെ	-0.0580
-4.1120	അന്തരീക്ഷത്തിൽ	-0.0576
-4.4132	അന്തരീഷത്തിൽ	-0.0579
-4.4132	അന്തസ്സ്‌	-0.0580
-4.4132	അന്തസ്സ്‌‌	-0.0580
-4.4132	അന്ധകാരത്തിലേയ്ക്	-0.0580
-4.4132	അന്നത്തെ	-0.0578
-4.4132	അന്നത്തെക്കാലത്ത്	-0.0580
-3.9359	അന്ന്	-0.0578
-4.4132	അന്വേഷകർ	0.0354
-4.1120	അന്വേഷണം	-0.0580
-4.4132	അന്വേഷിക്കലല്ലല്ലോ	0.0354
-4.1120	അന്വേഷിക്കുകയാണ്	-0.1782
-4.4132	അന്വേഷിക്കുന്ന	-0.0561
-4.4132	അന്വേഷിക്കുന്നതാണ്	-0.0580
-4.4132	അന്വേഷിക്കുന്നതില്‍	-0.0553
-4.1120	അന്വേഷിച്ച്	0.0355
-4.4132	അപകടം	-0.0580
-4.4132	അപകടകരമായ	-0.0541
-4.4132	അപകടത്തിലാണെന്ന്	0.0354
-4.4132	അപഗ്രഥിച്ച്	0.0354
-4.4132	അപരിചിതനല്ല	0.0354
-4.4132	അപരിചിതമായ	-0.0579
-4.4132	അപരിചിതമായി	-0.0580
-4.4132	അപരിചിതമായൊരു	-0.0580
-4.4132	അപരിചിതരുമായി	0.0354
-4.4132	അപൂര്‍ണ്ണമായ	-0.0580
-4.4132	അപൂര്‍ണ്ണമായി	0.0354
-4.4132	അപ്പം	-0.0580
-4.4132	അപ്പക്കള്ളന്‍	0.0354
-4.4132	അപ്പുറത്തു	-0.0580
-4.4132	അപ്പുറത്തേയ്ക്	-0.0580
-4.4132	അപ്പുറമുള്ള	0.0354
-4.4132	അപ്പൂപ്പന്‍	-0.0580
-4.4132	അപ്പൂപ്പന്‍റെ	-0.0580
-4.1120	അപ്പൂപ്പാ	0.0361
-4.1120	അപ്പൊ	-0.0572
-3.9359	അപ്പോ	-0.0562
-4.1120	അപ്പോളോ	0.0354
-4.4132	അപ്പോഴും	-0.0580
-4.4132	അപ്പോഴേയ്കും	-0.0580
-2.8567	അപ്പോൾ	0.0357
-4.4132	അപ്പ്	-0.0580
-4.1120	അപ്‌ലോഡ്‌	-0.0579
-4.4132	അബദ്ധമാണ്	0.0354
-4.1120	അഭിനന്ദനങ്ങള്‍	0.0355
-4.4132	അഭിനയിക്കുന്നത്	0.0354
-4.4132	അഭിനയിക്ക്	0.0354
-4.4132	അഭിനയിച്ചു	0.0354
-4.4132	അഭിനിവേശമായിരുന്നു	0.0354
-3.9359	അഭിനേതാക്കള്‍	-0.0579
-4.4132	അഭിനേത്രിയായിരുന്നോ	0.0354
-4.4132	അഭിപ്രായ	-0.0580
-4.4132	അഭിമാനമുണ്ട്	-0.0577
-4.4132	അഭിമുഖീകരിക്കേണ്ടതായി	-0.0577
-4.4132	അമാനുഷികമാണെന്ന്	-0.0580
-4.4132	അമൂല്യ	-0.0580
-3.7140	അമേലിയ	-0.0364
-4.4132	അമേലിയയോട്	-0.0580
-4.1120	അമോണിയ	0.0366
-4.4132	അമോണിയയ്കു	-0.0580
-4.4132	അമ്പരപ്പുണ്ടോ	0.0354
-3.3716	അമ്മ	-0.0553
-4.4132	അമ്മക്കും	0.0354
-4.4132	അമ്മക്കൊരു	-0.0580
-4.4132	അമ്മക്ക്	-0.0580
-3.9359	അമ്മയും	-0.0566
-4.4132	അമ്മയുടെ	-0.0580
-4.1120	അമ്മയുടെയും	0.0355
-4.4132	അമ്മയുണ്ടായിരുന്നെങ്കിൽ	0.0354
-4.4132	അമ്മയുമെവിടെ	0.0354
-4.4132	അമ്മയെ	-0.0553
-4.4132	അമ്മയെക്കുറിച്ച്	0.0354
-4.1120	അമ്മയോടും	-0.0580
-4.4132	അമ്മയോട്	-0.0580
-3.5099	അമ്മാ	-0.0895
-4.1120	അമ്മാവന്‍	0.0355
-4.4132	അമ്മേ	0.0354
-4.4132	അമ്മോണിയ	0.0354
-4.4132	അയക്കണമായിരുന്നു	0.0354
-4.4132	അയക്കാൻ	-0.0579
-4.4132	അയക്കും	0.0354
-4.4132	അയക്കുക	0.0354
-4.4132	അയക്കുന്നു	0.0354
-4.4132	അയക്കുമ്പോൾ	0.0354
-4.1120	അയച്ചതാണ്	-0.1782
-4.4132	അയച്ചത്	0.0354
-4.4132	അയച്ചാൽ	-0.0578
-4.4132	അയച്ചിട്ടുണ്ടോ	0.0354
-3.8109	അയച്ചിട്ടുണ്ട്	-0.2692
-4.4132	അയച്ചില്ല	0.0354
-3.9359	അയച്ചു	0.0355
-4.4132	അയച്ചുകൊടുത്താലും	0.0354
-4.4132	അയച്ചുതരാനും	-0.0580
-4.4132	അയച്ചുതരാനുള്ള	0.0354
-4.4132	അയച്ചുതരൂ	0.0354
-4.4132	അയച്ചുതാ	0.0354
-4.4132	അയച്ചോ	0.0354
-4.4132	അയയ്കാതിരുന്നതിന്റെ	-0.0577
-4.4132	അയയ്കാനായാല്‍	0.0354
-4.1120	അയയ്കുന്നു	-0.1782
-4.4132	അയാളത്	-0.0580
-4.4132	അയാളിത്	-0.0575
-4.4132	അയാളിവിടത്തെ	-0.0580
-3.5679	അയാളുടെ	0.0355
-4.1120	അയാളെ	-0.0580
-4.1120	അയാളൊരു	-0.2716
-4.1120	അയാളോട്	-0.0580
-3.4587	അയാള്‍	-0.0563
-4.4132	അയാള്‍ക്കങ്ങനെ	-0.0580
-4.4132	അയാള്‍ക്കിനി	-0.0580
-4.4132	അയാള്‍ക്കെന്ത്	-0.0580
-4.4132	അയാള്‍ക്ക്	-0.0580
-3.8109	അയ്യോ	-0.0582
-4.4132	അയർലണ്ടിലെ	-0.0580
-4.4132	അരമണിക്കൂറിന്	-0.0580
-4.4132	അരമണിക്കൂറൊന്നും	-0.0574
-4.4132	അരികിലായി	-0.0580
-4.4132	അരിവാങ്ങാൻ	0.0354
-4.4132	അരുത്	0.0354
-4.4132	അര്‍ത്ഥം	-0.0580
-4.4132	അര്‍ത്ഥങ്ങളുമുണ്ട്	0.0354
-4.4132	അര്‍ത്ഥമില്ല	0.0354
-4.4132	അര്‍ത്ഥമെന്ന്	-0.0580
-4.4132	അര്‍ത്ഥവത്താണ്	-0.0580
-4.4132	അര്‍ത്ഥവുമില്ല	0.0354
-4.4132	അര്‍ത്ഥശൂന്യമാണ്	0.0354
-4.4132	അര്‍ഥം	0.0354
-4.4132	അര്‍പ്പിച്ചു	0.0354
-4.4132	അറയില്ലേ	-0.0573
-4.4132	അറിഞ്ഞപ്പോള്‍	0.0354
-4.4132	അറിഞ്ഞിരിക്കണം	0.0354
-4.4132	അറിഞ്ഞുകൂടാ	0.0354
-4.4132	അറിയണമല്ലോ	0.0354
-4.4132	അറിയണോ	0.0354
-4.4132	അറിയപ്പെടാതിരിക്കാനുള്ളതാണ്	0.0354
-4.4132	അറിയരുത്	0.0354
-3.5099	അറിയാം	-0.2086
-4.4132	അറിയാതിരിക്കാന്‍	0.0354
-4.4132	അറിയാതെയാണോ	-0.0557
-4.4132	അറിയാത്തതിനെ	-0.0580
-4.4132	അറിയാമല്ലോ	0.0354
-3.9359	അറിയാമായിരുന്നു	-0.2704
-3.7140	അറിയാമോ	-0.1888
-4.4132	അറിയാറായിട്ടില്ല	0.0354
-4.1120	അറിയാൻ	-0.0580
-4.4132	അറിയിക്കും	-0.0579
-4.4132	അറിയിക്കുന്നു	0.0354
-4.4132	അറിയിയാം	-0.0579
-3.3338	അറിയില്ല	-0.6013
-4.4132	അറിയില്ലല്ലോ	0.0354
-4.1120	അറിയില്ലാ	-0.1782
-4.4132	അറിയില്ലായിരുന്നു	-0.0557
-3.9359	അറിയില്ലേ	-0.2704
-4.4132	അറിയുമായിരുന്നു	0.0354
-4.4132	അറിയുമെങ്കില്‍	0.0354
-3.7140	അറിയുമോ	-2.0632
-4.4132	അറിയൂ	0.0354
-4.4132	അറിയേണ്ടതെല്ലാം	0.0354
-4.4132	അറിയേണ്ടൂ	0.0354
-4.4132	അറ്റാക്ക്‌	-0.0580
-4.4132	അലക്സാണ്ടർ	0.0354
-4.4132	അലങ്കരിച്ചിരിക്കുന്നത്	0.0354
-4.4132	അലങ്കാരപണികൾ	0.0354
-4.4132	അലട്ടിയിട്ടുണ്ട്	0.0354
-4.4132	അലപ്പസമയത്തിന്	0.0354
-4.4132	അലമാരിയില്‍	-0.0579
-4.4132	അലറുന്നു	0.0354
-4.4132	അലിഖാൻ	-0.0580
-4.4132	അലുമിനിയം	0.0354
-3.8109	അല്പം	-0.0580
-3.0706	അല്ല	-0.0215
-4.4132	അല്ലല്ലോ	0.0354
-3.2669	അല്ലാ	-0.0267
-3.8109	അല്ലാതെ	0.0376
-4.4132	അല്ലാതെന്താണ്	-0.0580
-4.4132	അല്ലാതെന്ത്	-0.0579
-4.1120	അല്ലായിരുന്നു	-0.1782
-4.4132	അല്ലായിരുന്നോ	0.0354
-3.9359	അല്ലെ	-0.2704
-3.4130	അല്ലെങ്കില്‍	-0.0541
-4.4132	അല്ലെന്ന്	0.0354
-3.1120	അല്ലേ	-1.2490
-4.4132	അല്ലേടോ	0.0354
-4.1120	അല്‍പം	-0.0580
-4.4132	അളക്കാന്‍	-0.0578
-4.4132	അളക്കാവുന്നതാണ്	-0.0578
-4.4132	അളവ്	-0.0580
-4.4132	അഴിഞ്ഞു	-0.0580
-4.4132	അഴിമതി	-0.0576
-3.5679	അവ	-0.0548
-4.4132	അവകാശമില്ലേ	0.0354
-4.4132	അവധിയിൽ	0.0354
-4.4132	അവനതറിയണം	0.0354
-4.4132	അവനത്	-0.0580
-4.4132	അവനറിയില്ല	0.0354
-4.4132	അവനിതിന്റെ	-0.0580
-4.4132	അവനില്‍	-0.0580
-4.4132	അവനു	-0.0580
-4.4132	അവനും	-0.0580
-3.4587	അവനെ	-0.0575
-4.1120	അവനെന്താണ്	-0.0575
-4.4132	അവനെന്നെ	-0.0577
-4.4132	അവനെന്നെയും	-0.0580
-4.4132	അവനെന്റെ	-0.0580
-4.4132	അവനെയും	-0.0577
-4.4132	അവനെയൊന്ന്	-0.0580
-4.4132	അവനെവിടെ	0.0354
-4.4132	അവനൊന്നും	-0.0580
-4.4132	അവനൊന്ന്	-0.0580
-3.7140	അവനൊരു	-0.0579
-3.5099	അവനോട്	-0.1015
-3.5099	അവന്	-0.0967
-3.6348	അവന്റെ	-0.0578
-3.0513	അവന്‍	-0.0531
-3.4587	അവന്‍റെ	-0.0578
-4.4132	അവയുടെ	-0.0580
-4.4132	അവയെ	-0.0572
-4.4132	അവയെക്കുറിച്ച്	-0.0580
-4.4132	അവയ്ക്കു	-0.0574
-4.4132	അവരത്	-0.0580
-4.4132	അവരല്ല	-0.0577
-4.4132	അവരവനെ	-0.0580
-4.4132	അവരാ	-0.0580
-4.4132	അവരാണെല്ലാം	-0.0579
-3.9359	അവരാണ്	0.0356
-4.4132	അവരാനെന്നു	0.0354
-4.4132	അവരിതെല്ലാം	-0.0580
-4.4132	അവരിപ്പോളും	-0.0580
-4.4132	അവരിപ്പോഴും	-0.0580
-4.4132	അവരിലേക്ക്	-0.0580
-4.4132	അവരിവിടെയെത്തും	0.0354
-4.1120	അവരിൽ	-0.0580
-4.4132	അവരും	-0.0580
-3.2089	അവരുടെ	0.0362
-4.4132	അവരുദ്ദേശിക്കുന്നത്	-0.0579
-4.4132	അവരുമായി	0.0354
-4.4132	അവരുമായിട്ടുള്ള	-0.0580
-3.5099	അവരെ	-0.0939
-4.4132	അവരെക്കൊണ്ട്	-0.0580
-4.4132	അവരെന്തിനാണ്	-0.0577
-4.4132	അവരെപ്പോഴും	-0.0580
-4.4132	അവരെയല്ലം	-0.0518
-4.4132	അവരെയൊക്കെ	-0.0580
-4.4132	അവരെല്ലാം	-0.0580
-4.4132	അവരെവിടെ	0.0354
-4.4132	അവരൊക്കെ	-0.0571
-4.4132	അവരോടെല്ലാം	-0.0578
-3.9359	അവരോട്	-0.0575
-4.4132	അവര്	-0.0580
-4.4132	അവര്ക്ക്	-0.0578
-2.9359	അവര്‍	0.0237
-4.4132	അവര്‍ക്കിത്	-0.0580
-4.4132	അവര്‍ക്കിവിടെ	-0.0580
-4.4132	അവര്‍ക്കുവേണ്ടി	0.0354
-4.4132	അവര്‍ക്കെന്തു	-0.0580
-4.4132	അവര്‍ക്കൊരു	-0.0579
-3.4130	അവര്‍ക്ക്	0.0381
-4.4132	അവളതിന്റെ	-0.0580
-4.4132	അവളത്	-0.0580
-4.4132	അവളായിരുന്നേനെ	-0.0558
-4.4132	അവളിപ്പോളും	-0.0580
-4.4132	അവളിപ്പോഴും	-0.0580
-4.1120	അവളില്‍	-0.0579
-3.3338	അവളുടെ	-0.0575
-3.5099	അവളെ	-0.0565
-4.4132	അവളെന്താണ്	-0.0580
-4.4132	അവളെയാണ്	-0.0580
-4.4132	അവളേം	-0.0580
-4.4132	അവളൊന്നും	-0.0580
-4.4132	അവളൊരിക്കലും	-0.0580
-4.4132	അവളൊരു	-0.0571
-4.4132	അവളോടെങ്ങനെ	-0.0580
-4.4132	അവളോടൊരു	-0.0579
-4.4132	അവളോട്‌	-0.0580
-3.2089	അവള്‍	-0.0061
-4.4132	അവള്‍ക്ക്	-0.0580
-4.4132	അവശിഷ്ട്ടം	0.0354
-4.4132	അവശേഷിച്ചിരുന്നെങ്കിൽ	0.0354
-4.4132	അവശ്വസനിയമാണ്	0.0354
-4.4132	അവസരം	0.0354
-4.4132	അവസരമുണ്ട്	0.0354
-4.4132	അവസരവുമാകും	0.0354
-3.9359	അവസാന	-0.0580
-3.9359	അവസാനം	-0.0509
-4.4132	അവസാനത്തിൽ	-0.0576
-4.1120	അവസാനത്തെ	-0.0580
-4.4132	അവസാനമായി	-0.0580
-4.4132	അവസാനമാവും	0.0354
-4.4132	അവസാനിക്കും	0.0354
-4.4132	അവസാനിക്കുകയായിരുന്നു	0.0354
-4.4132	അവസാനിക്കുന്നതിനോടുള്ള	-0.0580
-4.4132	അവസാനിക്കുന്നത്	0.0354
-4.4132	അവസാനിച്ചത്	-0.0580
-4.4132	അവസാനിച്ചല്ലോ	0.0354
-4.4132	അവസാനിച്ചിരിക്കുന്നു	0.0354
-4.4132	അവസാനിച്ചെന്നു	-0.0578
-4.4132	അവസാനിപ്പിക്കരുത്	0.0354
-4.4132	അവസാനിപ്പിക്കുന്നു	0.0354
-4.4132	അവസാനിപ്പിച്ചു	0.0354
-3.9359	അവസ്ഥ	-0.0570
-4.4132	അവിചാരിത	-0.0580
-4.1120	അവിടം	-0.0580
-4.4132	അവിടുത്തെ	0.0354
-4.4132	അവിടുന്ന്	-0.0578
-2.7502	അവിടെ	0.0368
-4.4132	അവിടെത്തെ	-0.0580
-4.4132	അവിടെന്ന്	-0.0557
-4.4132	അവിടെയല്ലാ	0.0354
-3.8109	അവിടെയാണ്	-0.1673
-4.4132	അവിടെയായിരിക്കും	-0.0579
-4.4132	അവിടെയില്ലാത്തത്	-0.0580
-4.4132	അവിടെയുണ്ടെന്ന്	-0.0578
-3.9359	അവിടെയുണ്ട്	-0.2704
-4.4132	അവിടെയുമല്ലാ	0.0354
-4.4132	അവിടെയുള്ളവരെല്ലാം	-0.0580
-4.4132	അവിടെയെവിടെയെങ്കിലും	-0.0580
-3.8109	അവിടെയൊരു	-0.0578
-4.4132	അവിടേക്ക്	0.0354
-4.4132	അവ്യക്ത	-0.0580
-3.4587	അവൻ	-0.0575
-2.9980	അവർ	0.0387
-4.4132	അവർക്കറിയാം	0.0354
-4.4132	അവർക്കറിയില്ലാ	0.0354
-4.4132	അവർക്കെല്ലാം	-0.0580
-3.4130	അവർക്ക്	0.0390
-3.1342	അവൾ	0.0279
-4.4132	അവൾക്കു	-0.0580
-3.8109	അവൾക്ക്‌	-0.0526
-4.4132	അവൾക്ക്‌‌	-0.0580
-4.1120	അശു	-0.0580
-4.4132	അശ്രദ്ധമായ	-0.0580
-4.4132	അസംബന്ധം	0.0354
-4.4132	അസംബന്ധംങ്ങളെക്കുറിച്ച്	0.0354
-4.4132	അസാധാരണമായ	-0.0580
-4.4132	അസാധാരണമായി	-0.0580
-4.4132	അസാമാന്യകഴിവാണയാള്‍ക്ക്	0.0354
-4.4132	അസിസ്റ്റന്റ്	-0.0580
-4.4132	അസ്തമയത്തിനുമുമ്പുള്ള	-0.0580
-4.4132	അസ്ഥികൂടങ്ങള്‍	-0.0580
-4.4132	അസ്വഭാവികതയിൽ	-0.0578
-4.4132	അസ്വാഭാവികത	-0.0546
-4.4132	അസ്വാഭാവികതകള്‍	-0.0580
-4.4132	അഹങ്കാരം	-0.0577
-3.9359	അഹ്	0.0355
-4.4132	അർഥം	-0.0580
-4.4132	അർഥമെന്താണ്	0.0354
-2.3485	ആ	0.0127
-3.9359	ആം	-0.0947
-3.8109	ആംസ്റ്റർഡാം	-0.0576
-4.1120	ആംസ്റ്റർഡാമാണ്	-0.1782
-4.4132	ആംസ്റ്റർഡാമിലും	0.0354
-4.4132	ആംസ്റ്റർഡാമിലെത്തിയാൽ	-0.0580
-4.4132	ആംസ്റ്റർഡാമിലെവിടെയാണ്	-0.0580
-4.4132	ആംസ്റ്റർഡാമിലേക്കുള്ള	-0.0580
-4.4132	ആംസ്റ്റർഡാമിലേക്ക്	-0.0580
-4.4132	ആംസ്റ്റർഡാമിൽ	-0.0579
-4.4132	ആംസ്റ്റർഡാമൊക്കെ	-0.0580
-4.4132	ആകട്ടെ	-0.0575
-4.4132	ആകണം	0.0354
-4.4132	ആകര്‍ഷിക്കുന്നത്	0.0354
-4.4132	ആകാംഷ	-0.0580
-4.4132	ആകാശത്ത്	-0.0579
-4.4132	ആകാൻ	-0.0580
-4.4132	ആകും	0.0354
-4.4132	ആകുമായിരിക്കാം	0.0354
-4.4132	ആകുമായിരുന്നു	0.0354
-4.4132	ആകുമെന്ന്	-0.0559
-4.4132	ആകുവാൻ	0.0354
-3.9359	ആകെ	0.0355
-4.4132	ആക്കണോ	0.0354
-4.4132	ആക്കി	-0.0580
-4.4132	ആക്കിയ	-0.0580
-4.4132	ആക്കും	0.0354
-4.4132	ആക്രമിക്കാന്‍	-0.0577
-4.4132	ആക്രമിക്ക്	0.0354
-4.4132	ആക്ഷന്‍	0.0354
-4.4132	ആക്സലേറ്റർ	-0.0580
-4.1120	ആഗ്രഹം	0.0356
-4.4132	ആഗ്രഹമുണ്ട്	0.0354
-3.9359	ആഗ്രഹിക്കുന്നു	-0.2704
-4.4132	ആഗ്രഹിച്ചിരുന്നത്	0.0354
-4.4132	ആഘോഷത്തിലേക്	0.0354
-4.4132	ആജ്ഞകള്‍	-0.0580
-4.4132	ആണന്നറിയില്ലേ	0.0354
-3.9359	ആണുങ്ങളുടെ	-0.0580
-4.4132	ആണുങ്ങൾക്കും	-0.0580
-4.4132	ആണെന്നാണോ	0.0354
-4.4132	ആണെന്നാണ്	0.0354
-4.4132	ആണെന്നുള്ള	-0.0580
-4.4132	ആണെന്നെയൊള്ളൂ	0.0354
-3.9359	ആണെന്ന്	-0.0531
-3.8109	ആണോ	-0.1687
-2.9816	ആണ്	-0.4094
-4.4132	ആണ്‍കുട്ടി	0.0354
-4.1120	ആത്മവിശ്വാസം	0.0359
-4.4132	ആത്മാര്‍ത്ഥത	-0.0578
-4.4132	ആത്മാവും	-0.0580
-3.6348	ആദ്യ	-0.0579
-3.5099	ആദ്യം	-0.1516
-4.4132	ആദ്യംതന്നെ	-0.0568
-4.4132	ആദ്യകാല	-0.0580
-4.4132	ആദ്യതെ	-0.0580
-4.4132	ആദ്യത്തേത്	0.0354
-4.1120	ആദ്യമായി	0.0355
-4.4132	ആനുകൂല്യങ്ങളും	-0.0580
-4.1120	ആന്‍റിയെ	-0.0575
-4.1120	ആപേക്ഷികതയെ	-0.0580
-4.4132	ആഭരങ്ങളെടുക്കാൻ	-0.0578
-4.4132	ആയത്	0.0354
-3.9359	ആയി	-0.0580
-4.4132	ആയിക്കൊണ്ടിരിക്കുകയാണ്	-0.0580
-4.4132	ആയിട്ടുണ്ട്	0.0354
-4.4132	ആയിരം	-0.0580
-4.4132	ആയിരിക്കണം	0.0354
-4.4132	ആയിരിക്കാം	-0.0575
-3.9359	ആയിരിക്കും	-0.0947
-4.4132	ആയിരിക്കുമ്പോൾ	-0.0579
-3.7140	ആയിരുന്നു	-0.1845
-4.4132	ആയിരുന്നെങ്കില്‍	0.0354
-4.1120	ആയിരുന്നോ	-0.1782
-4.4132	ആയിരുന്നോന്ന്	0.0354
-4.4132	ആയുധം	-0.0557
-4.4132	ആയുധമൊന്നും	-0.0574
-4.4132	ആയുഷ്മാൻ	-0.0580
-4.4132	ആരംഭമാണ്	0.0354
-4.4132	ആരംഭിക്കുന്നു	0.0354
-4.4132	ആരംഭിച്ചത്	0.0354
-4.4132	ആരംഭിച്ചു	0.0354
-3.9359	ആരാ	0.0359
-4.1120	ആരാണത്	0.0357
-4.1120	ആരാണീ	-0.0575
-4.4132	ആരാണെന്നു	-0.0568
-4.4132	ആരാണെന്ന്	0.0354
-3.2089	ആരാണ്	-0.4736
-4.4132	ആരാധികയായത്	0.0354
-4.4132	ആരായാലും	0.0354
-3.6348	ആരും	0.0372
-4.4132	ആരുടെയെങ്കില്‍	-0.0579
-4.4132	ആരുമില്ല	0.0354
-3.9359	ആരെങ്കിലും	0.0355
-4.1120	ആരെയും	-0.0580
-3.9359	ആരോ	0.0361
-4.1120	ആരോടും	-0.0539
-4.4132	ആരോട്	-0.0579
-3.9359	ആര്	0.0355
-3.8109	ആര്‍ക്കും	-0.0576
-4.4132	ആര്‍ക്കുമിവനെ	-0.0580
-4.4132	ആര്‍ജ്ജിച്ചു	0.0354
-4.4132	ആറ്	0.0354
-4.4132	ആലോചിക്കും	0.0354
-4.4132	ആലോചിച്ചു	-0.0580
-4.4132	ആളല്ലേ	0.0354
-4.4132	ആളാണ്‌	0.0354
-4.4132	ആളായിരിക്കും	-0.0579
-4.4132	ആളുകളാണോ	-0.0572
-4.4132	ആളുകളാണ്	0.0354
-4.4132	ആളുകളും	-0.0580
-4.1120	ആളുകളെ	-0.0573
-4.4132	ആളുകളെല്ലാം	-0.0580
-3.9359	ആളുകള്‍	0.0355
-4.4132	ആളുപോലും	-0.0546
-4.4132	ആള്‍	0.0354
-4.4132	ആള്‍ക്കാരെ	-0.0580
-4.4132	ആഴത്തില്‍	-0.0580
-4.4132	ആഴ്ചകള്‍ക്കു	-0.0578
-4.4132	ആഴ്ചയായിരുന്നു	0.0354
-4.4132	ആഴ്ച്ച	-0.0579
-4.4132	ആവര്‍ത്തിക്കാം	0.0354
-4.4132	ആവര്‍ത്തിക്കാതിരിക്കണമെങ്കില്‍	0.0354
-4.4132	ആവര്‍ത്തിക്കുന്നു	-0.0546
-4.4132	ആവശ്യ	0.0354
-3.5679	ആവശ്യം	-0.0128
-4.4132	ആവശ്യത്തിനനുസരിച്ച്	0.0354
-4.4132	ആവശ്യത്തിന്	-0.0580
-4.4132	ആവശ്യപ്പെടുന്നത്	-0.0577
-4.4132	ആവശ്യപ്പെടുമ്പോള്‍	-0.0580
-4.4132	ആവശ്യപ്പെടേണ്ടതില്ല	0.0354
-4.4132	ആവശ്യപ്പെട്ടതും	0.0354
-4.4132	ആവശ്യപ്പെട്ടു	0.0354
-4.4132	ആവശ്യമല്ലേ	0.0354
-4.4132	ആവശ്യമാണ്	0.0354
-4.4132	ആവശ്യമായ	-0.0580
-4.1120	ആവശ്യമില്ല	-0.1782
-4.4132	ആവശ്യമുണ്ടോ	0.0354
-4.4132	ആവശ്യമുണ്ട്	0.0354
-3.9359	ആവില്ല	-0.2704
-4.4132	ആവുന്നത്ര	-0.0580
-4.4132	ആവേശമാണ്	0.0354
-4.4132	ആവർത്തിച്ച്‌	-0.0579
-4.1120	ആശംസിക്കുന്നു	-0.1782
-4.4132	ആശയം	-0.0580
-4.4132	ആശയക്കുഴപ്പങ്ങൾ	0.0354
-4.4132	ആശയമോ	0.0354
-3.8109	ആശയവിനിമയം	0.0359
-4.4132	ആശാവഹമല്ല	0.0354
-4.4132	ആശീര്‍വദിക്കാൻ	-0.0579
-4.4132	ആശീര്‍വ്വാദം	-0.0580
-4.4132	ആശ്ചര്യപ്പെടുകയാണ്	0.0354
-4.4132	ആശ്വാസം	-0.0580
-4.4132	ആസന്നമാവുന്നു	-0.0580
-4.4132	ആസമയം	0.0354
-4.4132	ആസാമികളുടെ	-0.0580
-4.4132	ആസുത്രണം	-0.0576
-4.4132	ആസ്വദിച്ചോ	0.0354
-4.1120	ആസ്വദിച്ചോളു	-0.1782
-4.4132	ആഹാരം	-0.0580
-3.4587	ആഹ്	-0.0742
-4.1120	ആൻഡ്‌	-0.0580
-4.4132	ആർക്കറിയാം	-0.0573
-4.4132	ആർക്കാണ്	-0.0578
-4.1120	ആർക്കിടെക്ചർ	-0.0578
-4.1120	ആർക്കും	-0.0578
-4.4132	ആർക്കൊക്കെ	-0.0576
-4.4132	ഇ	-0.0579
-3.9359	ഇംഗ്ലീഷിലെന്താണ്	-0.3638
-4.4132	ഇംഗ്ലീഷിൽ	-0.0580
-4.1120	ഇംഗ്ലീഷ്	0.0403
-4.4132	ഇക്കാര്യം	-0.0579
-4.4132	ഇക്കൊല്ലം	-0.0546
-3.4587	ഇങ്ങനെ	-0.0570
-4.4132	ഇങ്ങനെത്തെ	-0.0580
-4.1120	ഇങ്ങനെയാണ്	-0.0579
-4.4132	ഇങ്ങനെയായാൽ	-0.0579
-4.4132	ഇങ്ങനെയുള്ള	-0.0580
-4.4132	ഇങ്ങനെയെല്ലാം	-0.0580
-4.1120	ഇങ്ങനെയൊക്കെ	-0.0577
-3.9359	ഇങ്ങനെയൊന്നും	-0.0580
-4.1120	ഇങ്ങനെയൊരു	-0.0579
-4.4132	ഇങ്ങുതരൂ	0.0354
-4.4132	ഇങ്ങോട്ടയച്ചതാണ്	0.0354
-4.4132	ഇങ്ങോട്ടും	-0.0577
-3.4587	ഇങ്ങോട്ട്	0.0362
-4.4132	ഇഞ്ചിയും	-0.0580
-4.4132	ഇടക്കൊക്കെ	-0.0580
-4.4132	ഇടതു	-0.0580
-4.4132	ഇടതുഭാഗത്ത്	-0.0580
-4.4132	ഇടതുവശം	-0.0580
-4.4132	ഇടത്തും	-0.0580
-4.4132	ഇടത്തേക്ക്	0.0354
-4.4132	ഇടത്തോട്ട്	-0.0580
-4.4132	ഇടയിൽ	-0.0580
-4.4132	ഇടാറുണ്ട്	0.0354
-4.4132	ഇടാൻ	-0.0579
-4.4132	ഇടു	0.0354
-4.4132	ഇടുപ്പളവ്‌	-0.0580
-4.1120	ഇട്	-0.1782
-4.4132	ഇട്ടത്	0.0354
-4.4132	ഇട്ടിട്ടില്ലല്ലോ	0.0354
-4.4132	ഇട്ടിട്ട്	-0.0580
-4.4132	ഇട്ടോ	0.0354
-4.4132	ഇട്ട്	-0.0580
-4.4132	ഇണങ്ങിച്ചെരുന്നത്	-0.0580
-4.4132	ഇതദ്ദേഹത്തിന്	-0.0580
-4.4132	ഇതധികം	-0.0580
-4.4132	ഇതറിയാന്‍	-0.0580
-4.1120	ഇതല്ല	0.0378
-4.4132	ഇതല്ലേ	-0.0570
-4.4132	ഇതവസാന	-0.0580
-3.2669	ഇതാ	0.0220
-4.4132	ഇതാണത്	0.0354
-4.4132	ഇതാണവളുടെ	-0.0580
-4.4132	ഇതാണോ	-0.0570
-3.3338	ഇതാണ്	-0.0161
-4.4132	ഇതാരാണ്	0.0354
-4.1120	ഇതാരുടെ	-0.0580
-4.4132	ഇതി	-0.0580
-4.4132	ഇതിനപ്പറ്റി	-0.0580
-3.8109	ഇതിനു	-0.0572
-4.1120	ഇതിനുമുമ്പ്	-0.0569
-4.4132	ഇതിനുള്ളില്‍	-0.0576
-3.9359	ഇതിനെ	-0.0580
-4.4132	ഇതിനെന്റെ	0.0354
-4.4132	ഇതിനൊരു	-0.0580
-3.5679	ഇതിന്	0.0400
-3.6348	ഇതിന്‍റെ	-0.0246
-4.4132	ഇതിപ്പോ	-0.0578
-4.4132	ഇതിലിടുന്നത്	0.0354
-4.4132	ഇതിലുണ്ടാവൂ	0.0354
-4.4132	ഇതിലുണ്ട്	0.0354
-3.8109	ഇതില്‍	-0.0580
-4.4132	ഇതിവിടെ	-0.0580
-4.4132	ഇതു	-0.0580
-4.1120	ഇതും	-0.0576
-4.4132	ഇതുകൊണ്ട്	-0.0578
-4.4132	ഇതുനോക്ക്	-0.0580
-4.4132	ഇതുപയോഗിച്ചിരുന്നു	0.0354
-4.4132	ഇതുപോലെ	-0.0580
-4.4132	ഇതുപോലെയുള്ള	-0.0580
-4.4132	ഇതുപോലൊരു	-0.0580
-4.4132	ഇതുമായി	-0.0577
-3.7140	ഇതുവരെ	-0.0576
-4.4132	ഇതുവരെയില്ല	0.0354
-4.1120	ഇതുവരെയും	-0.0577
-4.4132	ഇതുവഴി	-0.0578
-4.4132	ഇതെങ്ങനെയാണ്	-0.0580
-4.4132	ഇതെങ്ങനെയുണ്ട്	0.0354
-4.4132	ഇതെടുത്തോളു	-0.0580
-4.4132	ഇതെനിക്കുള്ള	-0.0579
-4.4132	ഇതെനിക്ക്	-0.0580
-4.4132	ഇതെന്താ	-0.0580
-3.9359	ഇതെന്താണ്	-0.0947
-3.3716	ഇതെന്‍റെ	-0.0675
-4.4132	ഇതെല്ലം	-0.0559
-3.6348	ഇതെല്ലാം	-0.0537
-3.8109	ഇതൊക്കെ	-0.0579
-4.1120	ഇതൊന്നും	0.0362
-3.6348	ഇതൊരു	-0.0579
-4.4132	ഇതോടെ	-0.0580
-2.2859	ഇത്	0.0038
-4.4132	ഇത്തരം	-0.0580
-4.1120	ഇത്തവണ	-0.0540
-4.4132	ഇത്തവണയും	-0.0580
-3.9359	ഇത്തിരി	-0.0578
-3.9359	ഇത്ര	-0.0577
-3.9359	ഇത്രയും	-0.0579
-4.4132	ഇത്രയ്ക്	-0.0580
-3.7140	ഇത്രെയും	-0.2146
-4.4132	ഇത്രേ	-0.0580
-4.4132	ഇദ്ദേഹം	-0.0580
-3.1342	ഇനി	0.0485
-4.4132	ഇനിയവ	-0.0580
-4.4132	ഇനിയാരാണെന്നെ	-0.0578
-4.4132	ഇനിയിങ്ങോട്ട്	-0.0580
-3.7140	ഇനിയും	0.0383
-4.4132	ഇനിയെനിക്ക്	-0.0580
-4.4132	ഇനിയെന്താണ്	-0.0580
-4.4132	ഇനിയെന്തെങ്കിലും	0.0354
-4.4132	ഇനിയെന്നാണ്	-0.0576
-4.4132	ഇനിയെന്‍റെ	-0.0577
-4.4132	ഇനിയെല്ലാം	-0.0568
-4.4132	ഇനിയൊന്നുമില്ല	0.0354
-4.4132	ഇനിയൊരിക്കലും	-0.0578
-4.4132	ഇനിഷ്യൽ	0.0354
-4.4132	ഇന്ക്യുബറ്റ്	-0.0580
-3.6348	ഇന്ത്യ	-0.1423
-4.4132	ഇന്ത്യകാരുടേതാണോ	-0.0579
-4.4132	ഇന്ത്യക്കാരനാണോ	0.0354
-4.4132	ഇന്ത്യക്കാരനും	0.0354
-4.4132	ഇന്ത്യക്കാരാണ്	0.0354
-4.4132	ഇന്ത്യക്കാർ	-0.0580
-4.4132	ഇന്ത്യക്ക്	-0.0576
-4.4132	ഇന്ത്യഗേറ്റാണല്ലേ	-0.0580
-4.1120	ഇന്ത്യനാണ്	-0.0580
-4.4132	ഇന്ത്യയിലും	-0.0580
-4.4132	ഇന്ത്യയിലുമുണ്ടോ	0.0354
-4.4132	ഇന്ത്യയിലുമുണ്ട്	0.0354
-4.4132	ഇന്ത്യയിലേക്കുള്ള	-0.0579
-3.8109	ഇന്ത്യയിലേക്ക്	0.0359
-3.4587	ഇന്ത്യയിൽ	-0.1849
-4.1120	ഇന്ത്യയുടെ	-0.0580
-3.8109	ഇന്ത്യൻ	0.0361
-4.4132	ഇന്ധന	-0.0580
-3.6348	ഇന്ധനം	-0.0247
-4.4132	ഇന്ധനമോ	0.0354
-4.1120	ഇന്നത്തെ	-0.0577
-4.4132	ഇന്നലെ	-0.0557
-4.4132	ഇന്നിത്ര	-0.0580
-4.4132	ഇന്നും	-0.0571
-4.4132	ഇന്നുമാത്രമാണ്	0.0354
-4.4132	ഇന്നുമുതൽ	-0.0518
-4.4132	ഇന്നെന്റെ	-0.0580
-3.1825	ഇന്ന്	-0.0872
-4.4132	ഇന്‍സ്പെക്ടറുടെ	-0.0580
-4.4132	ഇന്‍സ്പെക്ടറെ	-0.0580
-3.8109	ഇന്‍സ്പെക്റ്റര്‍	-0.1496
-2.7598	ഇപ്പോൾ	0.0029
-4.1120	ഇപ്പൊ	-0.0579
-4.4132	ഇപ്പോളദ്ദേഹത്തിന്റെ	-0.0580
-4.4132	ഇപ്പോളാകും	0.0354
-4.1120	ഇപ്പോളും	-0.0571
-4.4132	ഇപ്പോളെന്തിനാണ്	-0.0576
-4.4132	ഇപ്പോഴിവിടെ	-0.0580
-3.5679	ഇപ്പോഴും	0.0423
-4.4132	ഇമെയിൽ	-0.0579
-4.4132	ഇമ്രാൻഹാഷ്മിയുടെ	-0.0580
-4.4132	ഇരിക്കു	0.0354
-4.1120	ഇരിക്കുകയാണ്	-0.1782
-4.1120	ഇരിക്കുന്നത്	0.0354
-4.4132	ഇരിക്കുന്നു	-0.0580
-4.4132	ഇരിക്കുമ്പോള്‍	-0.0579
-4.4132	ഇരിക്കൂ	0.0354
-3.6348	ഇരിക്ക്	-0.1344
-4.4132	ഇരുട്ടത്ത്	-0.0580
-4.1120	ഇരുട്ടാണ്‌	0.0354
-4.1120	ഇരുട്ടില്‍	-0.0580
-4.4132	ഇരുട്ടും	0.0354
-4.4132	ഇരുട്ടുമുറിയില്‍	0.0354
-4.4132	ഇരുട്ട്	0.0354
-4.4132	ഇരുനൂറു	-0.0580
-4.4132	ഇരുന്നിരുന്നു	0.0354
-4.4132	ഇരുന്ന്	-0.0579
-4.4132	ഇരുപതടി	-0.0580
-4.4132	ഇരുപതാം	-0.0580
-4.4132	ഇറക്കം	-0.0580
-4.4132	ഇറക്കണം	0.0354
-4.4132	ഇറക്കാം	0.0354
-4.4132	ഇറക്കിട്ട്	0.0354
-4.4132	ഇറക്കും	-0.0579
-4.4132	ഇറക്കുന്ന	-0.0580
-4.4132	ഇറങ്ങാം	0.0354
-4.4132	ഇറങ്ങിപോയി	0.0354
-4.4132	ഇറങ്ങിയ	-0.0580
-4.4132	ഇറങ്ങുന്നത്	-0.0571
-4.4132	ഇറങ്ങേണ്ടത്	-0.0580
-4.4132	ഇറച്ചികൊണ്ടുളള	-0.0577
-4.4132	ഇറ്റാലിയനാണ്	0.0354
-3.7140	ഇറ്റാലിയൻ	-0.1311
-3.9359	ഇലക്ട്രിക്കൽ	-0.0578
-4.1120	ഇലക്ട്രോണിക്സ്	-0.0578
-2.8332	ഇല്ല	-0.1215
-4.1120	ഇല്ലല്ലോ	0.0355
-3.5099	ഇല്ലാ	-0.1625
-4.4132	ഇല്ലാതാകും	0.0354
-4.4132	ഇല്ലാതാക്കിയാല്‍	-0.0580
-4.4132	ഇല്ലാതായി	0.0354
-4.4132	ഇല്ലാതിരിക്കുമ്പോള്‍	0.0354
-4.4132	ഇല്ലാതെ	-0.0579
-3.9359	ഇല്ലായിരുന്നു	-0.2704
-4.4132	ഇല്ലായിരുന്നെങ്കില്‍	-0.0557
-4.4132	ഇല്ലില്ല	0.0354
-4.4132	ഇല്ലെങ്കിലും	0.0354
-4.4132	ഇല്ലെന്നു	-0.0578
-4.4132	ഇല്ലെന്ന്	0.0354
-3.9359	ഇല്ലേ	-0.0938
-4.4132	ഇളകാതെ	-0.0580
-4.4132	ഇളക്കി	-0.0580
-4.4132	ഇളക്കുകയായിരുന്നു	0.0354
-4.1120	ഇവ	-0.0578
-4.4132	ഇവനാകെ	-0.0580
-4.4132	ഇവനാണവന്‍	0.0354
-4.4132	ഇവനിങ്ങ്	0.0354
-4.4132	ഇവനും	-0.0580
-4.1120	ഇവനെ	-0.0579
-4.4132	ഇവനെന്തായിരിക്കും	-0.0580
-4.4132	ഇവനെന്തൊക്കെ	-0.0579
-3.9359	ഇവന്‍	-0.1835
-4.4132	ഇവരുടെ	-0.0580
-4.4132	ഇവരൊക്കെ	-0.0578
-4.4132	ഇവരൊക്കെയാണോ	-0.0572
-4.1120	ഇവരോട്	-0.0579
-4.4132	ഇവര്‍	-0.0578
-4.4132	ഇവര്‍ക്കിവിടെ	-0.0577
-4.4132	ഇവളുടെ	-0.0580
-4.1120	ഇവള്‍	0.0366
-3.9359	ഇവിടം	-0.0578
-3.9359	ഇവിടത്തെ	-0.0575
-4.4132	ഇവിടന്നു	-0.0580
-4.4132	ഇവിടുത്തെ	-0.0568
-3.7140	ഇവിടുന്ന്	-0.1208
-2.6001	ഇവിടെ	-0.0049
-4.4132	ഇവിടെതന്നെയുണ്ടാവും	-0.0579
-3.8109	ഇവിടെത്തന്നെ	-0.0580
-4.4132	ഇവിടെത്തന്നെയുണ്ട്	0.0354
-4.1120	ഇവിടെനിന്നാണ്	0.0397
-4.4132	ഇവിടെനിന്നും	-0.0580
-4.4132	ഇവിടെനിന്ന്	-0.0580
-4.4132	ഇവിടെന്നൊരു	-0.0579
-4.1120	ഇവിടെയാണ്‌	0.0356
-3.8109	ഇവിടെയുണ്ട്	-0.1706
-4.4132	ഇവിടെയുള്ളത്	0.0354
-4.4132	ഇവിടെയെങ്ങും	-0.0580
-4.4132	ഇവിടെയെത്തിച്ചത്	0.0354
-4.4132	ഇഷ്ട	-0.0580
-4.4132	ഇഷ്ടം	-0.0578
-4.4132	ഇഷ്ടങ്ങള്‍	-0.0580
-4.4132	ഇഷ്ടത്തിലാണ്	0.0354
-4.4132	ഇഷ്ടത്തോടെ	0.0354
-4.4132	ഇഷ്ടപെടാത്ത	0.0354
-4.1120	ഇഷ്ടപെട്ട	0.0356
-4.4132	ഇഷ്ടപെട്ടില്ലാ	-0.0579
-4.4132	ഇഷ്ടപ്പെടാത്തത്	0.0354
-4.4132	ഇഷ്ടപ്പെടുന്ന	-0.0541
-4.4132	ഇഷ്ടപ്പെടുന്നതു	-0.0580
-4.4132	ഇഷ്ടപ്പെടുന്നില്ല	0.0354
-4.4132	ഇഷ്ടപ്പെടുന്നില്ലെന്ന്	-0.0578
-4.4132	ഇഷ്ടമല്ല	0.0354
-4.4132	ഇഷ്ടമല്ലല്ലോ	-0.0579
-4.4132	ഇഷ്ടമല്ലാ	0.0354
-4.4132	ഇഷ്ടമല്ലേ	0.0354
-4.4132	ഇഷ്ടമാണെങ്കിൽ	0.0354
-4.4132	ഇഷ്ടമാണെന്ന്	-0.0559
-4.4132	ഇഷ്ടമാണോ	0.0354
-3.2369	ഇഷ്ടമാണ്	-0.6902
-4.4132	ഇഷ്ടമായത്	0.0354
-4.4132	ഇഷ്ടമായന്നോ	-0.0580
-3.7140	ഇഷ്ടമായി	-0.1887
-3.8109	ഇഷ്ടമായിട്ടില്ലാ	-0.2692
-4.4132	ഇഷ്ടമായിരുന്നു	0.0354
-4.4132	ഇഷ്ടമായിരുന്നെന്ന്	0.0354
-4.4132	ഇഷ്ടമായില്ല	0.0354
-4.4132	ഇഷ്ടമായില്ലേ	0.0354
-4.4132	ഇഷ്ടമായെന്നറിഞ്ഞപ്പോള്‍	0.0354
-4.4132	ഇഷ്ടമായോ	0.0354
-4.4132	ഇഷ്ടമുള്ളത്	-0.0579
-3.4130	ഇസബെല്‍	-0.2593
-4.4132	ഇൻ	-0.0579
-4.4132	ഇൻവെർട്ടറിലാണ്	-0.0580
-2.3959	ഈ	-0.0843
-4.4132	ഈടാക്കിക്കോളു	0.0354
-3.6348	ഈഫൽ	-0.1845
-4.4132	ഈയാളുകൾ	-0.0572
-3.8109	ഈവനിങ്ങ്	-0.1509
-3.5099	ഉം	-0.0546
-4.4132	ഉച്ചയ്ക്	-0.0580
-4.4132	ഉച്ഛ്വാസവായുവും	-0.0580
-4.4132	ഉടനീളം	-0.0580
-4.1120	ഉടനെ	0.0363
-4.4132	ഉണരാനുള്ള	-0.0577
-4.4132	ഉണര്	0.0354
-4.1120	ഉണ്ടല്ലോ	-0.1782
-4.4132	ഉണ്ടവിടെ	0.0354
-4.4132	ഉണ്ടാകില്ല	0.0354
-4.4132	ഉണ്ടാകുന്നൊരു	-0.0580
-4.4132	ഉണ്ടാകുമെന്ന്	-0.0570
-4.4132	ഉണ്ടാകുമോ	0.0354
-4.1120	ഉണ്ടാക്കാനും	0.0354
-3.8109	ഉണ്ടാക്കാൻ	-0.1517
-4.1120	ഉണ്ടാക്കി	-0.1782
-4.4132	ഉണ്ടാക്കികൂടെ	0.0354
-4.1120	ഉണ്ടാക്കിയ	-0.0541
-4.4132	ഉണ്ടാക്കിയതാകണം	0.0354
-4.4132	ഉണ്ടാക്കിയതാണോ	0.0354
-4.1120	ഉണ്ടാക്കിയതാണ്	-0.1782
-4.4132	ഉണ്ടാക്കിയത്	0.0354
-4.4132	ഉണ്ടാക്കിയപ്പോള്‍	0.0354
-4.4132	ഉണ്ടാക്കുക	0.0354
-4.1120	ഉണ്ടാക്കുന്നത്	-0.1782
-4.4132	ഉണ്ടാക്കുന്നു	0.0354
-4.4132	ഉണ്ടായതല്ലേ	0.0354
-4.4132	ഉണ്ടായതാകണം	0.0354
-4.4132	ഉണ്ടായതാണ്	0.0354
-4.1120	ഉണ്ടായി	-0.1782
-4.4132	ഉണ്ടായിട്ടുള്ളൂ	0.0354
-4.4132	ഉണ്ടായിരുന്ന	0.0354
-4.4132	ഉണ്ടായിരുന്നത്	-0.0580
-3.5679	ഉണ്ടായിരുന്നു	-0.2592
-4.4132	ഉണ്ടായിരുന്നുഅവിടെ	-0.0518
-4.4132	ഉണ്ടായിരുന്നോ	0.0354
-4.4132	ഉണ്ടാവണമെന്നില്ല	0.0354
-4.4132	ഉണ്ടാവാൻ	-0.0580
-4.4132	ഉണ്ടാവില്ല	0.0354
-4.4132	ഉണ്ടാവില്ലായിരിക്കും	-0.0577
-4.4132	ഉണ്ടാവുക	0.0354
-4.4132	ഉണ്ടാവുമ്പോൾ	0.0354
-4.1120	ഉണ്ടെന്ന്	-0.0578
-4.1120	ഉണ്ടോ	-0.1782
-4.4132	ഉണ്ടോന്ന്	-0.0580
-3.0908	ഉണ്ട്	-0.4547
-3.7140	ഉത്തരം	-0.0578
-4.4132	ഉത്തരവാദിത്തങ്ങൾ	-0.0579
-4.4132	ഉത്തരവാദിത്തമുണ്ട്	0.0354
-4.4132	ഉത്തേജിപ്പിക്കും	0.0354
-4.4132	ഉത്സാഹിച്ചു	-0.0580
-4.4132	ഉദിക്കട്ടെ	0.0354
-4.4132	ഉദിച്ചു	0.0354
-4.4132	ഉദ്ദേശം	-0.0580
-4.1120	ഉദ്ദേശിക്കുന്നത്	-0.0575
-4.4132	ഉദ്ദേശിക്കുന്നില്ല	0.0354
-4.4132	ഉദ്ദേശിക്കുന്നു	0.0354
-3.7140	ഉദ്ദേശിച്ചത്	-0.1204
-4.1120	ഉദ്ദേശിച്ചില്ല	-0.1782
-4.4132	ഉപകരണം	-0.0579
-4.4132	ഉപകരണങ്ങൾ	-0.0580
-4.4132	ഉപകരണമോ	-0.0579
-4.4132	ഉപകാരപ്പെടില്ല	0.0354
-4.4132	ഉപകാരപ്പെടും	0.0354
-4.4132	ഉപകാരപ്രദമാണ്	0.0354
-4.4132	ഉപഗ്രഹങ്ങള്‍	-0.0580
-4.4132	ഉപദേഷ്ടാവ്	-0.0580
-4.4132	ഉപയോഗിക്കാം	0.0354
-4.4132	ഉപയോഗിക്കും	0.0354
-4.4132	ഉപയോഗിക്കുംബോളുള്ള	-0.0580
-4.4132	ഉപയോഗിച്ച്	0.0354
-4.4132	ഉപയോഗം	-0.0580
-4.4132	ഉപയോഗമുള്ളത്	-0.0578
-3.9359	ഉപയോഗശൂന്യമായ	-0.1882
-4.4132	ഉപയോഗിക്കട്ടേ	0.0354
-4.1120	ഉപയോഗിക്കാം	0.0361
-4.4132	ഉപയോഗിക്കാതിരുന്നത്	0.0354
-4.4132	ഉപയോഗിക്കാനും	-0.0580
-4.1120	ഉപയോഗിക്കുന്നത്	-0.1782
-4.4132	ഉപയോഗിച്ചതു	-0.0580
-4.4132	ഉപയോഗിച്ചത്	-0.0580
-4.4132	ഉപയോഗിച്ചാണത്	-0.0579
-4.4132	ഉപയോഗിച്ചാണ്	-0.0563
-4.1120	ഉപയോഗിച്ചു	-0.1782
-3.8109	ഉപയോഗിച്ച്	-0.0581
-4.1120	ഉപരി	0.0355
-4.4132	ഉപേക്ഷിക്കപ്പെട്ട	-0.0580
-4.4132	ഉപേക്ഷിക്കാം	0.0354
-4.1120	ഉപേക്ഷിക്കാൻ	0.0355
-4.4132	ഉപേക്ഷിക്കുക	-0.0580
-4.4132	ഉപേക്ഷിക്കേണ്ടി	-0.0577
-4.4132	ഉപേക്ഷിച്ചാൽ	-0.0580
-4.1120	ഉപേക്ഷിച്ചു	-0.0579
-4.4132	ഉപേക്ഷിച്ചുപോകുമോ	0.0354
-4.4132	ഉപേക്ഷിച്ച്	-0.0580
-4.4132	ഉപ്പിട്ട	-0.0580
-4.4132	ഉപ്പും	0.0354
-4.4132	ഉപ്പ്	-0.0580
-4.1120	ഉയരുന്നു	0.0357
-4.4132	ഉയിര്‍ത്തെഴുന്നേല്‍പ്പ്	0.0354
-4.4132	ഉയർത്തി	0.0354
-4.4132	ഉയർത്തുന്നു	0.0354
-4.4132	ഉയർന്ന	-0.0580
-4.4132	ഉരുക്കി	-0.0580
-4.1120	ഉരുളക്കിഴങ്ങ്	0.0354
-4.4132	ഉറക്കത്തിലായിരുന്നു	0.0354
-4.4132	ഉറക്കത്തിലേയ്ക്	-0.0580
-4.4132	ഉറക്കമായിരിക്കും	0.0354
-3.9359	ഉറക്കെ	0.0355
-4.4132	ഉറങ്ങാൻ	-0.0578
-4.4132	ഉറങ്ങിക്കോ	0.0354
-4.4132	ഉറങ്ങിപ്പോയി	0.0354
-4.4132	ഉറങ്ങിയില്ല	0.0354
-4.4132	ഉറങ്ങ്‌	0.0354
-3.8109	ഉറപ്പല്ലേ	-0.2692
-3.9359	ഉറപ്പാണോ	-0.0919
-4.1120	ഉറപ്പായിട്ടും	-0.0518
-4.4132	ഉറപ്പിക്കരുത്	-0.0579
-4.4132	ഉറപ്പിക്കാന്‍	-0.0571
-4.4132	ഉറപ്പുണ്ടോ	0.0354
-4.1120	ഉറപ്പുണ്ട്	-0.1782
-4.1120	ഉറപ്പുതരാം	-0.1782
-4.4132	ഉറപ്പുള്ളതാണ്	0.0354
-4.4132	ഉറപ്പുവരുത്തും	-0.0580
-4.4132	ഉറപ്പോ	0.0354
-3.8109	ഉറപ്പ്	-0.0574
-4.1120	ഉള്ള	-0.0580
-3.9359	ഉള്ളത്	-0.0935
-4.4132	ഉള്ളിലേയ്ക്	-0.0580
-4.1120	ഉള്ളില്‍	-0.0578
-4.4132	ഉള്ളു	0.0354
-3.9359	ഉവ്വ്	0.0356
-4.1120	ഉൾപ്പെടെ	-0.1782
-4.4132	ഊ	0.0354
-4.4132	ഊര്‍ജ്ജം	0.0354
-4.4132	ഊര്‍ജ്ജതന്ത്രജ്ഞനാണ്	0.0354
-4.4132	ഊഴമാണ്	0.0354
-4.4132	ഊഹ്	-0.0577
-4.1120	എ	0.0354
-4.4132	എക്കാലത്തേക്കാളും	-0.0578
-4.4132	എക്സ്മൈറ്റ്സ്	0.0354
-3.7140	എങ്കിലും	-0.0564
-3.8109	എങ്കില്‍	-0.0546
-4.4132	എങ്ങനിരുന്നു	0.0354
-2.9658	എങ്ങനെ	-0.0702
-4.4132	എങ്ങനെയാ	-0.0557
-3.4587	എങ്ങനെയാണ്	-0.3949
-3.9359	എങ്ങനെയായിരിക്കും	-0.2704
-4.4132	എങ്ങനെയും	-0.0580
-4.4132	എങ്ങനെയെങ്കിലും	0.0354
-4.4132	എങ്ങനെയെന്നത്	0.0354
-4.4132	എങ്ങാണ്ടൊരിടത്ത്	0.0354
-4.4132	എങ്ങും	-0.0580
-4.4132	എങ്ങെനെ	-0.0580
-3.9359	എങ്ങോട്ടാണ്	0.0355
-4.4132	എങ്ങോട്ടും	-0.0580
-4.4132	എങ്ങോട്ടെങ്കിലും	-0.0580
-4.4132	എങ്ങോട്ട്	-0.0578
-4.4132	എച്ച്	-0.0580
-3.6348	എച്ച്ഓഡി	-0.4291
-4.4132	എഞ്ചിനിൽ	-0.0580
-4.4132	എഞ്ചിനീയര്‍മാരെ	-0.0580
-4.4132	എഞ്ചിനീയറിംഗ്	-0.0576
-4.4132	എഞ്ചിനീയറും	-0.0580
-4.4132	എഞ്ചിനീയർ	-0.0580
-4.4132	എഞ്ചിൻ	-0.0580
-4.4132	എടാ	0.0354
-3.9359	എടീ	-0.0577
-4.4132	എടുക്കാംഡ്രാഗണിനെ	-0.0580
-4.4132	എടുക്കു	0.0354
-4.4132	എടുക്കും	0.0354
-4.4132	എടുക്കുക	0.0354
-4.4132	എടുക്കുകയും	-0.0578
-4.4132	എടുക്കുന്നതെന്തിനാണ്	0.0354
-4.1120	എടുക്കുന്നു	0.0354
-4.4132	എടുക്കുന്നുള്ളൂ	0.0354
-4.4132	എടുക്കുന്നോ	-0.0579
-4.4132	എടുക്കുമെന്നാണ്	0.0354
-4.4132	എടുക്കെടി	0.0354
-3.9359	എടുക്ക്	-0.2704
-4.4132	എടുത്ത	-0.0580
-4.4132	എടുത്തതാണ്	0.0354
-4.4132	എടുത്താലോ	-0.0580
-4.4132	എടുത്താല്‍	-0.0579
-4.4132	എടുത്തിട്ട്	-0.0579
-4.4132	എടുത്തില്ലേ	0.0354
-4.4132	എടുത്തുചാട്ടം	-0.0579
-4.1120	എടുത്തോ	0.0357
-4.4132	എടുത്തോണ്ട്	-0.0579
-4.4132	എടുത്തോളുഇത്	-0.0557
-4.1120	എടുത്ത്	0.0355
-4.1120	എടോ	-0.0580
-4.4132	എട്ടു	-0.0577
-4.1120	എട്ട്	0.0355
-4.4132	എഡമണ്ടിന്റെ	-0.0580
-4.4132	എഡമണ്ട്സിനെക്കുറിച്ച്	-0.0577
-4.1120	എഡമണ്ട്സ്	-0.0544
-4.4132	എഡ്മംഡ്സും	0.0354
-4.4132	എഡ്മംഡ്സ്	-0.0580
-3.7140	എഡ്മണ്ടിന്റെ	-0.2146
-4.4132	എഡ്മണ്ടിന്റേതാണ്	-0.0580
-4.4132	എഡ്മണ്ടുമായി	-0.0580
-4.1120	എണീക്ക്	0.0357
-4.1120	എണ്ണം	-0.0578
-4.4132	എണ്ണക്ക്	-0.0580
-4.4132	എണ്ണമുണ്ട്	-0.0580
-4.4132	എണ്ണി	0.0354
-4.4132	എതിർപ്പ്	-0.0577
-4.1120	എത്തണം	0.0355
-3.9359	എത്താൻ	-0.0578
-3.7140	എത്തി	-0.1209
-4.4132	എത്തിക്കാൻ	-0.0580
-4.4132	എത്തിക്കുന്നതിനായിരുന്നു	0.0354
-4.4132	എത്തിക്കുമെന്നുള്ള	-0.0580
-4.4132	എത്തിക്കൂ	0.0354
-4.4132	എത്തിച്ചിരിക്കുന്നു	0.0354
-4.1120	എത്തിച്ചു	-0.1782
-4.4132	എത്തിച്ചേർന്നു	-0.0575
-4.4132	എത്തിച്ച്	-0.0580
-4.4132	എത്തിയതുപോലെ	0.0354
-4.4132	എത്തിയത്	0.0354
-4.4132	എത്തിയില്ലേ	0.0354
-4.4132	എത്തിയെന്ന്	0.0354
-4.4132	എത്തിയേക്കാം	0.0354
-4.4132	എത്തിയ്ത്	0.0354
-4.1120	എത്തില്ലായിരുന്നു	-0.1782
-3.5099	എത്ര	-0.0573
-3.7140	എത്രത്തോളം	-0.0575
-4.4132	എത്രയാ	-0.0580
-4.1120	എത്രയാണ്	0.0361
-4.4132	എത്രയിലാണ്	-0.0580
-3.8109	എത്രെ	-0.1516
-4.1120	എനിക്കതറിയാം	0.0361
-4.1120	എനിക്കതിനെ	-0.0580
-4.4132	എനിക്കതിന്	-0.0579
-4.4132	എനിക്കതിന്റെ	-0.0580
-3.5099	എനിക്കത്	-0.0570
-4.4132	എനിക്കത്ര	0.0354
-4.1120	എനിക്കറിയണം	-0.1782
-3.2369	എനിക്കറിയാം	-0.0675
-3.9359	എനിക്കറിയാമായിരുന്നു	-0.0948
-3.6348	എനിക്കറിയില്ല	-0.0153
-4.4132	എനിക്കറിയില്ലായിരുന്നു	-0.0546
-4.4132	എനിക്കറിയേണ്ടത്	0.0354
-4.1120	എനിക്കവനെ	-0.0580
-4.1120	എനിക്കവളെ	0.0356
-4.4132	എനിക്കവിടെ	-0.0579
-4.4132	എനിക്കാകുമെന്നാണ്	-0.0580
-4.4132	എനിക്കാണുയരം	-0.0578
-4.4132	എനിക്കാണെന്ന്	-0.0578
-4.4132	എനിക്കായി	-0.0580
-4.4132	എനിക്കാവുമ്പോഴൊക്കെ	-0.0518
-4.4132	എനിക്കിതു	-0.0576
-4.4132	എനിക്കിതുവരെ	-0.0563
-3.8109	എനിക്കിത്	-0.0576
-4.4132	എനിക്കിപോൾ	-0.0580
-4.4132	എനിക്കിപ്പം	-0.0578
-4.4132	എനിക്കിപ്പഴേ	-0.0541
-4.1120	എനിക്കിപ്പോള്‍	-0.0528
-4.4132	എനിക്കിപ്പോൾ	-0.0578
-4.4132	എനിക്കിഷ്ടമാണ്	0.0354
-4.4132	എനിക്കിഷ്ടമായി	0.0354
-4.4132	എനിക്കിഷ്ട്ടായി	-0.0573
-4.4132	എനിക്കീ	-0.0580
-3.4587	എനിക്കു	-0.0964
-3.8109	എനിക്കും	0.0359
-4.1120	എനിക്കുമറിയാം	0.0354
-4.4132	എനിക്കുമിത്	-0.0580
-4.4132	എനിക്കുറപ്പാണ്	-0.0575
-4.4132	എനിക്കെത്രെ	-0.0580
-4.1120	എനിക്കെന്താണ്	-0.0577
-3.7140	എനിക്കെന്റെ	-0.1310
-4.1120	എനിക്കെന്‍റെ	-0.0579
-4.4132	എനിക്കെപ്പോളാണ്	-0.0579
-4.4132	എനിക്കൊന്നും	-0.0580
-4.4132	എനിക്കൊന്നേ	-0.0580
-3.4130	എനിക്കൊരു	-0.0570
-2.1981	എനിക്ക്	-0.0168
-3.2089	എന്താ	0.0224
-4.4132	എന്താണതിന്‍റെ	-0.0579
-4.4132	എന്താണതെന്ന്	-0.0578
-4.1120	എന്താണത്	0.0357
-4.4132	എന്താണന്ന്	-0.0580
-4.4132	എന്താണവിടെ	-0.0580
-4.4132	എന്താണാ	-0.0580
-4.1120	എന്താണിതിന്റെ	-0.0580
-4.4132	എന്താണിത്	0.0354
-3.9359	എന്താണിത്ര	-0.0580
-4.4132	എന്താണിപ്പോൾ	-0.0580
-3.8109	എന്താണിവിടെ	-0.0576
-4.4132	എന്താണീ	-0.0580
-4.4132	എന്താണു	0.0354
-4.4132	എന്താണുള്ളത്	0.0354
-4.4132	എന്താണെന്നു	-0.0553
-3.9359	എന്താണെന്ന്	0.0358
-3.0328	എന്താണ്	0.0080
-4.4132	എന്താന്നാൽ	-0.0577
-4.4132	എന്താന്നുവച്ചാൽ	-0.0575
-3.5679	എന്തായാലും	-0.0051
-4.4132	എന്തായി	0.0354
-4.4132	എന്തായിരുന്നു	0.0354
-3.9359	എന്തിനാ	-0.0541
-4.4132	എന്തിനാണവൾ	-0.0573
-4.4132	എന്തിനാണെന്നും	-0.0578
-4.4132	എന്തിനാണെന്ന്	-0.0580
-3.5679	എന്തിനാണ്	-0.0531
-4.4132	എന്തിനു	0.0354
-4.4132	എന്തിനുവേണ്ടി	-0.0573
-4.4132	എന്തിനെയാണെന്ന്	0.0354
-3.5099	എന്തിന്	-0.3804
-3.7140	എന്തു	-0.0576
-4.4132	എന്തും	-0.0579
-4.4132	എന്തുകാര്യം	0.0354
-4.4132	എന്തുകൊണ്ട്	-0.0557
-4.4132	എന്തുകൊണ്ടിത്	-0.0580
-3.5099	എന്തുകൊണ്ട്	-0.0027
-4.4132	എന്തുചെയ്യന്‍	-0.0578
-4.4132	എന്തുചെയ്യും	-0.0573
-4.4132	എന്തുപറയും	0.0354
-4.4132	എന്തുപറയുന്നു	-0.0568
-3.9359	എന്തുപറ്റി	-0.0946
-4.4132	എന്തുപറ്റും	0.0354
-4.4132	എന്തുസംഭവിക്കും	0.0354
-3.2089	എന്തെങ്കിലും	-0.0574
-4.4132	എന്തെങ്കിലുമാവട്ടെ	-0.0580
-4.4132	എന്തെങ്കിലുമൊക്കെ	-0.0579
-4.4132	എന്തെങ്കിലുമൊന്ന്	-0.0580
-4.4132	എന്തെന്നാല്‍	-0.0578
-4.4132	എന്തെല്ലാം	-0.0577
-3.8109	എന്തൊരു	-0.0580
-4.4132	എന്തൊര്	-0.0580
-3.4130	എന്തോ	-0.1211
-3.0513	എന്ത്	-0.0229
-4.1120	എന്ന	0.0354
-4.4132	എന്നതിനാൽ	-0.0580
-4.4132	എന്നതിനെക്കുറിച്ചും	0.0354
-4.4132	എന്നതിലാണ്	-0.0576
-4.1120	എന്നത്	0.0355
-4.4132	എന്നദ്ദേഹം	-0.0580
-4.4132	എന്നപോലെയാണ്	-0.0579
-4.4132	എന്നലറുക	0.0354
-4.4132	എന്നല്ലല്ലോ	0.0354
-4.4132	എന്നല്ലേ	-0.0580
-4.4132	എന്നവരോട്	-0.0580
-3.9359	എന്നാ	0.0358
-4.4132	എന്നാണവളുടെ	-0.0579
-4.4132	എന്നാണു	-0.0579
-4.4132	എന്നാണോ	0.0354
-3.3716	എന്നാണ്	-0.2163
-4.4132	എന്നായിരുന്നു	-0.0568
-4.4132	എന്നാലത്	-0.0580
-4.4132	എന്നാലിതാര്	-0.0580
-3.8109	എന്നാലും	-0.0542
-3.0908	എന്നാല്‍	-0.0034
-4.4132	എന്നാവണ്ടിയിരുന്നു	0.0354
-4.4132	എന്നിട്ടും	-0.0559
-4.4132	എന്നിട്ട്	-0.0559
-4.4132	എന്നു	0.0354
-3.8109	എന്നും	-0.0575
-4.4132	എന്നുമുതലാണ്	-0.0563
-4.1120	എന്നുള്ളതാണ്	-0.1782
-4.4132	എന്നുവിളിച്ചാൽ	-0.0578
-3.0328	എന്നെ	-0.0702
-4.4132	എന്നെങ്കിലും	-0.0541
-4.4132	എന്നെത്തന്നെ	-0.0570
-4.4132	എന്നെപ്പോലെ	-0.0580
-4.4132	എന്നെയല്ല	-0.0580
-4.4132	എന്നെയും	-0.0580
-3.0706	എന്നോട്	-0.0272
-3.9359	എന്നൊക്കെ	-0.0580
-4.4132	എന്നൊന്നില്ലടീ	-0.0580
-4.4132	എന്നൊന്ന്	-0.0574
-4.4132	എന്നോ	0.0354
-4.4132	എന്നോടൊപ്പം	-0.0580
-2.8945	എന്ന്	-0.0978
-4.4132	എന്‍ജിനുകള്‍	-0.0580
-3.8109	എന്‍ജിന്‍	-0.0517
-4.4132	എന്‍ജിന്‍സ്	-0.0518
-2.5379	എന്‍റെ	-0.0027
-4.4132	എന്‍റെകൂടെ	-0.0578
-4.4132	എന്‍റെതാണെന്ന്	-0.0580
-4.4132	എന്‍റെയൊപ്പം	-0.0580
-4.4132	എന്‍റെയൊരു	-0.0580
-4.4132	എപ്പോഴും	0.0354
-4.4132	എപ്പോളുമൊരു	-0.0580
-3.7140	എപ്പോഴും	-0.0379
-4.4132	എപ്പോഴെങ്കിലും	-0.0580
-4.4132	എപ്പോൾ	-0.0579
-4.1120	എയര്‍	-0.0580
-4.4132	എയും	-0.0541
-4.4132	എയർപോർട്ടിൽ	-0.0577
-4.4132	എരിവാണ്	0.0354
-4.4132	എരിവുള്ള	0.0354
-4.4132	എരിവ്	-0.0580
-4.4132	എറുമ്പ്	-0.0579
-4.4132	എലിക്കുഞ്ഞുങ്ങള്‍	-0.0580
-3.5679	എല്ലാ	-0.0579
-3.2089	എല്ലാം	0.0166
-4.4132	എല്ലാത്തിനുമുള്ള	-0.0580
-4.4132	എല്ലാമങ്ങെനെ	-0.0580
-4.4132	എല്ലാമുണ്ട്	0.0354
-4.1120	എല്ലായിടത്തും	-0.0580
-4.4132	എല്ലായിടത്തേക്കും	-0.0580
-4.1120	എല്ലായ്പോഴും	-0.0556
-4.4132	എല്ലായ്പ്പോഴും	0.0354
-4.4132	എല്ലാരും	-0.0580
-3.6348	എല്ലാവരും	-0.0574
-4.4132	എല്ലാവരുമെന്നോട്	-0.0580
-3.8109	എല്ലാവരെയും	-0.0577
-4.4132	എല്ലാവരേയും	-0.0580
-4.4132	എല്ലാവരോടും	-0.0580
-4.4132	എല്ലാവർക്കും	-0.0580
-4.4132	എല്ലാവർക്കുമുള്ള	-0.0580
-4.1120	എല്ലി	-0.2716
-4.4132	എളുപ്പമല്ല	0.0354
-4.4132	എളുപ്പവു	0.0354
-4.4132	എളുപ്പവുമാണ്	-0.0580
-4.4132	എഴുതാനാകും	0.0354
-4.4132	എഴുതി	-0.0580
-4.4132	എഴുതിയിട്ടുണ്ട്	0.0354
-4.4132	എഴുതുകയല്ല	0.0354
-4.4132	എഴുതുമ്പോൾ	0.0354
-4.4132	എഴുന്നേൽക്ക്	0.0354
-4.4132	എവിടുന്നാണ്	-0.0579
-4.4132	എവിടുന്ന്	-0.0579
-3.7140	എവിടെ	-0.1888
-4.1120	എവിടെയാ	-0.0568
-4.4132	എവിടെയാണെന്നാണ്	-0.0580
-3.6348	എവിടെയാണ്	-0.1396
-4.4132	എവിടെയായിരുന്നു	0.0354
-4.1120	എവിടെയും	-0.0580
-4.4132	എവിടെയെങ്കിലും	-0.0580
-4.4132	എവിടേക്കാ	-0.0580
-4.4132	എസ്	-0.0580
-4.1120	എൻജിൻ	-0.2716
-4.4132	ഏക	-0.0578
-3.9359	ഏകത്വം	0.0368
-4.4132	ഏകദേശം	0.0354
-4.4132	ഏതാണ്	0.0354
-4.4132	ഏതിലൂടെ	-0.0580
-3.9359	ഏതു	-0.1878
-4.4132	ഏതെങ്കിലും	-0.0580
-4.4132	ഏതൊക്കെ	0.0000
-3.7140	ഏമ്പക്കം	-0.0579
-4.4132	ഏയ്‌	0.0354
-4.4132	ഏറെ	-0.0579
-3.2990	ഏറ്റവും	-0.1433
-4.4132	ഏറ്റു	0.0354
-4.4132	ഏറ്റെടുക്കണം	0.0354
-4.4132	ഏറ്റെടുക്കുക	0.0354
-4.4132	ഏറ്റെടുക്കുകയാണ്	0.0354
-4.4132	ഏറ്റെടുക്കുന്നു	0.0354
-4.4132	ഏറ്റെടുക്കൂ	0.0354
-4.4132	ഏല്‍പ്പിച്ചു	-0.0576
-4.4132	ഏഴിന്	-0.0518
-4.1120	ഏഴു	-0.0578
-4.4132	ഏഴ്	-0.0580
-4.4132	ഏഹ്	0.0354
-4.4132	ഏൻഡുറൻസ്	-0.0580
-4.4132	ഏർപ്പെട്ടകാര്യം	-0.0580
-4.4132	ഏർപ്പെട്ടിരുന്നുവെന്നാണ്	0.0354
-4.1120	ഐ	-0.2716
-3.9359	ഒക്കെ	0.0359
-4.4132	ഒക്കെയാണ്	0.0354
-4.4132	ഒക്സിജെൻ	-0.0580
-4.4132	ഒടുക്കം	-0.0580
-4.4132	ഒട്ടിക്കും	0.0354
-4.4132	ഒത്തിണക്കൂ	0.0354
-4.1120	ഒത്തിരി	-0.0580
-4.4132	ഒന്നാം	-0.0579
-4.4132	ഒന്നാണ്	0.0354
-4.4132	ഒന്നായി	-0.0580
-4.1120	ഒന്നിച്ചിരുന്ന്	-0.0580
-4.4132	ഒന്നിനും	0.0354
-4.4132	ഒന്നിനെ	-0.0580
-4.4132	ഒന്നിരിക്കാമോ	0.0354
-4.4132	ഒന്നിറങ്ങ്	0.0354
-3.8109	ഒന്നു	-0.0578
-3.2369	ഒന്നും	0.0393
-4.1120	ഒന്നുകൂടി	-0.0578
-4.4132	ഒന്നുകൂടെ	-0.0580
-4.4132	ഒന്നുക്കൂടി	-0.0576
-4.4132	ഒന്നുണ്ടാക്കി	-0.0579
-4.1120	ഒന്നുമറിയില്ല	-0.1782
-4.4132	ഒന്നുമറിയില്ലാ	0.0354
-3.9359	ഒന്നുമല്ല	-0.0935
-4.4132	ഒന്നുമിട്ടിട്ടില്ലാ	0.0354
-4.1120	ഒന്നുമില്ല	-0.1782
-4.4132	ഒന്നുമില്ലല്ലോ	0.0354
-4.1120	ഒന്നുമില്ലാ	-0.1782
-4.4132	ഒന്നുമില്ലെന്ന്	0.0354
-4.4132	ഒന്നുമുണ്ടായില്ലല്ലോ	0.0354
-4.4132	ഒന്നൂടെ	-0.0579
-4.4132	ഒന്നെങ്കിലും	-0.0572
-4.4132	ഒന്നോ	-0.0580
-3.2369	ഒന്ന്	-0.0251
-4.4132	ഒപ്പം	-0.0580
-4.4132	ഒപ്പമുണ്ടാകില്ലേ	0.0354
-4.4132	ഒപ്പിച്ചുതരാന്‍	-0.0579
-4.4132	ഒപ്റ്റിക്കല്‍	-0.0580
-4.4132	ഒരധികപ്പറ്റായിരിക്കില്ലെന്നും	0.0354
-4.4132	ഒരനാഥന്‍	-0.0578
-4.4132	ഒരമ്മയും	-0.0580
-4.4132	ഒരാളാണ്	-0.0580
-4.4132	ഒരാളെങ്കിലും	0.0354
-4.1120	ഒരാള്‍	-0.1782
-4.4132	ഒരാവശ്യമായി	-0.0580
-4.1120	ഒരാൾ	0.0354
-3.5679	ഒരിക്കലും	-0.0576
-4.4132	ഒരിക്കല്‍	0.0354
-4.4132	ഒരിങ്ങിയിട്ടില്ല	0.0354
-2.0438	ഒരു	-0.0193
-4.4132	ഒരുക്കങ്ങളും	-0.0579
-4.4132	ഒരുക്കുന്ന	-0.0580
-4.1120	ഒരുതവണ	-0.0576
-4.4132	ഒരുത്തരമുണ്ടെങ്കില്‍	0.0354
-4.4132	ഒരുദിവസം	-0.0580
-4.4132	ഒരുപാടാളുകൾ	-0.0579
-3.3716	ഒരുപാട്	-0.0284
-4.1120	ഒരുമിച്ചായിരുന്നു	-0.1782
-4.4132	ഒരുമിച്ചു	-0.0580
-4.4132	ഒരുവളുടെ	-0.0578
-4.1120	ഒരെണ്ണം	-0.0577
-3.9359	ഒരേ	-0.0580
-3.6348	ഒരേയൊരു	-0.1840
-4.4132	ഒരൊഴിവ്	-0.0580
-4.4132	ഒര്‍മ്മയുണ്ടോ	0.0354
-4.4132	ഒരൽപം	-0.0580
-4.1120	ഒറ്റ	-0.0579
-4.1120	ഒറ്റക്കാണ്	-0.0576
-4.4132	ഒറ്റക്കൈകൊണ്ട്	-0.0578
-3.6348	ഒറ്റക്ക്	0.0362
-4.4132	ഒറ്റപ്പെട്ട	-0.0580
-4.4132	ഒറ്റപ്പെട്ടപോലെ	-0.0580
-4.4132	ഒറ്റയ്കല്ല	0.0354
-3.9359	ഒറ്റയ്ക്	0.0356
-4.4132	ഒറ്റയ്ക്കാണോ	0.0354
-4.4132	ഒറ്റയ്ക്കാവില്ലെന്ന്	0.0354
-4.4132	ഒറ്റയ്ക്കൊരു	-0.0579
-3.8109	ഒലക്സാണ്ടർ	-0.0583
-4.4132	ഒളിക്കാനാ	-0.0580
-4.4132	ഒളിപ്പിക്കുന്ന	-0.0579
-4.1120	ഒഴികെ	0.0355
-3.9359	ഒഴിവാക്കി	-0.2704
-4.4132	ഒഴിവാക്കുക	0.0354
-4.4132	ഒഴിവാണ്	0.0354
-4.4132	ഒഴിവുസമയങ്ങളിൽ	-0.0580
-4.4132	ഒഴുകിനടക്കുകയായിരിക്ക​​ണം	0.0354
-3.9359	ഒഹ്	-0.1840
-4.4132	ഒൻപത്	0.0354
-2.8815	ഓ	0.0072
-3.5679	ഓകെ	-0.0051
-4.4132	ഓകെയല്ലേ	0.0354
-4.1120	ഓക്കെ	-0.0576
-3.2669	ഓക്കേ	-0.1457
-4.1120	ഓക്സിജന്‍	-0.0580
-4.1120	ഓക്സിജന്‍റെ	-0.0580
-4.4132	ഓക്സിജെനും	-0.0580
-4.4132	ഓടിക്കാനും	-0.0580
-4.4132	ഓടിക്കാൻ	-0.0580
-4.4132	ഓടിക്കൊണ്ടിരിക്കുന്നിടത്തോളം	-0.0579
-4.4132	ഓടിച്ചോണ്ടിരിക്കാന്‍	-0.0578
-4.4132	ഓടിച്ചോളാം	0.0354
-4.4132	ഓടിപ്പിക്കാന്‍	0.0354
-4.4132	ഓട്ടോപൈലറ്റിന്	-0.0580
-3.8109	ഓട്ടോമാറ്റണ്‍	0.0362
-4.4132	ഓണാക്കു	0.0354
-4.1120	ഓണ്‍	-0.0580
-4.1120	ഓഫാക്കുകയാണ്	0.0356
-4.4132	ഓഫീസര്‍	-0.0541
-4.4132	ഓഫീസിലേക്ക്	-0.0580
-4.1120	ഓഫീസിൽ	-0.0580
-4.4132	ഓഫീസ്	-0.0579
-4.4132	ഓയ്	0.0354
-4.4132	ഓരോ	-0.0580
-3.5099	ഓരോ	0.0356
-4.4132	ഓരോന്നിനുമുള്ള	-0.0580
-4.4132	ഓര്‍ക്കില്ല	0.0354
-4.4132	ഓര്‍ക്കുന്നു	0.0354
-4.4132	ഓര്‍ഗാനിക്സ്	0.0354
-4.4132	ഓര്‍ത്തെടുക്കാനുള്ള	-0.0580
-4.4132	ഓര്‍ത്തോ	0.0354
-4.4132	ഓര്‍ത്ത്	-0.0580
-4.4132	ഓര്‍ബിറ്റിലേയ്ക്	-0.0580
-4.4132	ഓര്‍മ്മകള്‍	0.0354
-4.4132	ഓര്‍മ്മവേണം	0.0354
-4.4132	ഓവർ	0.0354
-4.4132	ഓസെഡിനേയും	0.0354
-4.4132	ഓഹോ	0.0354
-3.2089	ഓഹ്	-0.0150
-4.4132	ഓഹ്നമസ്തേ	0.0354
-4.1120	ഓർക്കുക	0.0356
-4.4132	ഓർഗാനിക്	-0.0580
-4.4132	ഓർമ്മ	-0.0577
-4.4132	ഓർമ്മകൾ	-0.0580
-4.4132	കംപ്യൂട്ടർ	0.0000
-4.1120	കട	-0.0573
-4.1120	കടകളില്‍	-0.0577
-4.4132	കടക്കാം	0.0354
-4.4132	കടക്കാന്‍	-0.0580
-4.4132	കടക്കാറില്ല	-0.0580
-4.4132	കടക്കേണ്ടതുണ്ടായിരുന്നു	0.0354
-4.4132	കടക്കേണ്ടതുണ്ട്	0.0354
-4.4132	കടക്ക്	0.0354
-4.4132	കടത്തിവിടാനാവുമെന്ന്	-0.0568
-4.4132	കടന്നിട്ടില്ല	0.0354
-4.4132	കടന്നു	-0.0576
-4.4132	കടന്നുപോ	-0.0580
-4.4132	കടന്നുപോകുന്നത്	0.0354
-4.4132	കടന്നുപോയിട്ടില്ല	0.0354
-4.4132	കടന്ന്	0.0354
-4.4132	കടപ്പെട്ടിരിക്കുന്നു	0.0354
-4.4132	കടമ	-0.0580
-4.4132	കടമയാണ്	-0.0577
-4.4132	കടമായിട്ട്	-0.0580
-4.1120	കടമ്പ	0.0354
-4.4132	കടയായിരുന്നു	0.0354
-4.4132	കടയില്‍	-0.0577
-4.4132	കടിച്ച്	-0.0580
-4.4132	കടുത്ത	-0.0580
-4.4132	കടുപ്പക്കാരനാണ്	0.0354
-4.4132	കട്ടെടുത്തു	0.0354
-4.4132	കട്ട്	-0.0580
-4.4132	കഠിന	-0.0580
-4.4132	കഠിനപ്രയത്നം	-0.0577
-4.4132	കഠിനമായി	-0.0580
-4.4132	കഠിനമായിരിക്കുമെന്ന്	-0.0580
-4.4132	കണക്കാക്കാം	0.0354
-4.4132	കണക്കാക്കിയാൽ	0.0354
-4.4132	കണികാതന്ത്രത്തിന്റെ	-0.0577
-4.4132	കണികാതന്ത്രവുമായി	-0.0580
-3.7140	കണ്ട	-0.0560
-4.4132	കണ്ടതാണ്	0.0354
-3.8109	കണ്ടതില്‍	-0.0578
-4.4132	കണ്ടതില്‍വച്ച്	0.0354
-3.9359	കണ്ടത്	-0.2704
-4.4132	കണ്ടത്താൻ	-0.0579
-4.4132	കണ്ടാൽ	-0.0578
-4.1120	കണ്ടിട്ടില്ല	0.0355
-4.4132	കണ്ടിട്ടില്ലെന്നോ	0.0354
-4.4132	കണ്ടിട്ടുണ്ടായിരുന്നില്ല	0.0354
-4.4132	കണ്ടിട്ടുണ്ടോ	0.0354
-3.9359	കണ്ടിട്ടുണ്ട്	-0.2704
-4.4132	കണ്ടിരുന്നില്ലെങ്കിൽ	0.0354
-4.4132	കണ്ടിരുന്നില്ലേ	0.0354
-4.4132	കണ്ടിരുന്നു	0.0354
-4.4132	കണ്ടിരുന്നോ	0.0354
-4.4132	കണ്ടില്ല	0.0354
-4.4132	കണ്ടില്ലല്ലോ	0.0354
-3.7140	കണ്ടില്ലേ	-2.0632
-3.3716	കണ്ടു	-0.7347
-4.4132	കണ്ടുനോക്ക്	0.0354
-4.4132	കണ്ടുപിടിക്കണം	-0.0580
-4.1120	കണ്ടുപിടിക്കാന്‍	-0.1782
-4.1120	കണ്ടുപിടിക്കും	-0.1782
-4.4132	കണ്ടുപിടിക്കേണ്ടത്	0.0354
-4.4132	കണ്ടുപിടിച്ചതല്ല	0.0354
-4.4132	കണ്ടുപിടിച്ചിട്ടുണ്ട്	0.0354
-4.1120	കണ്ടുപിടിച്ചു	-0.1782
-4.4132	കണ്ടുപിടിച്ച്	0.0354
-4.4132	കണ്ടുപിടുത്തക്കാർ	-0.0580
-4.4132	കണ്ടുപിടുത്തവുമായി	-0.0580
-4.4132	കണ്ടുപോകരുത്	0.0354
-4.4132	കണ്ടുമുട്ടി	-0.0579
-4.4132	കണ്ടുമുട്ടിയത്	-0.0580
-4.4132	കണ്ടുമുട്ടുമെന്ന്	0.0354
-4.4132	കണ്ടൂടെ	0.0354
-4.1120	കണ്ടെത്തണം	-0.1782
-4.1120	കണ്ടെത്താനാവില്ല	-0.1782
-4.4132	കണ്ടെത്താനുണ്ട്	0.0354
-3.8109	കണ്ടെത്താന്‍	-0.0554
-3.8109	കണ്ടെത്തി	-0.2692
-4.4132	കണ്ടെത്തിയതാണത്	0.0354
-4.4132	കണ്ടെത്തിയതാണ്	0.0354
-3.9359	കണ്ടെത്തിയത്	-0.2704
-4.4132	കണ്ടെത്തിയിരിക്കുന്നു	0.0354
-4.4132	കണ്ടെത്തിയിരുന്നു	0.0354
-4.4132	കണ്ടെത്തിയെന്ന്	-0.0580
-4.4132	കണ്ടെത്തും	-0.0575
-4.4132	കണ്ടെത്തുക	0.0354
-4.4132	കണ്ടെത്തുകയാണെങ്കിൽ	0.0354
-4.4132	കണ്ടെത്തുന്ന	-0.0577
-4.4132	കണ്ടെത്തുമ്പോള്‍	0.0354
-4.4132	കണ്ടെത്തേണ്ടിയിരിക്കുന്നു	0.0354
-4.4132	കണ്ടെത്തേണ്ടിയിരുന്നു	0.0354
-4.1120	കണ്ടെത്ത്	-0.1782
-3.7140	കണ്ടോ	-0.1873
-4.4132	കണ്ട്രോളുകൾ	-0.0580
-4.4132	കണ്ണിലേക്ക്	-0.0541
-4.4132	കണ്ണില്‍	-0.0546
-4.4132	കണ്ണുകൾ	-0.0580
-4.4132	കത്തിക്കാതെ	-0.0580
-3.8109	കത്തിക്കാന്‍	-0.0576
-4.4132	കത്തിക്കും	0.0354
-4.4132	കത്തിക്കുന്നതിനും	-0.0578
-4.4132	കത്തിക്കുവാ	0.0354
-4.4132	കത്തിച്ചിട്ടില്ല	0.0354
-4.4132	കത്തിച്ചു	-0.0580
-4.4132	കത്തിപ്പോയി	0.0354
-3.9359	കഥ	-0.0947
-4.1120	കഥകള്‍	0.0355
-4.4132	കഥയാണ്	0.0354
-4.4132	കന്തികമോ	-0.0579
-4.4132	കപ്പിയും	0.0354
-4.4132	കപ്പു	-0.0577
-4.4132	കപ്പും	-0.0578
-4.4132	കപ്പോ	-0.0579
-4.1120	കപ്പൽ	-0.0576
-4.4132	കബാറെറ്റ്	0.0354
-4.1120	കമിഴ്തിയാണ്	-0.2716
-4.4132	കമിഴ്തിവെക്കുമായിരുന്നു	0.0354
-4.4132	കമ്പനിക്ക്	-0.0580
-4.4132	കമ്പനിയിൽ	-0.0579
-4.4132	കമ്പനിയുടെ	-0.0580
-4.4132	കമ്പമുണ്ട്	0.0354
-4.4132	കമ്പ്യൂട്ടറിലെത്തിക്കൂ	0.0354
-4.1120	കമ്പ്യൂട്ടറിൽ	-0.0576
-4.4132	കമ്പ്യൂട്ടറുകള്‍	-0.0580
-3.8109	കമ്പ്യൂട്ടർ	-0.1518
-4.4132	കയര്‍	-0.0580
-4.1120	കയറണം	-0.1782
-4.4132	കയറാം	-0.0577
-4.4132	കയറാനും	0.0354
-4.4132	കയറാൻ	-0.0578
-3.8109	കയറി	-0.2692
-4.4132	കയറിയോ	0.0354
-4.4132	കയറുകയും	0.0354
-4.4132	കയറുന്നു	0.0354
-4.4132	കയറുമോ	-0.0580
-4.4132	കയറൂ	0.0354
-4.4132	കയറ്	0.0354
-4.4132	കയറ്റി	-0.0580
-4.4132	കയ്യാങ്കളി	-0.0579
-4.4132	കയ്യിലാണ്	0.0354
-4.4132	കയ്യിലില്ല	0.0354
-4.4132	കയ്യിലുണ്ടായിരുന്ന	-0.0580
-4.4132	കയ്യിലുണ്ടെങ്കില്‍	0.0354
-4.1120	കയ്യിലുണ്ടോ	-0.1782
-4.4132	കയ്യിലുണ്ട്	0.0354
-3.6348	കയ്യില്‍	0.0357
-4.4132	കരകയറ്റിയത്	0.0354
-4.4132	കരഘോഷം	0.0354
-4.4132	കരഞ്ഞു	0.0354
-4.4132	കരയരുത്	0.0354
-4.4132	കരയിലോ	0.0354
-4.4132	കരയില്‍	-0.0580
-4.1120	കരയും	-0.1782
-4.4132	കരയുകയാണോ	0.0354
-4.4132	കരയുകയായിരുന്നു	0.0354
-4.4132	കരയുന്നത്	-0.0580
-4.4132	കരവിരുതുകൊണ്ടോ	0.0354
-4.4132	കരീനക്ക്	-0.0576
-4.4132	കരുണ	-0.0580
-4.4132	കരുതാന്‍	-0.0541
-3.5679	കരുതി	-0.0467
-4.4132	കരുതിയ	0.0354
-3.9359	കരുതിയത്	-0.0947
-4.4132	കരുതിയിരുന്ന	-0.0580
-4.4132	കരുതിയിരുന്നു	-0.0572
-4.4132	കരുതിയില്ലാ	0.0354
-4.4132	കരുതിയോ	0.0354
-4.4132	കരുതുന്ന	-0.0579
-4.4132	കരുതുന്നത്	0.0354
-3.9359	കരുതുന്നു	0.0385
-4.4132	കരുതുന്നുണ്ടോ	0.0354
-4.4132	കര്‍ഷകന്‍	-0.0580
-4.4132	കര്‍ഷകരെ	0.0354
-3.9359	കറക്കം	0.0355
-4.4132	കറക്കവുമായി	-0.0580
-4.4132	കറങ്ങുന്ന	-0.0580
-4.4132	കറന്‍റിന്‍റെ	-0.0576
-4.1120	കലപില	0.0355
-4.4132	കലമാനിനെ	-0.0580
-4.4132	കലാകാരനാണ്	0.0354
-4.1120	കല്യാണം	-0.0579
-4.4132	കല്യാണത്തിനു	-0.0580
-4.4132	കല്യാണത്തിന്‍റെ	-0.0580
-4.4132	കളഞ്ഞു	0.0354
-4.4132	കളപ്പുരയിൽ	-0.0578
-4.4132	കളയും	0.0354
-4.4132	കളയുന്നു	0.0354
-4.4132	കളര്‍	-0.0580
-4.4132	കളറാണ്	0.0354
-4.4132	കളറില്‍	0.0354
-3.9359	കളവ്	0.0406
-4.1120	കളി	-0.0573
-4.4132	കളികാണാന്‍	-0.0580
-4.4132	കളിക്കാം	-0.0578
-4.4132	കളിക്കാറുണ്ടന്ന്	0.0354
-4.4132	കളിക്കാറുണ്ട്	0.0354
-4.4132	കളിക്കാൻ	0.0354
-4.4132	കളിക്കുക	0.0354
-4.4132	കളിക്കുകയാവും	0.0354
-4.4132	കളിക്കുന്നതിന്	0.0354
-4.4132	കളിക്കുന്നത്	0.0354
-4.4132	കളിക്കുന്നുണ്ടല്ലോ	0.0354
-4.4132	കളിക്കുന്നുണ്ട്	-0.0580
-4.4132	കളിക്ക്	0.0354
-4.4132	കളിച്ചതാണ്	0.0354
-4.4132	കളിച്ചു	-0.0580
-4.4132	കളിപ്പാട്ടം	0.0354
-4.4132	കളിപ്പാട്ടക്കട	-0.0580
-4.4132	കള്ളക്കളി	-0.0580
-4.4132	കള്ളത്തരത്തേക്കാള്‍	0.0354
-4.1120	കള്ളനല്ല	-0.1782
-4.4132	കള്ളനും	-0.0580
-4.4132	കള്ളനുമാണ്	0.0354
-4.4132	കള്ളനോട്	0.0354
-4.4132	കള്ളന്മാരുമായി	-0.0580
-3.9359	കള്ളന്‍	-0.0947
-4.4132	കള്ളാ	0.0354
-4.4132	കള്ളീ	-0.0563
-4.4132	കള്ളുകുടിച്ചിട്ടുണ്ടോ	0.0354
-4.4132	കഴിക്കട്ടെ	0.0354
-4.4132	കഴിക്കലും	-0.0580
-4.4132	കഴിക്കാം	0.0354
-4.4132	കഴിക്കാതെ	-0.0580
-4.4132	കഴിക്കാറ്	0.0354
-3.7140	കഴിക്കാൻ	-0.1310
-4.4132	കഴിക്കുന്നത്	0.0354
-4.4132	കഴിക്ക്	-0.0578
-4.4132	കഴിച്ചിട്ടില്ല	0.0354
-4.4132	കഴിച്ചിട്ടില്ലാ	0.0354
-4.4132	കഴിച്ചിട്ടില്ലേ	0.0354
-4.4132	കഴിച്ചിരിക്കണം	-0.0577
-4.4132	കഴിച്ചു	-0.0580
-4.4132	കഴിച്ച്	-0.0580
-3.8109	കഴിഞ്ഞ	-0.0577
-4.4132	കഴിഞ്ഞതിനു	-0.0578
-4.4132	കഴിഞ്ഞതുപോലയല്ലാ	0.0354
-4.4132	കഴിഞ്ഞപ്പോള്‍	-0.0579
-4.4132	കഴിഞ്ഞപ്രാവശ്യം	-0.0580
-4.1120	കഴിഞ്ഞാൽ	-0.0568
-4.1120	കഴിഞ്ഞിട്ട്	0.0359
-4.1120	കഴിഞ്ഞില്ല	-0.1782
-3.6348	കഴിഞ്ഞു	-0.1423
-4.4132	കഴിഞ്ഞുവെന്ന്	0.0354
-4.4132	കഴിഞ്ഞെക്കും	0.0354
-4.1120	കഴിഞ്ഞേനെ	-0.1782
-4.4132	കഴിഞ്ഞോ	0.0354
-4.1120	കഴിഞ്ഞ്	-0.0578
-4.4132	കഴിയാതത്	-0.0580
-3.4130	കഴിയില്ല	-0.9857
-3.5679	കഴിയില്ലാ	-0.6848
-3.5099	കഴിയും	-0.1059
-4.4132	കഴിയുക	0.0354
-4.4132	കഴിയുകയും	-0.0578
-4.4132	കഴിയുകയൊള്ളൂ	0.0354
-4.4132	കഴിയുകായെന്ന്	-0.0570
-4.1120	കഴിയുന്നില്ല	-0.1782
-4.4132	കഴിയുന്നില്ലന്നോ	-0.0580
-4.4132	കഴിയുന്നില്ലാ	0.0354
-4.4132	കഴിയുന്നില്ലേ	0.0354
-4.4132	കഴിയുന്നുണ്ട്	0.0354
-4.4132	കഴിയുമായിരുന്നു	0.0354
-4.4132	കഴിയുമെങ്കിൽ	0.0354
-4.4132	കഴിയുമെന്ന്	-0.0568
-3.9359	കഴിയുമോ	-0.2704
-4.4132	കഴിയുമ്പോൾ	-0.0580
-4.4132	കഴിവുകളുണ്ട്	0.0354
-4.4132	കഴിവ്	-0.0580
-4.4132	കഴുകട്ടെ	0.0354
-4.4132	കഴുത്തിറങ്ങിയ	-0.0580
-4.4132	കവണ	0.0354
-4.4132	കവയത്രിയുടെ	-0.0579
-3.8109	കവിത	-0.1513
-4.4132	കഷണം	-0.0580
-4.4132	കഷ്ടടം	-0.0580
-4.4132	കഷ്ടപ്പെടുന്നതുകാണാന്‍	-0.0553
-4.4132	കഷ്ടപ്പെട്ടു	0.0354
-4.4132	കസിനാണ്	-0.0578
-3.5679	കാണണം	-0.6848
-3.9359	കാണണോ	-0.0946
-4.4132	കാണപ്പെടുന്നു	0.0354
-4.4132	കാണപ്പെട്ടത്	0.0354
-4.4132	കാണരുത്	0.0354
-3.5679	കാണാം	-0.4999
-4.4132	കാണാത്ത	0.0354
-4.4132	കാണാനാഗ്രഹമുണ്ടോ	0.0354
-4.4132	കാണാനാണെങ്കിൽ	-0.0559
-4.4132	കാണാനാണ്	-0.0580
-4.1120	കാണാനും	0.0354
-4.4132	കാണാനുള്ള	-0.0578
-3.8109	കാണാന്‍	0.0361
-4.4132	കാണാമായിരുന്നു	0.0354
-4.4132	കാണാറില്ല	0.0354
-4.4132	കാണാറില്ലേ	0.0354
-3.0328	കാണാൻ	0.0144
-4.4132	കാണാൻനല്ല	-0.0580
-4.1120	കാണികള്‍	-0.0580
-4.4132	കാണിക്കണം	0.0354
-4.4132	കാണിക്കരുത്	0.0354
-4.4132	കാണിക്കാം	0.0354
-4.4132	കാണിക്കാൻ	-0.0546
-4.4132	കാണിക്കുന്നതിനായി	0.0354
-4.4132	കാണിക്കുന്നത്	0.0354
-4.4132	കാണിക്കുന്നു	0.0354
-4.4132	കാണിക്കൂ	0.0354
-3.5099	കാണിച്ചു	-0.0084
-4.4132	കാണിച്ചുകൊടുത്തിട്ടുണ്ട്	0.0354
-4.4132	കാണിച്ചുതരട്ടെ	0.0354
-4.4132	കാണിച്ചുതരാം	0.0354
-4.4132	കാണിച്ചോട്ടെ	0.0354
-4.4132	കാണിച്ച്	0.0354
-4.4132	കാണിപ്പിക്കണം	0.0354
-4.4132	കാണില്ലേ	0.0354
-4.4132	കാണും	0.0354
-4.4132	കാണുകയാണല്ലേ	0.0354
-4.4132	കാണുകയാണ്	0.0354
-4.4132	കാണുന്നതോ	0.0354
-3.9359	കാണുന്നത്	-0.0936
-4.4132	കാണുന്നപോലിരുന്നു	-0.0575
-4.1120	കാണുന്നില്ലല്ലോ	0.0356
-4.1120	കാണുന്നു	0.0355
-4.4132	കാണുന്നുണ്ടോ	0.0354
-4.4132	കാണുന്നുണ്ട്	-0.0559
-4.4132	കാണുമോ	-0.0575
-4.1120	കാണുമ്പോള്‍	0.0355
-4.4132	കാണുമ്പോഴുള്ള	0.0354
-4.4132	കാണൂ	0.0354
-4.4132	കാണ്ടുപിടിക്കും	0.0354
-4.4132	കാത്തിരിക്കാം	0.0354
-4.4132	കാത്തിരിക്കാൻ	-0.0580
-4.1120	കാത്തിരിക്കുക	-0.1782
-4.4132	കാത്തിരിക്കുകയാണെന്ന്	-0.0578
-4.4132	കാത്തിരിക്കുകയാണ്‌	0.0354
-4.4132	കാത്തിരിക്കുന്നത്	0.0354
-3.9359	കാത്തിരിക്കുന്നു	-0.0935
-4.4132	കാത്തിരിക്കുന്നുണ്ടാവും	0.0354
-4.4132	കാത്തിരിക്കേണ്ടി	-0.0577
-4.1120	കാത്തിരുന്നോളും	-0.1782
-4.4132	കാത്തു	-0.0580
-4.1120	കാത്തുനിൽക്കണോ	-0.1782
-4.4132	കാത്തുനിൽക്കുകയാണ്	0.0354
-4.4132	കാത്തുവച്ചിരുന്നതായിരുന്നു	0.0354
-4.4132	കാത്തുസൂക്ഷിക്കണം	0.0354
-4.4132	കാത്തുസൂക്ഷിച്ചതെല്ലാം	-0.0580
-4.4132	കാന്തിക	-0.0580
-3.9359	കാബറെറ്റ്	-0.2704
-4.4132	കാബെററ്റിനെ	-0.0576
-4.4132	കാബെററ്റ്	0.0354
-4.1120	കായം	0.0355
-3.0513	കാരണം	-0.2123
-4.4132	കാരണങ്ങളുണ്ടാകാം	0.0354
-4.4132	കാരണമാകുമെന്ന്	-0.0580
-3.9359	കാരണമാണ്	-0.0945
-4.4132	കാരണമുണ്ടായേക്കാം	0.0354
-4.4132	കാരണമോ	0.0354
-4.4132	കാരണവുമില്ല	0.0354
-3.0150	കാര്യം	0.0055
-4.4132	കാര്യങ്ങളാണവ	0.0354
-4.4132	കാര്യങ്ങളാണ്	0.0354
-4.4132	കാര്യങ്ങളിൽ	-0.0559
-4.4132	കാര്യങ്ങളും	-0.0580
-3.2990	കാര്യങ്ങള്‍	0.0100
-4.4132	കാര്യത്തിലും	-0.0580
-4.4132	കാര്യത്തിലൊഴിച്ച്	-0.0575
-3.5099	കാര്യത്തില്‍	0.0024
-4.4132	കാര്യപെട്ടത്	-0.0580
-4.4132	കാര്യമല്ല	0.0354
-4.4132	കാര്യമാക്കേണ്ടതില്ല	0.0354
-4.4132	കാര്യമാണെന്ന്	-0.0553
-3.8109	കാര്യമാണ്	-0.1713
-4.4132	കാര്യമായിട്ടാണോ	0.0354
-4.4132	കാര്യമായിരുന്നേനെ	-0.0577
-4.4132	കാര്യമില്ല	0.0354
-4.1120	കാര്യമില്ലാ	-0.1782
-4.4132	കാര്യമില്ലായിരുന്നു	0.0354
-4.4132	കാര്യമെല്ലാം	-0.0580
-4.4132	കാര്യമൊന്നുമില്ല	0.0354
-4.1120	കാര്യമോ	-0.1782
-4.4132	കാര്യവുമില്ല	0.0354
-4.1120	കാര്‍	-0.0553
-4.4132	കാര്‍ട്ടനും	-0.0580
-4.4132	കാറിനടുത്തേയ്ക്	-0.0580
-4.4132	കാറിന്‍റെ	-0.0580
-4.4132	കാറിലേക്ക്	-0.0580
-4.4132	കാറോടിക്കാൻ	-0.0577
-4.4132	കാല	-0.0580
-3.5679	കാലം	-0.0155
-4.4132	കാലഘട്ടത്തിനുമപ്പുറം	0.0354
-4.4132	കാലങ്ങളായിട്ട്	-0.0518
-4.4132	കാലത്തിനും	-0.0580
-4.4132	കാലത്തിന്	-0.0579
-4.4132	കാലദേശങ്ങളിലേയ്ക്	-0.0580
-4.1120	കാലമായി	0.0376
-4.4132	കാലമായിരുന്നു	0.0354
-4.4132	കാലാന്തരത്തിനപ്പുറത്തേയ്ക്	-0.0541
-4.1120	കാലാവസ്ഥ	0.0354
-4.4132	കാലിന്	-0.0580
-4.1120	കാലും	-0.0580
-4.4132	കാലുപിടിക്കണോ	0.0354
-4.4132	കാലെടുത്തുവെയ്കുമ്പോള്‍	0.0354
-4.4132	കാഴ്ചയ്കപ്പുറത്തേയ്ക്	0.0354
-4.4132	കാവല്‍	-0.0579
-4.4132	കാഹളം	0.0354
-4.4132	കാൻസറായിരുന്നു	0.0354
-4.4132	കിംവതന്തികള്‍	-0.0580
-4.1120	കിടക്ക	-0.0580
-4.1120	കിടക്കാം	-0.1782
-4.4132	കിടക്കുകയാണ്	0.0354
-4.4132	കിടക്കുന്നോ	0.0354
-4.4132	കിടക്ക്‌	0.0354
-4.4132	കിടന്നാൽ	-0.0578
-4.4132	കിടന്നുറങ്ങിക്കോളു	0.0354
-4.4132	കിടന്നുറങ്ങ്	-0.0580
-4.4132	കിടപ്പു	-0.0580
-4.4132	കിട്ടരുതേ	0.0354
-3.4587	കിട്ടി	-0.9597
-4.4132	കിട്ടിക്കഴിഞ്ഞാല്‍	0.0354
-4.4132	കിട്ടിയ	-0.0580
-4.4132	കിട്ടിയതൊള്ളൂ	0.0354
-4.4132	കിട്ടിയല്ലോ	0.0354
-4.4132	കിട്ടിയാൽ	0.0354
-4.4132	കിട്ടിയിട്ടില്ലാ	0.0354
-4.4132	കിട്ടിയിട്ടുണ്ടന്നാണ്	0.0354
-4.4132	കിട്ടിയെന്ന്	-0.0578
-3.3338	കിട്ടും	-0.7774
-4.4132	കിട്ടുക	0.0354
-4.4132	കിട്ടുകയാണെങ്കിൽ	-0.0579
-4.4132	കിട്ടുകയൊള്ളൂ	0.0354
-4.4132	കിട്ടുന്നതെന്തും	-0.0580
-4.4132	കിട്ടുന്നില്ല	0.0354
-4.4132	കിട്ടുമോ	0.0354
-3.9359	കിപ്പ്	-0.1878
-3.9359	കിലോ	-0.0563
-4.4132	കിളവാ	0.0354
-4.4132	കിഴങ്ങന്‍മാര്‍	0.0354
-4.4132	കിഴങ്ങല്ലാം	-0.0580
-4.4132	കീടമേ	0.0354
-4.4132	കീറുന്നു	-0.0580
-3.8109	കുക്കർ	-0.0579
-4.4132	കുഞ്ഞിനെ	-0.0580
-4.4132	കുഞ്ഞ്	-0.0580
-4.4132	കുടിക്കലുമെല്ലാം	0.0354
-4.4132	കുടിക്കാനും	-0.0580
-4.4132	കുടിക്കാനൊക്കെയാണോ	-0.0580
-4.4132	കുടിക്കാന്‍	-0.0580
-4.4132	കുടിക്കും	0.0354
-4.1120	കുടിക്ക്	-0.1782
-4.4132	കുടിക്കൽ	0.0354
-4.4132	കുടിച്ചത്	0.0354
-4.4132	കുടിച്ചാലോ	0.0354
-4.4132	കുടിച്ചാൽ	-0.0572
-4.4132	കുടിച്ചിട്ടുണ്ടോ	0.0354
-4.4132	കുടിച്ചിരുന്നു	-0.0580
-4.4132	കുടിച്ചിരുന്നോ	0.0354
-4.4132	കുടിച്ച്	0.0354
-4.1120	കുടിമുടി	0.0355
-3.9359	കുടിയനായിരുന്നു	-0.2704
-3.9359	കുടുംബം	0.0355
-4.4132	കുടുംബക്കാരെല്ലാം	-0.0580
-4.4132	കുടുംബങ്ങളെക്കുറിച്ചുമാണ്	-0.0578
-4.4132	കുടുംബങ്ങൾ	-0.0580
-4.4132	കുടുംബത്തിന്റെ	-0.0580
-4.4132	കുടുംബത്തെക്കുറിച്ചു	-0.0579
-4.4132	കുടുംബത്തെക്കുറിച്ചും	0.0354
-4.4132	കുടുംബത്തെയെങ്കിലും	-0.0580
-4.4132	കുടുംബമില്ലാതെ	-0.0576
-4.4132	കുടുംബവുമായി	-0.0580
-4.4132	കുടുങ്ങിക്കിടക്കുകയാണ്	0.0354
-4.4132	കുടുങ്ങിക്കിടന്ന്	0.0354
-4.4132	കുടുങ്ങിയല്ലോ	0.0354
-4.4132	കുട്ടാ	0.0354
-3.2990	കുട്ടി	-0.6320
-4.4132	കുട്ടികളുണ്ടാകില്ല	0.0354
-4.1120	കുട്ടികളുണ്ട്	-0.1782
-3.8109	കുട്ടികളെ	-0.0562
-4.1120	കുട്ടികളേ	-0.1782
-3.7140	കുട്ടികള്‍	-0.0374
-4.4132	കുട്ടികള്‍ക്കായോ	-0.0580
-4.4132	കുട്ടികള്‍ക്കും	-0.0580
-4.4132	കുട്ടിക്കളിയാണെന്ന്	-0.0580
-4.4132	കുട്ടിക്കു	-0.0576
-4.4132	കുട്ടിക്കോ	0.0354
-4.4132	കുട്ടിക്ക്	-0.0580
-4.4132	കുട്ടികൾക്ക്	-0.0580
-4.4132	കുട്ടിച്ചാത്തന്‍	-0.0580
-4.4132	കുട്ടിച്ചെകുത്താനേ	0.0354
-4.4132	കുട്ടിപാവം	-0.0578
-4.4132	കുട്ടിയല്ല	0.0354
-4.4132	കുട്ടിയാണോ	0.0354
-3.9359	കുട്ടിയാണ്	-0.2704
-3.9359	കുട്ടിയായിരുന്നപ്പോള്‍	0.0357
-4.4132	കുട്ടിയായോ	0.0354
-4.4132	കുട്ടിയും	-0.0580
-4.4132	കുട്ടിയുടെ	-0.0580
-4.4132	കുട്ടിയുണ്ട്	-0.0580
-4.4132	കുട്ടിയോ	0.0354
-4.4132	കുത്തിമറിച്ചുകൊണ്ടിരിക്കുകയാണ്	0.0354
-4.4132	കുത്തുകളും	-0.0580
-4.1120	കുത്ത്	0.0355
-4.4132	കുന്തംകൊണ്ട്	-0.0561
-4.4132	കുപെറിനു	-0.0580
-3.5099	കുപെർ	-0.0460
-3.9359	കുപേർ	-0.0557
-4.1120	കുപ്പര്‍	0.0354
-4.4132	കുപ്പി	-0.0580
-4.1120	കുപ്പികൾ	-0.0578
-4.4132	കുപ്പിയില്‍	-0.0577
-4.4132	കുരങ്ങുകളിക്കും	-0.0580
-4.4132	കുരമുളകും	-0.0580
-4.4132	കുരയ്ക്കുന്നു	0.0354
-4.4132	കുര്‍ലിങ്ങ്	-0.0579
-3.9359	കുറക്കണം	-0.2704
-4.1120	കുറച്	-0.0579
-3.9359	കുറച്ചു	-0.1880
-4.4132	കുറച്ചുകൂടി	-0.0580
-4.4132	കുറച്ചുക്കൂടി	0.0354
-4.4132	കുറച്ചുപേരെ	-0.0580
-4.4132	കുറച്ചുപേര്‍ക്കേ	-0.0568
-4.4132	കുറച്ചെടുക്കുക	0.0354
-2.9658	കുറച്ച്	0.0014
-4.4132	കുറച്ച്ക്കൂടി	-0.0580
-4.4132	കുറഞ്ഞത്	-0.0579
-4.4132	കുറഞ്ഞുകൊണ്ടിരിക്കും	0.0354
-4.4132	കുറയ്കുന്നതാണ്	-0.0579
-4.4132	കുറയ്കേണ്ടിവരും	0.0354
-4.4132	കുറയ്ക്കാം	0.0354
-4.4132	കുറയ്ക്കുമോ	0.0354
-4.1120	കുറവാണ്	-0.1782
-4.4132	കുറവുകാരണം	-0.0580
-4.4132	കുറിച്ചല്ല	0.0354
-4.4132	കുറിച്ചാലോചിക്കുന്നത്	-0.0580
-4.4132	കുറിച്ചും	-0.0580
-4.4132	കുറിച്ചുള്ള	-0.0579
-4.4132	കുറിച്ചെങ്കിലും	-0.0580
-4.4132	കുറിച്ചെന്നോട്	-0.0541
-4.4132	കുറിച്ചൊന്ന്	0.0354
-3.8109	കുറിച്ച്	-0.0576
-4.4132	കുറുകെ	-0.0541
-3.8109	കുറെ	-0.0579
-4.4132	കുറെയധികം	-0.0580
-4.1120	കുറേ	-0.0579
-4.4132	കുറേക്കാലമായി	-0.0563
-4.4132	കുറേക്കൂടി	-0.0580
-4.4132	കുറേയധികം	-0.0580
-4.1120	കുഴപ്പം	0.0355
-4.1120	കുഴപ്പത്തില്‍	-0.2716
-3.8109	കുഴപ്പമില്ല	-0.0540
-3.8109	കുഴപ്പമില്ലാ	-0.1781
-4.1120	കുഴപ്പമൊന്നും	-0.2716
-4.1120	കുഴപ്പമൊന്നുമില്ലല്ലോ	-0.0577
-4.4132	കുഴപ്പമൊന്നുമില്ലായെന്ന്	-0.0580
-4.4132	കുഴപ്പമൊന്നുമുണ്ടാവില്ലാ	0.0354
-4.4132	കുഴപ്പവുമില്ല	0.0354
-4.4132	കുഴിമാടങ്ങളിലും	-0.0579
-4.4132	കുസൃതി	-0.0580
-4.4132	കുർത്ത	-0.0558
-4.4132	കൂടാതെ	-0.0558
-4.4132	കൂടാരം	-0.0580
-4.4132	കൂടാരത്തിനടുത്തു	-0.0577
-3.2369	കൂടി	-0.1660
-4.4132	കൂടിപോയെന്നാണ്	-0.0579
-4.4132	കൂടിയാ	0.0354
-4.4132	കൂടിയിട്ടുണ്ട്	-0.0573
-4.4132	കൂടിയെടുക്ക്	0.0354
-4.4132	കൂടിയെന്ന്	0.0354
-4.4132	കൂടുതലാണെന്ന്	-0.0580
-3.9359	കൂടുതലാണ്	-0.2704
-4.4132	കൂടുതലും	-0.0580
-3.3338	കൂടുതല്‍	0.0083
-3.1120	കൂടെ	-0.0085
-4.1120	കൂടെയാണോ	0.0355
-4.4132	കൂടെയാണ്	-0.0518
-4.4132	കൂടെയൊക്കെ	-0.0580
-4.4132	കൂട്	-0.0580
-4.4132	കൂട്ടത്തിൽ	-0.0578
-4.4132	കൂട്ടരേ	0.0354
-4.4132	കൂട്ടല്ലേ	0.0354
-4.1120	കൂട്ടാളി	0.0359
-4.4132	കൂട്ടി	-0.0579
-4.4132	കൂട്ടികിട്ടണം	0.0354
-4.4132	കൂട്ടിയാണോ	-0.0579
-4.4132	കൂട്ടിവയ്ക്കാം	0.0354
-4.4132	കൂട്ടുകാരന്‍	-0.0580
-4.4132	കൂട്ടുകാരേ	0.0354
-4.4132	കൂട്ടുകാർ	-0.0578
-4.4132	കൂട്ടുകൾ	0.0354
-4.4132	കൂട്ടുന്നതിനെ	-0.0580
-4.4132	കൂട്ടൂ	0.0354
-3.4587	കൂപര്‍	-0.1711
-4.1120	കൂപേർ	-0.0546
-3.9359	കൂപ്	-0.0941
-2.7502	കൂപ്പര്‍	-0.2458
-4.4132	കൂപ്പറിനെ	-0.0580
-4.4132	കൂപ്പറിനോട്	-0.0580
-4.4132	കൂപ്പറിന്റേതുമല്ല	0.0354
-3.5679	കൂപ്പ്	-0.1071
-4.4132	കൃത്യമായി	-0.0546
-4.4132	കൃത്യസമയത്ത്	0.0354
-4.4132	കൃത്രിമമായി	-0.0580
-3.7140	കൃഷി	-0.0527
-4.4132	കൃഷിക്കാര്‍	-0.0580
-4.4132	കെട്ടടങ്ങും	0.0354
-4.4132	കെട്ടിക്കൊണ്ടായിരുന്നു	0.0354
-4.4132	കെട്ടിടം	-0.0580
-4.4132	കെട്ടിപ്പടുത്തു	0.0354
-4.4132	കെട്ടിയിട്ടില്ലട്ടോ	0.0354
-4.4132	കെട്ടിറങ്ങാനാണ്	0.0354
-4.4132	കെട്ടുപാടുകള്‍	-0.0580
-4.4132	കൊടുത്തു	0.0354
-4.4132	കൊല്ലാന്‍	-0.0580
-4.1120	കൊള്ളാം	-0.1782
-4.4132	കേക്കുണ്ടാക്കുകയാണോ	0.0354
-4.1120	കേക്ക്	0.0354
-4.4132	കേടാണ്	0.0354
-4.4132	കേടായി	0.0354
-4.4132	കേടായിട്ടില്ല	0.0354
-4.4132	കേടായിപ്പോയിപൊട്ടി	0.0354
-4.4132	കേടാവും	0.0354
-4.1120	കേടുവന്ന	-0.0580
-4.4132	കേട്ടതിന്	-0.0578
-4.4132	കേട്ടത്	-0.0578
-4.4132	കേട്ടല്ലോ	0.0354
-4.4132	കേട്ടാലേ	-0.0580
-4.4132	കേട്ടിട്ടുണ്ട്	0.0354
-4.1120	കേട്ടു	0.0364
-3.5099	കേട്ടോ	-0.9065
-4.4132	കേട്ട്	-0.0579
-4.4132	കേന്ദ്രത്തിൽ	-0.0576
-4.4132	കേബേജ്	-0.0572
-4.4132	കേറി	0.0354
-4.4132	കേറിക്കഴിയുമ്പോള്‍	-0.0577
-4.1120	കേറ്	0.0367
-4.4132	കേള്‍ക്കാന്‍	-0.0580
-3.9359	കേള്‍ക്കാമോ	-0.2704
-4.4132	കേള്‍ക്കുന്നുണ്ടാവില്ല	0.0354
-4.1120	കേള്‍ക്കുന്നുണ്ടോ	-0.1782
-4.1120	കേള്‍ക്കൂ	-0.1782
-4.4132	കേവലം	-0.0579
-3.8109	കേസ്	0.0361
-4.1120	കോളനി	-0.0580
-4.1120	കേൾക്കാൻ	-0.0579
-4.1120	കേൾക്കും	-0.1782
-4.4132	കേൾക്കുന്നില്ല	0.0354
-4.4132	കേൾക്കുന്നുണ്ടോ	0.0354
-3.9359	കേൾക്ക്	-0.2704
-4.4132	കൈ	-0.0541
-4.4132	കൈകളും	-0.0580
-3.9359	കൈകാര്യം	-0.0576
-4.1120	കൈകൊണ്ട്	0.0354
-4.4132	കൈമാറുന്നു	0.0354
-4.4132	കൈമാറ്റം	-0.0578
-4.4132	കൈയ്യിലുണ്ട്	0.0354
-3.7140	കൈയ്യില്‍	-0.0536
-4.4132	കൈയ്യിൽതന്നെ	0.0354
-4.4132	കൈയ്യീന്ന്	-0.0580
-4.4132	കൈവരിച്ചിരിക്കുന്നു	0.0354
-4.4132	കൈവിടരുത്	0.0354
-3.7140	കൊച്ചു	-0.0578
-4.4132	കൊച്ചുകള്ളാ	0.0354
-4.4132	കൊച്ച്	-0.0579
-4.4132	കൊടും	-0.0580
-4.4132	കൊടുക്കണം	0.0354
-4.1120	കൊടുക്കാം	-0.1782
-4.4132	കൊടുക്കാനോ	0.0354
-4.4132	കൊടുക്കാൻ	-0.0579
-4.4132	കൊടുക്കുന്ന	-0.0579
-4.4132	കൊടുക്കുവാൻ	-0.0579
-4.4132	കൊടുക്കൂ	0.0354
-4.4132	കൊടുക്കേണ്ടേ	0.0354
-4.4132	കൊടുക്ക്	0.0354
-4.4132	കൊടുത്തതാണ്	-0.0580
-4.4132	കൊടുത്തില്ലാ	0.0354
-4.4132	കൊടുത്തു	0.0354
-4.4132	കൊടുത്തുവിടുക	0.0354
-4.4132	കൊടുത്തൂക്കൂടാ	0.0354
-4.4132	കൊട്ടാരം	0.0354
-4.4132	കൊണ്ടാണെന്നാണ്	0.0354
-4.4132	കൊണ്ടാണ്	0.0354
-4.4132	കൊണ്ടാവണം	-0.0580
-4.4132	കൊണ്ടിരിക്കുകയാണ്	0.0354
-4.4132	കൊണ്ടിരുന്നത്	0.0354
-3.7140	കൊണ്ടു	-0.0576
-4.4132	കൊണ്ടുപോകാം	-0.0570
-4.1120	കൊണ്ടുപോകും	-0.1782
-4.4132	കൊണ്ടുപോകുമായിരുന്നു	0.0354
-4.4132	കൊണ്ടുപോയി	0.0354
-4.4132	കൊണ്ടുപോവാം	-0.0580
-4.4132	കൊണ്ടുവച്ചതാണ്	0.0354
-4.1120	കൊണ്ടുവന്നത്	-0.1782
-4.4132	കൊണ്ടുവന്നിരിക്കുന്നത്	0.0354
-4.4132	കൊണ്ടുവന്നു	0.0354
-4.1120	കൊണ്ടുവരാം	0.0364
-4.4132	കൊണ്ടുവരാൻ	-0.0580
-4.4132	കൊണ്ടുവരുന്നത്	0.0354
-3.1342	കൊണ്ട്	-0.0311
-4.4132	കൊതി	0.0354
-4.4132	കൊന്നേനെ	0.0354
-4.4132	കൊമേഴ്സിൽ	-0.0580
-4.1120	കൊയ്ത്തുയന്ത്രം	-0.0580
-4.4132	കൊറിയോഗ്രഫി	-0.0580
-4.4132	കൊല്ലങ്ങളായി	-0.0580
-4.4132	കൊല്ലങ്ങളായുള്ള	-0.0580
-4.4132	കൊല്ലങ്ങൾ	-0.0580
-4.4132	കൊല്ലങ്ങൾക്ക്	0.0354
-4.4132	കൊല്ലത്തോളം	0.0354
-4.4132	കൊല്ലാൻ	-0.0580
-4.4132	കൊല്ലുകയെന്നത്	0.0354
-4.4132	കൊള്ളണം	0.0354
-3.7140	കൊള്ളാം	-0.0373
-4.4132	കൊള്ളാമെന്ന്	0.0354
-4.4132	കൊൽക്കത്തയിൽ	-0.0580
-4.4132	കോക്ക്ട്ടൈലിലെ	-0.0580
-4.4132	കോക്ക്ട്ടൈൽ	-0.0580
-4.4132	കോട്ടിട്ടയാളാരാണ്	0.0354
-4.4132	കോഡില്‍	-0.0579
-4.4132	കോഡുകൾ	-0.0575
-4.4132	കോണ്‍ഫറൻസ്	-0.0580
-4.4132	കോണ്‍വെന്‍റിലെ	0.0354
-4.4132	കോപൈലറ്റ്	-0.0557
-4.4132	കോപ്പര്‍	-0.0580
-4.4132	കോഫി	-0.0580
-4.4132	കോമാളി	-0.0572
-4.4132	കോമ്പസ്	-0.0580
-4.1120	കോളനി	0.0354
-4.4132	കോളേജിനെ	-0.0580
-4.4132	കോളേജിന്‍റെ	-0.0578
-4.4132	കോളേജിലാണോ	0.0354
-4.1120	കോളേജിലെ	-0.0580
-4.4132	കോളേജിലേക്ക്	-0.0579
-4.4132	കോളേജില്‍	-0.0580
-4.1120	കോളേജിൽ	-0.0579
-3.9359	കോളേജ്	-0.0580
-4.4132	കോവന്‍ട്രിയില്‍	-0.0580
-3.8109	ക്യാമറ	-0.0579
-4.4132	ക്യാമറകളിലൊന്ന്	0.0354
-4.4132	ക്യാമ്പും	-0.0580
-4.4132	ക്യൂ	-0.0580
-4.1120	ക്രമീകരണം	-0.0577
-4.4132	ക്രാബ്	-0.0580
-4.4132	ക്രിസ്റ്റലുകളായി	-0.0577
-4.1120	ക്രിസ്റ്റീന	0.0354
-4.4132	ക്രൂ	-0.0571
-4.4132	ക്രൂരനാണ്	0.0354
-4.4132	ക്രൂരന്‍	0.0354
-4.4132	ക്രോണ്‍	0.0354
-4.1120	ക്രോസ്	0.0356
-4.4132	ക്ലബ്ബിലുണ്ട്	0.0354
-4.4132	ക്ലബ്ബിൽ	-0.0580
-4.4132	ക്ലാസ്സ്‌	-0.0577
-4.4132	ക്ലീനര്‍	-0.0580
-4.4132	ക്ലോക്കുകളും	0.0354
-4.4132	ക്ലോക്കുകളുടെ	-0.0576
-3.9359	ക്ലോക്കുകള്‍	0.0360
-4.4132	ക്ലോക്കുണ്ടാക്കുന്നവരാണല്ലോ	-0.0577
-4.1120	ക്ലോക്ക്	-0.1782
-4.4132	ക്ലോക്ക്ഷോപ്പിലേയും	0.0354
-4.4132	ക്ലോഡിനെ	-0.0580
-3.7140	ക്ലോഡ്	0.0400
-4.4132	ക്ലോറിന്‍	-0.0580
-4.1120	ക്ലോസ്‌	-0.0579
-3.8109	ക്ഷമ	0.0355
-4.4132	ക്ഷമചോദിക്കുന്നു	0.0354
-4.4132	ക്ഷമയോടെ	-0.0580
-3.2089	ക്ഷമിക്കണം	-0.2789
-4.4132	ക്ഷമിക്കാനിപ്പോ	-0.0580
-4.4132	ക്ഷമിക്കുമെന്ന്	-0.0580
-4.4132	ക്ഷമിക്കുമോ	0.0354
-4.4132	ക്ഷമിക്കൂ	0.0354
-4.4132	ക്ഷമിക്ക്	0.0354
-4.4132	ക്ഷാമം	0.0354
-4.4132	ക്ഷീണിതയായിരിക്കുന്നു	-0.0577
-4.4132	ക്ഷീരപഥത്തില്‍	0.0354
-4.4132	കൗണ്ടറിന്‍റെ	-0.0580
-4.4132	കർഷകരെയാണ്	0.0354
-4.4132	കർഷകൻ	0.0354
-3.9359	ഖേദിക്കുന്നു	-0.0871
-3.9359	ഗംഭീരം	-0.0947
-4.4132	ഗന്ധമുണ്ടോ	0.0354
-4.1120	ഗര്‍ഗാന്റ്വ	-0.0580
-4.4132	ഗര്‍ഭപാത്ത്രത്തോടെ	-0.0577
-4.4132	ഗര്‍ഭിണിയായിരുന്നു	0.0354
-4.4132	ഗസ്റ്റ്	-0.0580
-4.4132	ഗാലക്സിയിലെക്ക്	0.0354
-4.4132	ഗാലക്സിയിൽ	-0.0577
-4.4132	ഗിയര്‍	-0.0580
-4.4132	ഗിയറിലെക്കിട്	0.0354
-4.4132	ഗിയറുകള്‍	0.0354
-3.5099	ഗുഡ്	-0.2445
-4.4132	ഗുഡ്ബൈ	0.0354
-4.4132	ഗുപ്ചുപ്	-0.0579
-4.4132	ഗുപ്ത	-0.0580
-4.4132	ഗുരുതരമായി	0.0354
-4.4132	ഗുരുത്വബലം	-0.0577
-3.9359	ഗുരുത്വാകര്‍ഷണ	-0.0948
-3.2369	ഗുരുത്വാകര്‍ഷണം	-0.0794
-4.1120	ഗുരുത്വാകര്‍ഷണത്തിന്	0.0354
-4.4132	ഗുരുത്വാകര്‍ഷണത്തിലേയ്ക്	-0.0580
-4.4132	ഗുരുത്വാകര്‍ഷണത്തില്‍	-0.0577
-4.4132	ഗുരുത്വാകര്‍ഷണത്തെപ്പറ്റി	0.0354
-4.4132	ഗുരുത്വാകര്‍ഷണമാണ്	0.0354
-4.4132	ഗുരുത്വാകർഷണത്തെപ്പറ്റിയുള്ള	0.0354
-4.4132	ഗുരുത്വാകർഷണമായിരുന്നു	0.0354
-4.4132	ഗുളികകൾ	0.0354
-3.9359	ഗുസ്താവ്	-0.0575
-4.4132	ഗോഡ്ഫാദറാകുന്നതില്‍	0.0354
-4.1120	ഗോതമ്പ്	-0.0580
-4.4132	ഗോര്‍ദനില്‍	-0.0578
-4.4132	ഗോര്‍ദന്‍	0.0354
-4.4132	ഗോളം	0.0354
-4.4132	ഗോവ	-0.0576
-4.4132	ഗോവയിലേക്കാവും	-0.0580
-4.4132	ഗോവയിൽ	-0.0580
-4.4132	ഗോൽഗപ്പയെന്നാണ്	-0.0580
-3.7140	ഗോൽഗപ്പാ	-0.0574
-4.4132	ഗ്യാലക്സിയിലേയ്ക്ക്	0.0354
-3.7140	ഗ്രഹം	-0.0329
-4.4132	ഗ്രഹങ്ങളിലും	0.0354
-4.4132	ഗ്രഹങ്ങൾ	0.0354
-4.4132	ഗ്രഹണം	-0.0579
-4.4132	ഗ്രഹണപഥത്തിൽ	-0.0580
-4.4132	ഗ്രഹത്തിനെക്കുറിച്ച്	-0.0576
-4.4132	ഗ്രഹത്തിനെപ്പറ്റിയോര്‍ത്ത്	0.0354
-3.9359	ഗ്രഹത്തിന്റെ	-0.0580
-4.4132	ഗ്രഹത്തിലെ	-0.0578
-4.4132	ഗ്രഹത്തിലെത്തിക്കും	0.0354
-4.1120	ഗ്രഹത്തിലേയ്ക്	-0.0579
-4.4132	ഗ്രഹത്തില്‍	-0.0580
-4.4132	ഗ്രഹത്തിൽ	-0.0580
-3.9359	ഗ്രഹമാണ്	0.0361
-4.4132	ഗ്രഹമില്ല	0.0354
-4.4132	ഗ്രേഡ്	-0.0580
-4.4132	ഗ്ലാസുകൊണ്ടുണ്ടാക്കിയത്	0.0354
-4.4132	ഗ്ലാസ്സും	-0.0580
-4.4132	ഗ്ലാസ്സോ	-0.0580
-4.4132	ഗർഗാഞ്ചുവ	0.0354
-4.4132	ഗർഗാഞ്ചുവക്ക്	-0.0580
-4.4132	ഘടകങ്ങള്‍	0.0354
-4.4132	ഘടികാരങ്ങളിലാണ്	0.0354
-4.4132	ഘടികാരങ്ങള്‍	-0.0578
-4.1120	ഘട്ട	-0.0580
-4.4132	ഘട്ടം	0.0354
-4.4132	ങേ	-0.0580
-4.4132	ചക്കരേ	0.0354
-4.4132	ചക്രവാളത്തിനപ്പുറം	-0.0580
-4.1120	ചക്രവാളത്തിനുമപ്പുറം	-0.1782
-4.4132	ചക്രവാളത്തിലാണോ	0.0354
-4.4132	ചങ്ങാതിയെ	-0.0580
-4.4132	ചന്തമുണ്ട്	0.0354
-4.4132	ചന്ദ്രനിൽ	-0.0580
-4.4132	ചന്ദ്രന്റെ	-0.0580
-4.4132	ചരിഞ്ഞിറങ്ങുന്നു	0.0354
-4.4132	ചരിത്രത്തിലെ	-0.0578
-4.4132	ചരിത്രത്തെ	-0.0580
-4.4132	ചര്‍ച്ച	-0.0579
-4.4132	ചര്‍മ്മപോലെ	-0.0580
-4.1120	ചലച്ചിത്ര	-0.0580
-4.4132	ചലനം	-0.0576
-4.4132	ചലനത്തിനൊപ്പം	0.0354
-4.1120	ചലിക്കുന്ന	-0.0580
-4.4132	ചവിട്ടി	0.0354
-4.4132	ചവിട്ടുന്നത്	0.0354
-4.4132	ചവിട്ടുന്നുണ്ട്	0.0354
-4.1120	ചാമ്പ്	-0.0545
-3.8109	ചായ	0.0359
-4.4132	ചായയൊക്കെകുടിക്കാം	-0.0576
-4.4132	ചായ്ക്കാൻ	-0.0577
-4.4132	ചാരവും	0.0354
-4.4132	ചാര്‍ജുണ്ടോ	-0.0579
-4.4132	ചാവി	0.0354
-4.4132	ചാർജാണ്	0.0354
-4.4132	ചാർജിംഗിലല്ല	-0.0580
-4.4132	ചിക്കൻ	-0.0580
-4.1120	ചിത്രം	0.0354
-4.4132	ചിത്രങ്ങളില്‍	0.0354
-4.4132	ചിത്രങ്ങളുണ്ട്	-0.0578
-3.9359	ചിത്രങ്ങൾ	-0.0569
-4.4132	ചിത്രികരണം	-0.0580
-4.4132	ചിത്രികരണങ്ങളിൽ	-0.0546
-3.9359	ചിന്തിക്കണം	-0.2704
-4.4132	ചിന്തിക്കു	0.0354
-4.4132	ചിന്തിക്കുന്നതിനു	-0.0580
-4.4132	ചിന്തിക്കുന്നതിലും	-0.0580
-4.4132	ചിന്തിക്കുന്നത്	-0.0568
-4.1120	ചിന്തിക്കുന്നു	-0.1782
-4.4132	ചിന്തിക്കുന്നുണ്ടല്ലേ	0.0354
-4.4132	ചിന്തിക്കൂ	0.0354
-4.4132	ചിന്തിക്കേണ്ടതാണ്	0.0354
-4.4132	ചിന്തിച്ചതാണ്	0.0354
-4.1120	ചിന്തിച്ചു	0.0356
-4.4132	ചിന്തിച്ചോ	0.0354
-4.4132	ചിന്തിച്ച്	-0.0580
-3.8109	ചിന്‍റു	-0.0576
-4.4132	ചിന്‍റുനീ	-0.0576
-4.4132	ചിന്‍റുവിനെ	-0.0577
-4.4132	ചിന്‍റുവിനെയും	-0.0577
-4.4132	ചിന്‍റുവിനെയൊക്കെ	-0.0579
-4.4132	ചിന്‍റുവിന്	-0.0579
-4.1120	ചിന്‍റുവും	-0.0540
-4.4132	ചിന്‍റുസുഖമല്ലേ	-0.0580
-4.4132	ചിപ്പിയില്‍	-0.0578
-3.8109	ചിരി	0.0359
-4.4132	ചിരിക്കാന്‍	-0.0580
-4.4132	ചിറകുകള്‍	0.0354
-3.2369	ചില	0.0140
-4.4132	ചിലകാര്യങ്ങള്‍	-0.0579
-3.8109	ചിലതൊക്കെ	0.0357
-3.9359	ചിലത്	-0.0579
-3.7140	ചിലപ്പോള്‍	0.0358
-4.1120	ചിലപ്പോൾ	-0.0555
-4.4132	ചിലരെയൊക്കെ	-0.0579
-4.4132	ചിലവഴിക്കുന്ന	0.0354
-4.4132	ചിലവാക്കണം	0.0354
-4.4132	ചിലവാക്കുകയെ	-0.0580
-4.4132	ചിലസമയങ്ങളിൽ	0.0354
-4.4132	ചില്ലുകൊണ്ട്	-0.0580
-4.4132	ചീട്ടിലൊന്ന്	-0.0580
-4.1120	ചീട്ട്	-0.1782
-4.4132	ചീസാണ്തക്കാളികഴിച്ചോളു	0.0354
-4.4132	ചീസ്പാകം	-0.0580
-3.9359	ചുംബനം	-0.0947
-4.4132	ചുംബനമാണ്	-0.0578
-4.4132	ചുട്ടത്	0.0354
-4.1120	ചുണ്ടോട്ചുണ്ട്	-0.0580
-4.4132	ചുമ	-0.0580
-4.4132	ചുമരില്‍	-0.0559
-4.4132	ചുമർകൊള്ളാം	0.0354
-4.4132	ചുരുങ്ങിയത്	-0.0541
-4.1120	ചുരുട്ട്	-0.0580
-4.4132	ചുരുളും	-0.0580
-4.4132	ചുറ്റികറങ്ങലെല്ലാം	-0.0580
-4.4132	ചുറ്റികറങ്ങിയോ	0.0354
-4.4132	ചുറ്റികാണ്	0.0354
-4.4132	ചുറ്റിവരുകയാണ്	-0.0580
-4.4132	ചുറ്റിസഞ്ചരിക്കുന്നു	0.0354
-3.7140	ചുറ്റും	-0.0527
-4.1120	ചുറ്റുമുള്ള	0.0354
-4.4132	ചുറ്റുമ്പോള്‍	0.0354
-4.4132	ചുറ്റുമ്പോൾ	0.0354
-4.4132	ചുറ്റൽ	-0.0580
-4.4132	ചുഴി	-0.0580
-4.4132	ചുവടുകള്‍	-0.0580
-4.4132	ചുവടുകൾ	-0.0579
-4.4132	ചുവരിലും	-0.0580
-4.4132	ചൂടാവുന്നു	0.0354
-4.4132	ചൂടിലാണ്	0.0354
-4.4132	ചൂട്	-0.0580
-4.4132	ചെക്കാ	0.0354
-3.8109	ചെക്ക്‌	-0.0578
-4.4132	ചെക്കൻമാരും	-0.0568
-4.4132	ചെന്നായ	0.0354
-4.4132	ചെന്നെത്തിയാലോ	0.0354
-4.4132	ചെമ്മീനുകളും	-0.0580
-4.4132	ചെമ്മീന്‍	-0.0580
-4.4132	ചെയറിൽ	-0.0580
-4.4132	ചെയുന്നു	0.0354
-4.4132	ചെയുമ്പോൾ	-0.0579
-4.4132	ചെയ്ത	0.0354
-3.5679	ചെയ്തത്	-0.2592
-4.4132	ചെയ്തല്ലോ	0.0354
-4.4132	ചെയ്താൽ	-0.0518
-4.4132	ചെയ്തിട്ടല്ല	0.0354
-4.4132	ചെയ്തിട്ടില്ലാ	0.0354
-4.4132	ചെയ്തിട്ടുണ്ടെങ്കിൽ	0.0354
-3.8109	ചെയ്തിട്ടുണ്ട്	-0.1711
-4.4132	ചെയ്തിരിക്കുക	0.0354
-3.9359	ചെയ്തിരിക്കുന്നു	-0.0947
-4.4132	ചെയ്തിരിക്കുയാണ്	0.0354
-4.1120	ചെയ്തിരുന്നത്	-0.1782
-4.4132	ചെയ്തിരുന്നില്ല	0.0354
-4.4132	ചെയ്തിരുന്നു	0.0354
-4.1120	ചെയ്തില്ല	-0.1782
-4.1120	ചെയ്തില്ലേ	-0.1782
-3.2089	ചെയ്തു	-0.4118
-4.4132	ചെയ്തുകൂടെ	0.0354
-4.4132	ചെയ്തുകൊണ്ടിരിക്കുന്നതും	0.0354
-4.4132	ചെയ്തുകൊണ്ടിരുന്നത്	0.0354
-4.1120	ചെയ്തേ	0.0354
-3.9359	ചെയ്തോ	-0.0947
-4.1120	ചെയ്തോളാം	-0.1782
-3.5099	ചെയ്ത്	-0.0455
-4.4132	ചെയ്യട്ടെ	0.0354
-3.5099	ചെയ്യണം	-0.9065
-4.4132	ചെയ്യണമെങ്കിൽ	0.0354
-4.4132	ചെയ്യണമെന്നാണ്	0.0354
-4.4132	ചെയ്യണോ	0.0354
-3.9359	ചെയ്യരുത്	-0.0563
-4.4132	ചെയ്യല്ലേ	0.0354
-3.3716	ചെയ്യാം	-0.7420
-4.4132	ചെയ്യാനറിയാം	-0.0577
-3.6348	ചെയ്യാനാണ്	-0.7258
-4.4132	ചെയ്യാനായേക്കും	0.0354
-4.4132	ചെയ്യാനാവില്ല	0.0354
-4.4132	ചെയ്യാനാവും	0.0354
-4.4132	ചെയ്യാനാവുന്നില്ല	0.0354
-4.4132	ചെയ്യാനാവുമോ	0.0354
-4.4132	ചെയ്യാനും	0.0354
-4.4132	ചെയ്യാനുണ്ട്	0.0354
-4.4132	ചെയ്യാനുള്ള	-0.0580
-4.4132	ചെയ്യാനുള്ളത്	0.0354
-3.9359	ചെയ്യാന്‍	-0.0578
-3.4587	ചെയ്യാൻ	-0.0568
-4.4132	ചെയ്യിക്കുകയാണെന്നാ	-0.0579
-4.4132	ചെയ്യിച്ചുകൊണ്ടിരുന്നത്	0.0354
-4.4132	ചെയ്യില്ലേ	0.0354
-3.4587	ചെയ്യും	-0.9645
-4.4132	ചെയ്യുക	0.0354
-4.4132	ചെയ്യുകയാണ്	0.0354
-4.4132	ചെയ്യുകാ	0.0354
-4.4132	ചെയ്യുന്നതുപോലും	0.0354
-4.4132	ചെയ്യുന്നതെന്ന്	-0.0580
-3.1120	ചെയ്യുന്നത്	-0.6566
-3.5099	ചെയ്യുന്നു	-0.2089
-4.4132	ചെയ്യുന്നുണ്ട്	0.0354
-4.1120	ചെയ്യുമോ	-0.1782
-4.4132	ചെയ്യുവാ	0.0354
-4.4132	ചെയ്യൂ	0.0354
-4.4132	ചെയ്യേണ്ട	0.0354
-4.4132	ചെയ്യേണ്ടതെന്നറിയില്ല	-0.0578
-4.4132	ചെയ്യേണ്ടത്	0.0354
-4.1120	ചെയ്യേണ്ടി	-0.0575
-3.6348	ചെയ്യ്‌	-0.3359
-4.1120	ചെയ്‌താൽ	0.0357
-3.3338	ചെറിയ	0.0067
-4.4132	ചെറു	-0.0580
-4.4132	ചെറുക്കനെവിടെയാണെന്ന്	-0.0580
-4.1120	ചെറുക്കാ	0.0366
-4.4132	ചെറുതാണെന്ന്	0.0354
-4.1120	ചെറുതായിട്ട്	-0.1782
-4.4132	ചെറുതായിരുന്നപ്പോള്‍	0.0354
-4.4132	ചെറുതായിരുന്നു	-0.0580
-4.4132	ചെറുത്	-0.0580
-4.4132	ചെറുപ്പക്കാരന്	-0.0580
-4.4132	ചെറുപ്പമല്ലെന്ന്	-0.0580
-4.4132	ചെറുപ്പമാണ്	0.0354
-4.4132	ചെറ്റേ	0.0354
-4.4132	ചെലവഴിക്കാൻ	-0.0580
-4.4132	ചെലവാക്കുന്നതിനോട്	-0.0580
-4.4132	ചെലവും	-0.0568
-4.4132	ചെലവേറിയതാണ്	0.0354
-4.4132	ചെല്ലാന്‍	-0.0579
-4.4132	ചെല്ല്	-0.0580
-4.4132	ചൊവ്വയിലേക്ക്	-0.0580
-3.5679	ചേച്ചി	-0.5000
-4.4132	ചേച്ചികരയുന്നത്	0.0354
-4.4132	ചേച്ചിയാണ്	0.0354
-4.4132	ചേച്ചിയുടെ	-0.0580
-4.4132	ചേച്ചിയോട്	-0.0557
-4.4132	ചേട്ടന്	-0.0580
-4.4132	ചേട്ടന്‍	-0.0580
-4.4132	ചേട്ടാ	-0.0541
-4.4132	ചേമ്പറില്‍	-0.0578
-4.1120	ചേരില്ലാ	-0.1782
-4.4132	ചേരും	0.0354
-4.4132	ചേരുന്നില്ല	0.0354
-4.4132	ചേരുന്നില്ലാ	0.0354
-4.1120	ചേരുന്നുണ്ട്	-0.1782
-4.4132	ചേരുവകൾ	0.0354
-4.4132	ചേര്‍ക്കല്‍	0.0354
-4.4132	ചേര്‍ക്കാനുള്ള	-0.0580
-3.7140	ചേര്‍ക്കാന്‍	-0.2149
-4.4132	ചേര്‍ക്കുന്നു	0.0354
-4.4132	ചേര്‍ത്തുവെച്ചോ	0.0354
-4.4132	ചേര്‍ത്തുവെയ്കുന്നതോരോന്നും	0.0354
-4.4132	ചേര്‍ത്തോ	-0.0580
-4.4132	ചേര്‍ന്നു	-0.0573
-4.4132	ചേർക്കണം	0.0354
-4.4132	ചേർക്കാം	0.0354
-4.4132	ചേർത്തുണ്ടാക്കുന്നതാണ്	0.0354
-4.4132	ചേർന്നിരുന്നു	0.0354
-4.4132	ചേർന്നോളു	0.0354
-4.4132	ചൈനീസാണ്	-0.0580
-3.9359	ചൈനീസ്	0.0358
-4.4132	ചൊല്ലിത്തരട്ടെ	0.0354
-4.4132	ചൊല്ലിയിരുന്നോ	0.0354
-4.4132	ചോദിക്കട്ടേ	0.0354
-4.4132	ചോദിക്കാനാണ്	0.0354
-4.4132	ചോദിക്കും	0.0354
-4.4132	ചോദിക്കുകയാണെങ്കിൽ	0.0354
-4.4132	ചോദിക്കുന്നു	0.0354
-4.4132	ചോദിച്ചിരുന്നു	0.0354
-4.4132	ചോദിച്ചു	-0.0576
-4.4132	ചോദ്യങ്ങൾക്ക്	-0.0580
-4.4132	ചോയ്സ്	-0.0574
-4.4132	ചോള	-0.0580
-4.1120	ചോളം	-0.0580
-4.4132	ചോളവും	-0.0580
-4.4132	ച്ചിത്രം	-0.0580
-3.7140	ചർച്ചിലേക്ക്	-0.0375
-4.4132	ചർച്ചിൽ	-0.0580
-4.4132	ചർച്ച്	0.0354
-4.4132	ചർദ്ധിക്കുന്നു	0.0354
-4.4132	ഛര്‍ദ്ദിക്കാൻ	-0.0580
-4.4132	ജനങ്ങളുടെ	0.0354
-4.4132	ജനങ്ങളെ	-0.0580
-4.4132	ജനങ്ങളോട്	-0.0580
-4.1120	ജനങ്ങള്‍ക്ക്	-0.0541
-4.4132	ജനങ്ങൾക്ക്	-0.0579
-4.4132	ജനത	0.0354
-4.4132	ജനപ്രീതി	-0.0580
-4.4132	ജനറേറ്ററുണ്ട്	0.0354
-4.4132	ജനലിന്‍റെ	-0.0580
-4.1120	ജനസംഖ്യ	-0.0580
-4.4132	ജനാലകൾ	-0.0580
-4.4132	ജനിക്കേണ്ടവനായിരുന്നു	0.0354
-4.1120	ജനിച്ചത്	0.0358
-4.4132	ജനിതക	-0.0580
-4.4132	ജപ്പാനീസ്	-0.0580
-4.4132	ജപ്പാൻ	0.0354
-4.4132	ജയിച്ചു	0.0354
-4.4132	ജയിലിൽ	-0.0580
-4.4132	ജലം	-0.0580
-4.4132	ജലമാണ്	0.0354
-4.4132	ജാഗ്രതയ്കുള്ള	-0.0580
-4.4132	ജാർഗണ്ടിലും	-0.0580
-4.4132	ജിപിസും	-0.0580
-4.4132	ജിലേബി	-0.0578
-4.4132	ജീത്	-0.0580
-4.4132	ജീന്‍	-0.0580
-4.4132	ജീവജാലങ്ങള്‍ക്ക്	-0.0574
-4.4132	ജീവനില്ല	-0.0580
-4.4132	ജീവനോടെ	-0.0580
-4.1120	ജീവന്റെ	-0.0580
-4.4132	ജീവന്‍	-0.0580
-4.4132	ജീവശാസ്ത്ര	-0.0580
-4.4132	ജീവികളാണ്	0.0354
-4.4132	ജീവിക്കണം	0.0354
-4.1120	ജീവിക്കാനുള്ള	-0.0579
-4.4132	ജീവിക്കുക	0.0354
-4.4132	ജീവിക്കുന്നതായിരുന്നു	-0.0579
-4.4132	ജീവിക്കുന്നതെന്ന്	0.0354
-4.4132	ജീവിക്കുന്നുമുണ്ട്	0.0354
-4.4132	ജീവിച്ചിരിക്കുന്നെന്നോ	0.0354
-4.1120	ജീവിച്ചിരിപ്പുണ്ടോ	-0.1782
-4.4132	ജീവിച്ചിരുന്നതിൽ	-0.0578
-4.4132	ജീവിച്ചിരുന്നത്	0.0354
-4.4132	ജീവിച്ചു	0.0354
-3.9359	ജീവിതം	-0.0948
-4.4132	ജീവിതകാലയളവിനും	0.0354
-4.4132	ജീവിതത്തിൽ	-0.0580
-4.4132	ജീവിതത്തെ	-0.0580
-4.4132	ജീവിതത്തെപ്പറ്റി	0.0354
-4.4132	ജീവിതവും	-0.0580
-4.4132	ജീവൻറിക്കി	0.0354
-4.4132	ജീൻസിന്‍റെയും	-0.0580
-4.1120	ജൂള്‍സ്	-0.0580
-4.4132	ജെസ്സി	-0.0580
-4.4132	ജെസ്സിയും	-0.0580
-4.1120	ജെസ്സിയുടെയും	-0.0577
-4.4132	ജേനിനോട്	-0.0580
-4.1120	ജേനും	0.0357
-4.4132	ജേനുമായി	-0.0571
-4.1120	ജേന്‍	-0.0566
-4.4132	ജോടിയല്ലാത്തതാണ്	0.0354
-4.4132	ജോലി	-0.0578
-4.4132	ജൈവകങ്ങളെ	-0.0580
-4.4132	ജോര്‍ജസിനെ	0.0354
-4.4132	ജോര്‍ജസിനെപ്പോലെ	0.0354
-4.4132	ജോര്‍ജസിന്റെ	-0.0577
-3.7140	ജോര്‍ജസ്	-0.0373
-4.4132	ജോര്‍ജിനെ	-0.0558
-3.8109	ജോര്‍ജിന്റെ	-0.0579
-4.4132	ജോര്‍ജും	-0.0579
-3.5679	ജോര്‍ജ്	-0.1657
-3.5679	ജോലി	-0.0574
-4.4132	ജോലിക്കാരിയാണ്	0.0354
-4.4132	ജോലിക്കാർ	-0.0580
-4.4132	ജോലിക്കിവിടെ	0.0354
-4.4132	ജോലിക്ക്	-0.0579
-4.4132	ജോലിയാണ്	0.0354
-3.9359	ജോലിയുണ്ട്	-0.2704
-4.4132	ജോലിയെയൊള്ളൂ	0.0354
-4.4132	ജ്യൂസ്‌	0.0354
-4.4132	ജ്വലനം	0.0354
-4.4132	ജ്വലിക്കണം	0.0354
-4.4132	ജ്വലിക്കുന്നതു	0.0354
-4.4132	ജ്വലിക്കുന്നില്ല	0.0354
-4.4132	ജ്വാലയെ	-0.0580
-4.4132	ഞങ്ങക്കായി	-0.0580
-4.4132	ഞങ്ങടെ	-0.0580
-4.4132	ഞങ്ങളാ	-0.0580
-4.4132	ഞങ്ങളിങ്ങോട്ട്	-0.0579
-4.1120	ഞങ്ങളിതാ	-0.0578
-4.1120	ഞങ്ങളും	-0.0579
-3.4130	ഞങ്ങളുടെ	-0.0570
-4.4132	ഞങ്ങളുണ്ട്	0.0354
-3.5679	ഞങ്ങളെ	-0.0577
-4.1120	ഞങ്ങളെപ്പോളും	0.0355
-4.4132	ഞങ്ങളെല്ലാം	-0.0580
-4.1120	ഞങ്ങളോട്	-0.0576
-4.4132	ഞങ്ങള്ക്ക്	-0.0580
-2.9816	ഞങ്ങള്‍	-0.0255
-4.4132	ഞങ്ങള്‍ക്കുണ്ടായിരുന്നതെല്ലാതും	-0.0580
-4.4132	ഞങ്ങള്‍ക്കുവേണ്ടി	-0.0580
-4.1120	ഞങ്ങള്‍ക്കൊരു	-0.0580
-3.4587	ഞങ്ങള്‍ക്ക്	0.0016
-2.9359	ഞങ്ങൾ	-0.0982
-4.4132	ഞങ്ങൾക്കിവരുടെ	-0.0580
-4.4132	ഞങ്ങൾക്കു	-0.0578
-3.8109	ഞങ്ങൾക്ക്	-0.0529
-4.4132	ഞണ്ടും	0.0354
-4.4132	ഞണ്ട്	-0.0574
-4.4132	ഞനിതിൽനിന്നും	-0.0580
-4.1120	ഞാനങ്ങനെ	-0.0573
-4.4132	ഞാനതറിഞ്ഞു	-0.0575
-4.4132	ഞാനതിനനുസരിച്ച്	-0.0580
-4.1120	ഞാനതിനെ	-0.0580
-4.4132	ഞാനതിപ്പോഴും	-0.0580
-4.1120	ഞാനതില്‍	-0.0571
-4.1120	ഞാനതു	-0.0577
-3.6348	ഞാനത്	0.0360
-4.4132	ഞാനത്തരം	-0.0580
-4.4132	ഞാനദ്ദേഹത്തെ	-0.0580
-4.4132	ഞാനറിഞ്ഞു	0.0354
-4.4132	ഞാനല്ല	0.0354
-4.4132	ഞാനല്ലെന്നു	-0.0576
-4.1120	ഞാനവനെ	-0.0577
-4.4132	ഞാനവനോട്	-0.0580
-4.4132	ഞാനവരോട്	-0.0576
-4.4132	ഞാനവിടുന്ന്	0.0354
-4.4132	ഞാനാ	-0.0580
-3.9359	ഞാനാണ്	-0.0579
-4.4132	ഞാനാദ്യം	-0.0580
-4.1120	ഞാനായിരുന്നു	-0.0566
-4.4132	ഞാനാരാണ്	0.0354
-4.4132	ഞാനിതാ	-0.0580
-3.9359	ഞാനിതിന്റെ	-0.0577
-4.1120	ഞാനിതുവരെ	-0.0578
-3.8109	ഞാനിത്	-0.0546
-4.4132	ഞാനിന്നു	-0.0570
-3.9359	ഞാനിപ്പോള്‍	-0.0575
-4.4132	ഞാനില്ലാതെ	-0.0568
-3.5099	ഞാനിവിടെ	-0.0568
-4.4132	ഞാനിവിടെയുണ്ട്	-0.0579
-4.4132	ഞാനീ	-0.0579
-3.4130	ഞാനും	-0.0841
-4.4132	ഞാനുണ്ടാക്കിയ	-0.0578
-4.4132	ഞാനുണ്ടായി	0.0354
-4.1120	ഞാനുമായി	-0.0541
-4.4132	ഞാനുമായിരിക്കില്ല	-0.0570
-4.1120	ഞാനെങ്ങനെ	-0.0579
-4.4132	ഞാനെങ്ങനെയാ	-0.0580
-4.4132	ഞാനെങ്ങനെയാണ്	-0.0580
-4.4132	ഞാനെങ്ങോട്ടും	-0.0580
-4.4132	ഞാനെടുത്തോളാം	0.0354
-4.4132	ഞാനെത്തി	0.0354
-4.4132	ഞാനെന്താ	-0.0572
-3.7140	ഞാനെന്താണ്	-0.0577
-4.4132	ഞാനെന്തായാലും	-0.0580
-4.4132	ഞാനെന്തു	-0.0579
-4.4132	ഞാനെന്ത്	-0.0579
-4.4132	ഞാനെന്നും	-0.0572
-3.8109	ഞാനെന്റെ	-0.0579
-4.1120	ഞാനെന്‍റെ	-0.0579
-4.4132	ഞാനെപ്പോഴും	-0.0580
-4.4132	ഞാനെല്ലാ	-0.0577
-4.4132	ഞാനേറ്റു	0.0354
-4.4132	ഞാനൊന്നും	-0.0580
-4.4132	ഞാനൊന്ന്	-0.0580
-4.4132	ഞാനൊരിക്കലും	-0.0580
-3.2669	ഞാനൊരു	0.0373
-4.1120	ഞാനോ	-0.1782
-1.8483	ഞാന്‍	-0.0208
-4.4132	ഞെരുങ്ങുകയും	0.0354
-4.4132	ടബാര്‍ഡിനെ	-0.0580
-4.4132	ടബാര്‍ഡിനെക്കൊണ്ട്	-0.0561
-3.8109	ടബാര്‍ഡ്	-0.0540
-3.8109	ടയര്‍	-0.1782
-4.4132	ടവറാണ്	0.0354
-4.4132	ടവറിന്‍റെ	-0.0578
-4.4132	ടവറും	-0.0579
-3.9359	ടവർ	0.0355
-3.7140	ടാക്ക	0.0378
-4.4132	ടാക്കക്ക്	-0.0580
-4.4132	ടാക്കജപ്പാനിൽ	-0.0578
-4.1120	ടാക്സി	0.0355
-4.4132	ടാങ്കുകൾ	-0.0580
-2.8815	ടാര്‍‌സ്	-0.1091
-4.4132	ടിംഫ്രാൻസിൽ	-0.0578
-4.4132	ടികിടാക്കയോചില്ലി	-0.0580
-4.4132	ടിക്കറ്റും	-0.0580
-4.1120	ടിക്കറ്റ്‌	-0.1782
-4.4132	ടിന്നിൽ	-0.0573
-4.4132	ടിവി	-0.0580
-4.4132	ടിഷർട്ടാണ്	-0.0580
-4.4132	ടീം	-0.0580
-4.4132	ടീമാണ്	-0.0579
-4.4132	ടുഡയമൻഷനിൽ	-0.0580
-4.4132	ടുഡയമൻഷൻ	-0.0580
-4.4132	ടുവിൽ	-0.0580
-4.4132	ടൂട്ടോറിയലിൽ	-0.0580
-4.4132	ടൂട്ടോറിയിലാണ്	0.0354
-4.4132	ടെക്നിക്കൽ	-0.0580
-4.1120	ടെല്ലി	-0.0580
-4.4132	ടെൻഷനായോ	0.0354
-4.1120	ടോം	-0.0577
-4.4132	ടൈപ്പ്	-0.0580
-4.4132	ടോപ്‌	-0.0580
-4.4132	ടോമിനെ	-0.0580
-3.9359	ടോമിന്‍റെ	-0.0580
-4.4132	ടോയ്ബൂത്തിലാണ്	-0.0580
-4.4132	ടോസ്റ്റ്‌	0.0354
-4.4132	ടൌണിലേക്ക്	-0.0580
-4.4132	ട്രക്കിൽ	0.0354
-4.1120	ട്രക്ക്	-0.0518
-4.4132	ട്രയിനില്‍	-0.0580
-4.4132	ട്രാക്കിലൊരു	-0.0578
-4.1120	ട്രാക്കില്‍	-0.2677
-4.4132	ട്രാക്ടര്‍	-0.0580
-4.4132	ട്രാജഡിയാണിത്‌	0.0354
-4.4132	ട്രാജഡിയായിപ്പോയി	0.0354
-4.4132	ട്രാന്‍സ്മിറ്ററുകള്‍	0.0354
-4.4132	ട്രാന്‍സ്മിറ്റിര്‍	-0.0576
-4.4132	ട്രാൻസ്മിഷൻ	-0.0579
-4.4132	ട്രിക്ക്	-0.0578
-4.4132	ട്രെയിനിന്	-0.0579
-3.5099	ട്രെയിന്‍	-0.1514
-4.4132	ട്രെഷര്‍	-0.0580
-4.4132	ഡഗ്ലസ്	-0.0580
-4.4132	ഡയമനുള്ള	-0.0580
-4.4132	ഡയമെൻഷനാണ്	0.0354
-4.4132	ഡയമൻഷനിൽ	0.0354
-4.4132	ഡയമൻഷനു	-0.0580
-3.4587	ഡാഡി	-0.0737
-3.9359	ഡാഡിക്ക്	-0.0539
-4.4132	ഡാഡിയല്ല	-0.0576
-4.4132	ഡാഡിയും	0.0354
-4.4132	ഡാഡിയുടെ	-0.0580
-3.5679	ഡാഡ്	-0.1093
-4.4132	ഡാഡ്‌	-0.0557
-4.4132	ഡാറ്റ	-0.0580
-4.4132	ഡാറ്റാ	-0.0580
-3.8109	ഡാഷ്	-0.1781
-4.4132	ഡാഷ്ഡാഷ്	0.0354
-4.4132	ഡാഷ്ഡാഷ്ഡാഷ്	0.0354
-4.4132	ഡാഷ്ഡോട്ട്	0.0354
-4.4132	ഡാൻസിന്‍റെ	-0.0580
-4.4132	ഡാൻസും	-0.0580
-3.5099	ഡാൻസ്	0.0368
-4.1120	ഡാർലിംഗ്	0.0355
-4.4132	ഡിക്കിയില്‍	-0.0580
-4.4132	ഡിഗ്രി	-0.0580
-4.4132	ഡിഗ്രിയുമുണ്ട്	0.0354
-3.6348	ഡിപ്പാർട്ട്മെന്റിലെ	-0.4292
-3.6348	ഡിപ്പാർട്ട്മെന്റിലേക്കുള്ള	-0.4289
-4.4132	ഡിപ്പാർട്ട്മെന്റുകൾ	-0.0577
-4.4132	ഡിപ്പാർട്ട്മെന്റ്	-0.0580
-4.4132	ഡിമെന്‍ഷനില്‍	0.0354
-4.4132	ഡിമെന്‍ഷനുകള്‍ക്കപ്പുറത്തെത്താനാകും	0.0354
-4.1120	ഡിയര്‍	0.0357
-3.8109	ഡൊണാൾഡ്	-0.0485
-4.4132	ഡേവിഡ്	-0.0580
-3.9359	ഡോ	-0.0579
-4.4132	ഡോക്ടർ	-0.0580
-4.4132	ഡോമാന്	-0.0563
-3.9359	ഡോയൽ	0.0383
-4.4132	ഡോറുകൾ	-0.0580
-3.1120	ഡോ	-0.5420
-4.4132	ഡോക്ടര്‍ക്ക്	-0.0580
-4.4132	ഡോക്ടർ	-0.0580
-4.4132	ഡോഗ്	-0.0576
-4.4132	ഡോട്ട്ഡാഷ്ഡോട്ട്ഡോട്ട്	0.0354
-4.4132	ഡോട്ട്ഡോട്ട്	0.0354
-4.4132	ഡോട്ട്ഡോട്ട്ഡാഷ്ഡോട്ട്	0.0354
-4.4132	ഡോണാള്‍ഡ്	-0.0576
-4.4132	ഡോണാൾഡ്	0.0354
-4.4132	ഡോബ്രാന്റ്	-0.0580
-4.4132	ഡോബ്രാൻഡിനെ	-0.0579
-4.1120	ഡോബ്രാൻഡ്‌	0.0356
-4.4132	ഡോമാനിന്റടുത്തേയ്ക്	-0.0580
-4.4132	ഡോമാന്സിന്റെ	-0.0577
-4.4132	ഡോമാന്സിന്റെയും	-0.0580
-4.4132	ഡോമാൻസിന്റെതിനെക്കളും	0.0354
-4.4132	ഡോയലിനോട്	-0.0580
-4.4132	ഡോയലിന്	-0.0580
-3.6348	ഡോയൽ	-0.0222
-4.4132	ഡോളി	-0.0573
-3.8109	ഡ്രസ്സ്‌	-0.0472
-4.4132	ഡ്രാഗണിന്റെ	-0.0580
-4.1120	ഡ്രാമാമൈൻ	-0.0576
-4.4132	ഡ്രൈവിങ്ങല്ല	0.0354
-4.1120	ഡ്രൈവ്	-0.0579
-4.1120	ഡ്രോണ്‍	-0.2712
-4.4132	ഡൽഹി	-0.0580
-4.4132	ഡൽഹിയിലാണ്	0.0354
-4.1120	ഡൽഹിയിലെ	-0.0580
-4.4132	ഡൽഹിയിലേക്ക്	-0.0580
-4.4132	ഡൽഹിയിലോട്ട്	-0.0579
-3.7140	ഡൽഹിയിൽ	-0.2145
-4.4132	തകരുന്നതിനു	0.0354
-4.4132	തകര്ന്നു	-0.0580
-4.4132	തകർച്ച	-0.0580
-4.4132	തകർച്ചയെ	-0.0580
-4.4132	തകർച്ചയെക്കുറിച്ച്‌	-0.0580
-4.4132	തകർത്തു	-0.0573
-4.4132	തകർന്ന	0.0354
-4.4132	തകർന്നു	-0.0580
-4.4132	തടയാനാവില്ല	0.0354
-4.4132	തടയാന്‍	-0.0580
-4.4132	തടയുന്നത്	0.0354
-4.4132	തടയ്	-0.0580
-4.4132	തടസ്സം	-0.0580
-4.4132	തടസ്സപ്പെടുത്തി	0.0354
-4.4132	തടാകത്തിന്‍റെ	0.0354
-4.4132	തടി	-0.0580
-4.4132	തടിച്ച	-0.0541
-4.4132	തടിച്ചത്	-0.0578
-4.4132	തട്ടി	-0.0580
-4.4132	തട്ടിന്‍പുറത്ത്	0.0354
-4.4132	തട്ടിപ്പായിരുന്നു	0.0354
-4.4132	തണുത്ത	-0.0580
-4.1120	തണുത്തതാണ്	-0.1782
-4.4132	തണുത്തുറഞ്ഞ	-0.0580
-4.4132	തണുപ്പുണ്ടോ	0.0354
-4.4132	തണുപ്പൊന്നുമില്ലാ	0.0354
-4.4132	തണുപ്പോ	-0.0580
-4.4132	തണുപ്പ്	-0.0580
-4.4132	തനിയെ	-0.0580
-4.4132	തന്തുക്കള്‍	0.0354
-4.4132	തന്ത്രം	0.0354
-4.4132	തന്നത്	0.0354
-4.1120	തന്നത്താന്‍	-0.0578
-4.4132	തന്നാൽ	-0.0580
-4.4132	തന്നിട്ടുണ്ട്	0.0354
-3.9359	തന്നില്ല	-0.2704
-3.9359	തന്നു	-0.2704
-4.4132	തന്നൂടെ	0.0354
-2.7598	തന്നെ	-0.1928
-3.8109	തന്നെയല്ലേ	-0.1715
-4.4132	തന്നെയാണല്ലോ	0.0354
-4.1120	തന്നെയാണോ	0.0354
-3.9359	തന്നെയാണ്	0.0379
-4.4132	തന്നെയാവും	0.0354
-4.4132	തന്നെയുണ്ടാവും	0.0354
-4.4132	തന്റെ	-0.0580
-4.4132	തന്റേയും	-0.0580
-4.4132	തപ്പിനോക്കിയിരുന്നു	0.0354
-3.6348	തമാശ	-0.0870
-4.1120	തമാശകളറിയാം	0.0365
-4.4132	തമാശക്കാരാണോ	0.0354
-4.4132	തമാശയാണല്ലേ	0.0354
-4.4132	തമാശയായാൽ	-0.0580
-4.4132	തമാശയാവും	0.0354
-4.4132	തമാശിക്കുകയല്ല	0.0354
-3.6348	തമോഗര്‍ത്തം	0.0415
-4.4132	തമോഗര്‍ത്തത്തിനു	-0.0580
-4.4132	തമോഗര്‍ത്തത്തിന്റെ	0.0354
-4.1120	തമോഗര്‍ത്തത്തിലേയ്ക്	-0.0580
-4.4132	തമോഗര്‍ത്തത്തില്‍	-0.0580
-4.4132	തമോഗര്‍ത്തത്തെ	-0.0580
-4.4132	തമോഗര്‍ത്തമാണ്	0.0354
-4.4132	തമ്മിലോ	0.0354
-3.8109	തമ്മിൽ	-0.1508
-4.4132	തയാറാവു	0.0354
-4.4132	തയാറാവുന്നു	0.0354
-4.4132	തയ്യാര്‍	0.0354
-4.4132	തയ്യാറല്ലായിരുന്നു	0.0354
-3.9359	തയ്യാറല്ലേ	-0.2704
-4.4132	തയ്യാറാകൂ	0.0354
-4.4132	തയ്യാറാക്	0.0354
-4.4132	തയ്യാറാക്കുക	0.0354
-4.1120	തയ്യാറാണെന്ന്	-0.1782
-4.1120	തയ്യാറാണോ	-0.1782
-4.4132	തയ്യാറാണ്	0.0354
-4.4132	തയ്യാറായാൽ	-0.0518
-4.4132	തയ്യാറായിട്ടുണ്ട്	0.0354
-4.4132	തയ്യാറായിരിക്കുന്നു	0.0354
-4.4132	തയ്യാറായിരുന്നു	0.0354
-4.4132	തയ്യാറാവു	0.0354
-4.4132	തയ്യാറെടുക്കുകയായിരിക്കും	-0.0578
-4.4132	തയ്യാറെടുക്കുന്നു	0.0354
-4.1120	തയ്യാറെടുത്തോളൂ	-0.1782
-4.4132	തരം	-0.0580
-4.4132	തരംഗദൈര്‍ഘ്യത്തിലും	-0.0580
-4.4132	തരട്ടേ	0.0354
-3.5679	തരാം	-0.6848
-4.4132	തരാനാണ്	-0.0578
-4.4132	തരാമെന്ന്	-0.0580
-3.9359	തരാൻ	0.0357
-4.4132	തരിക	0.0354
-4.1120	തരികയുള്ളൂ	-0.1782
-4.4132	തരികള്‍	0.0354
-4.1120	തരില്ല	-0.1782
-4.4132	തരിശാണ്	0.0354
-4.1120	തരു	-0.1782
-4.1120	തരും	-0.1782
-4.4132	തരുകയാണോ	0.0354
-4.1120	തരുകയാണ്‌	0.0359
-4.4132	തരുന്ന	-0.0580
-4.4132	തരുന്നതിനെപ്പറ്റി	0.0354
-4.1120	തരുന്നു	-0.1782
-4.4132	തരുന്നുണ്ട്	0.0354
-4.4132	തരുമെന്ന്	-0.0553
-4.4132	തരുമോ	0.0354
-3.4587	തരൂ	-0.9479
-4.4132	തരേണ്ട	-0.0580
-4.4132	തരേണ്ട്	0.0354
-4.4132	തറച്ചു	-0.0580
-4.4132	തറയ്ക്കുന്നത്	0.0354
-3.8109	തല	-0.0580
-4.4132	തലച്ചോറിലെ	-0.0580
-4.4132	തലമാണ്	-0.0557
-4.4132	തലമുറ	-0.0580
-4.4132	തലയണ	-0.0580
-4.4132	തലവന്മാരെയും	-0.0577
-4.4132	തലേന്നെന്താണ്	0.0354
-4.4132	തല്‍കിയത്	0.0354
-4.4132	തളിക്കാനുണ്ട്	0.0354
-4.1120	തള്ളി	-0.0580
-3.5099	തവണ	0.0376
-4.4132	തവണയല്ലല്ലോ	-0.0568
-4.4132	തവണയാണ്	-0.0580
-4.4132	തവണയും	-0.0580
-4.1120	തവണവരെ	-0.0580
-3.8109	താ	-0.2692
-3.9359	താക്കോല്‍	-0.0564
-4.4132	താക്കോല്‍ദ്വാരം	0.0354
-4.4132	താക്കോൽ	-0.0568
-4.1120	താങ്കളുടെ	-0.0580
-4.4132	താങ്കളെ	-0.0580
-4.4132	താങ്കളെപ്പറ്റി	0.0354
-4.1120	താങ്കള്‍	0.0354
-3.8109	താങ്കള്‍ക്ക്	-0.0578
-4.4132	താങ്കൾ	-0.0580
-4.4132	താതാപര്യമുണ്ടോ	0.0354
-4.1120	താന്‍	-0.0580
-4.4132	താപകവചമില്ല	0.0354
-4.1120	താമസം	0.0355
-4.4132	താമസിക്കാനാവില്ല	0.0354
-4.4132	താമസിക്കാനാവുന്ന	-0.0541
-4.4132	താമസിക്കാൻ	0.0354
-4.4132	താമസിക്കില്ലാ	0.0354
-4.4132	താമസിക്കുന്നതെന്ന്	0.0354
-3.9359	താമസിക്കുന്നത്	-0.2704
-4.4132	താമസിച്ചോളൂ	0.0354
-4.4132	താരതമ്യം	-0.0579
-4.4132	താരതമ്യേന	-0.0541
-4.4132	താല്പര്യമുണ്ടന്നല്ലാ	0.0354
-4.4132	താല്പര്യമുണ്ടായിരുന്നില്ല	0.0354
-4.4132	താല്‍പര്യമില്ല	0.0354
-3.5679	താഴെ	0.0356
-4.4132	താഴെയിട്ടു	0.0354
-4.4132	താഴെയെത്താൻ	-0.0580
-3.9359	താഴേക്ക്	-0.0578
-4.4132	താഴേയ്ക്	-0.0580
-4.1120	താഴോട്ട്	-0.0578
-4.4132	താഴ്ത്തിയിടണം	0.0354
-4.4132	താഴ്ന്ന്	-0.0580
-4.4132	താവളം	-0.0580
-4.4132	താൽപര്യത്തിലാണ്	0.0354
-4.4132	താൽപര്യമാണല്ലോ	0.0354
-4.4132	തികച്ചും	-0.0580
-4.4132	തികഞ്ഞ	-0.0580
-4.4132	തിട്ടയില്‍	0.0354
-4.4132	തിന്ത	-0.0580
-4.4132	തിയറി	-0.0580
-4.4132	തിര	-0.0579
-4.4132	തിരകളാണ്	0.0354
-4.4132	തിരക്കു	-0.0580
-4.4132	തിരക്ക്	-0.0580
-4.1120	തിരഞ്ഞു	-0.1782
-4.4132	തിരഞ്ഞുകൊണ്ടിരിക്കുകയായിരുന്നു	0.0354
-4.4132	തിരഞ്ഞെടുക്കല്‍	0.0354
-4.4132	തിരഞ്ഞെടുക്കേണ്ടതുണ്ട്	0.0354
-4.1120	തിരഞ്ഞെടുത്തത്	0.0358
-3.8109	തിരഞ്ഞെടുത്തു	-0.0557
-4.4132	തിരഞ്ഞെടുത്തെന്നാണ്	-0.0518
-4.4132	തിരയണമെന്ന്	-0.0580
-4.4132	തിരയയുകയായിരുന്നു	0.0354
-4.4132	തിരയുകയാണോ	0.0354
-4.4132	തിരയുന്നുണ്ടാകും	0.0354
-4.4132	തിരശ്ശീലയുള്ള	-0.0541
-3.5679	തിരികെ	-0.0576
-4.4132	തിരിക്കരുത്	0.0354
-4.4132	തിരിക്കാന്‍	-0.0580
-4.4132	തിരിക്കുന്നതിനുമുമ്പ്	-0.0573
-4.4132	തിരിക്കൽ	0.0354
-4.4132	തിരിചെത്തു	-0.0580
-4.4132	തിരിച്ചറിയുന്നു	-0.0580
-4.4132	തിരിച്ചറിയൂ	0.0354
-3.0513	തിരിച്ചു	-0.1616
-4.4132	തിരിച്ചുപോകുന്നതിനുള്ള	-0.0579
-4.4132	തിരിച്ചുപോണോ	0.0354
-4.4132	തിരിച്ചുപോവണം	0.0354
-4.4132	തിരിച്ചുവന്നില്ലെങ്കില്‍	-0.0580
-4.4132	തിരിച്ചുവന്നു	-0.0546
-4.4132	തിരിച്ചുവരാതിരിക്കുന്നതോ	0.0354
-4.4132	തിരിച്ചുവരാനായി	0.0354
-4.4132	തിരിച്ചുവരാന്‍	-0.0580
-4.4132	തിരിച്ചുവരും	0.0354
-4.4132	തിരിച്ചുവരുമെന്ന്	-0.0580
-4.4132	തിരിച്ചുവരുമ്പോള്‍	0.0354
-4.4132	തിരിച്ചുവേണം	0.0354
-4.4132	തിരിച്ചെത്തു	0.0354
-4.4132	തിരിച്ചെത്തുന്നത്	0.0354
-3.2669	തിരിച്ച്	-0.1071
-4.4132	തിരിഞ്ഞുവെന്ന്	-0.0578
-4.4132	തിരിയുന്ന	-0.0578
-4.4132	തിരുത്തി	-0.0578
-4.4132	തിരുത്തിയതോ	0.0354
-4.1120	തീ	-0.0580
-4.1120	തീയതി	-0.1782
-4.4132	തീയറ്റര്‍	-0.0580
-4.4132	തീയറ്ററും	-0.0580
-4.4132	തീയേറ്റര്‍	-0.0579
-4.4132	തീയേറ്ററില്‍	-0.0553
-4.4132	തീരുന്നതിന്	-0.0580
-4.1120	തീരുമാനം	0.0354
-4.4132	തീരുമാനമാകും	-0.0580
-4.4132	തീരുമാനമായിരുന്നില്ല	0.0354
-4.4132	തീരുമാനവുമായി	-0.0580
-4.4132	തീരുമാനിക്കാം	-0.0580
-4.4132	തീരുമാനിക്കും	0.0354
-4.4132	തീരുമാനിച്ചതാണ്	0.0354
-4.1120	തീരുമാനിച്ചു	-0.1782
-4.1120	തീരെ	-0.0580
-4.1120	തീര്ച്ചയായും	0.0355
-4.4132	തീര്‍ക്കാനായിരുന്നു	0.0354
-4.4132	തീര്‍ക്കാനുണ്ടായിരുന്നു	0.0354
-4.4132	തീര്‍ക്ക്	0.0354
-3.8109	തീര്‍ച്ചയായും	0.0360
-4.4132	തീര്‍ത്തും	-0.0580
-4.4132	തീര്‍ന്നിട്ടില്ല	0.0354
-4.4132	തീര്‍ന്നു	0.0354
-4.4132	തീര്‍ന്നോ	-0.0578
-4.4132	തീവണ്ടി	-0.0580
-4.1120	തീർച്ചയായും	-0.0580
-4.4132	തീർന്നിരിക്കുന്നു	0.0354
-4.4132	തുക	-0.0576
-4.4132	തുടക്കം	-0.0577
-4.4132	തുടക്കത്തില്‍	-0.0576
-4.4132	തുടങ്ങട്ടെ	0.0354
-4.4132	തുടങ്ങണമെന്ന്	0.0354
-4.4132	തുടങ്ങാം	0.0354
-4.4132	തുടങ്ങാനുള്ളതാണ്	0.0354
-3.7140	തുടങ്ങി	-0.1887
-4.4132	തുടങ്ങിക്കോ	0.0354
-4.4132	തുടങ്ങിക്കോളൂ	0.0354
-4.4132	തുടങ്ങിയതല്ല	0.0354
-4.4132	തുടങ്ങിയതില്‍	-0.0580
-3.6348	തുടങ്ങിയത്	-0.7181
-4.4132	തുടങ്ങിയാല്‍	0.0354
-4.4132	തുടങ്ങിയിടത്തുതന്നെ	-0.0580
-4.1120	തുടങ്ങിയിട്ട്	-0.1782
-4.4132	തുടങ്ങിയിരുന്നു	0.0354
-4.4132	തുടങ്ങിയോ	0.0354
-4.4132	തുടങ്ങും	0.0354
-4.4132	തുടങ്ങുന്നതിന്	-0.0578
-4.4132	തുടങ്ങുവാൻ	-0.0578
-4.4132	തുടങ്ങൂ	0.0354
-4.4132	തുടങ്ങേടോ	0.0354
-4.4132	തുടങ്ങേണ്ടത്	0.0354
-4.4132	തുടരാനാണ്	-0.0546
-4.4132	തുടര്‍ന്നാല്‍	0.0354
-4.4132	തുണി	-0.0580
-4.4132	തുണികള്‍	0.0354
-4.4132	തുരുമ്പെടുത്തിരിക്കുന്നു	0.0354
-3.9359	തുറക്കരുത്	-0.0871
-4.1120	തുറക്കാം	-0.1782
-4.4132	തുറക്കാനാവില്ല	0.0354
-4.4132	തുറക്കു	-0.0580
-3.6348	തുറക്ക്	-0.2701
-4.4132	തുറന്നാല്‍	0.0354
-4.4132	തുറന്നു	-0.0579
-4.4132	തുറന്നുകൊണ്ടാണ്	0.0354
-4.4132	തുലയെടാ	0.0354
-4.4132	തൂക്കം	0.0354
-4.4132	തൃപ്തികരമാണ്	0.0354
-4.4132	തെന്നി	-0.0580
-4.4132	തെമ്മാടിക്ക്	-0.0518
-4.4132	തെരയുകയായിരുന്നു	0.0354
-4.4132	തെരുവിന്‍റെ	-0.0561
-4.4132	തെറ്റ	-0.0580
-4.4132	തെറ്റാകാനും	-0.0578
-4.4132	തെറ്റാണെന്നല്ല	0.0354
-4.4132	തെറ്റാണെന്ന്	-0.0579
-3.7140	തെറ്റായ	-0.0578
-4.4132	തെറ്റായി	-0.0580
-4.4132	തെറ്റായിരുന്നു	-0.0577
-4.4132	തെറ്റിദ്ധരിച്ചു	0.0354
-4.4132	തെറ്റിപ്പോയി	0.0354
-4.4132	തെറ്റിയെങ്കില്‍	-0.0571
-4.1120	തെറ്റുകൾ	-0.0580
-4.4132	തെറ്റൊക്കെ	-0.0580
-4.4132	തെറ്റ്	-0.0578
-4.4132	തെളിയിക്കണം	0.0354
-3.9359	തെളിയിക്കാന്‍	0.0355
-4.4132	തെളിയിക്ക്	0.0354
-4.4132	തെളിയിച്ചാലും	-0.0580
-4.4132	തെളിയിച്ചിരുന്നു	0.0354
-4.4132	തെളിവുകള്‍	0.0354
-3.9359	തൊണ്ണൂറു	-0.1881
-4.4132	തേജസ്സുള്ളതാണ്	0.0354
-4.1120	തേനിൽ	-0.0573
-4.4132	തോന്നുന്നില്ല	0.0354
-4.4132	തോന്നുന്നു	0.0354
-4.4132	തൊടൂ	-0.0580
-4.4132	തൊട്ടിട്ടില്ല	0.0354
-4.4132	തൊട്ടുപുറം	-0.0580
-4.4132	തൊട്ടുമുമ്പാണ്	0.0354
-4.4132	തൊപ്പി	-0.0580
-4.4132	തൊപ്പിയാണ്‌	0.0354
-4.4132	തൊലയെടാ	0.0354
-4.4132	തൊഴിലല്ല	-0.0578
-4.4132	തൊഴില്‍	-0.0580
-4.4132	തോട്ടുപുറത്ത്	0.0354
-4.4132	തോന്നല്‍	0.0354
-3.7140	തോന്നി	-0.1888
-4.4132	തോന്നിയതുകൊണ്ടാണ്	0.0354
-4.1120	തോന്നിയത്	0.0368
-4.4132	തോന്നിയപ്പോള്‍	0.0354
-4.4132	തോന്നിയിട്ടില്ല	0.0354
-4.4132	തോന്നിയിരുന്നില്ലാ	0.0354
-3.4130	തോന്നുന്നത്	-0.1422
-4.1120	തോന്നുന്നില്ല	-0.1782
-4.4132	തോന്നുന്നില്ലാ	0.0354
-4.4132	തോന്നുന്നില്ലേ	0.0354
-3.2990	തോന്നുന്നു	-1.1107
-4.4132	തോന്നുന്നുണ്ടാവും	0.0354
-4.1120	തോന്നുന്നുണ്ടോ	-0.1782
-4.4132	തോമോട്രോപ്പിലോ	-0.0580
-4.4132	ത്യാഗം	-0.0577
-4.4132	ത്യാഗമാണ്	-0.0575
-4.4132	ത്രത്തോളം	-0.0580
-4.4132	ത്രസ്ട്ടെർസ്	-0.0580
-4.4132	ത്രസ്റ്റർ	-0.0576
-4.4132	ത്രിമാനഡയമൻഷൻ	-0.0580
-4.4132	ത്രീഡയമൻഷനിൽ	-0.0580
-4.4132	ത്രീഡയമൻഷൻ	-0.0580
-4.4132	ത്വരയാണ്	-0.0572
-4.4132	ദയയുണ്ടായിരുന്നില്ല	0.0354
-3.5099	ദയവായി	-0.0029
-3.9359	ദയവു	-0.3638
-3.5679	ദയവുചെയ്ത്	-0.0154
-4.1120	ദയവ്	-0.2715
-4.4132	ദരിദ്രനായ	-0.0580
-4.4132	ദശകമോ	-0.0580
-4.4132	ദശാബ്ദമായി	-0.0580
-4.4132	ദസ്തേ	-0.0580
-3.9359	ദാ	-0.0575
-4.1120	ദി	-0.0580
-4.4132	ദിനം	-0.0580
-4.4132	ദിപ്പം	-0.0578
-3.1577	ദിവസം	-0.0308
-4.4132	ദിവസങ്ങളില്‍	-0.0575
-4.4132	ദിവസങ്ങളിൽ	-0.0580
-4.1120	ദിവസങ്ങള്‍ക്കകം	-0.0575
-4.1120	ദിവസത്തിനു	-0.2715
-4.4132	ദിവസത്തിൽ	-0.0580
-4.4132	ദിവസത്തെ	-0.0580
-3.7140	ദിൻഗ്രാ	-0.1210
-4.4132	ദീപിനേയും	-0.0580
-4.4132	ദീര്‍ഘകാലത്തേക്കുള്ള	-0.0580
-4.4132	ദുഖിക്കുകയാണ്	0.0354
-4.4132	ദുര്‍ബലമാണ്	0.0354
-3.7140	ദൂരം	-0.0569
-4.4132	ദൂരത്തിനും	-0.0580
-4.1120	ദൂരെ	0.0359
-4.4132	ദൂരെനിന്നും	-0.0580
-4.4132	ദൃശ്യമാകുന്നു	0.0354
-4.4132	ദൌത്യത്തില്‍	-0.0580
-4.4132	ദേ	-0.0580
-4.4132	ദേവതകളേ	0.0354
-4.4132	ദേവതകള്‍	-0.0580
-4.4132	ദേഷ്യം	0.0354
-4.4132	ദേഷ്യത്തിലാണ്	0.0354
-4.4132	ദേഹത്തേക്ക്	-0.0580
-4.1120	ദൈവം	-0.0579
-3.9359	ദൈവമേ	-0.2704
-4.4132	ദൈവമേഞാന്‍	-0.0580
-4.4132	ദോഷക്കരനാണോ	0.0354
-3.8109	ദൌത്യം	-0.0579
-4.4132	ദൌത്യത്തിന്	-0.0580
-4.4132	ദൌത്യത്തിന്ന്	-0.0541
-4.4132	ദ്രവിച്ച	-0.0580
-4.4132	ദ്രവ്യം	0.0354
-3.8109	ദൗത്യം	0.0361
-4.4132	ദൗത്യങ്ങളിലാണ്	-0.0559
-4.4132	ദൗത്യത്തിലൂടെ	-0.0579
-4.4132	ദൗത്യമുണ്ട്	0.0354
-4.4132	ദർശനത്തിന്	-0.0580
-4.4132	ധരിക്കുക	0.0354
-4.4132	ധരിക്കുന്നതെന്ന്	0.0354
-4.4132	ധരിക്കുമായിരുന്നു	0.0354
-4.4132	ധരിച്ചിരിക്കുന്നത്	0.0354
-4.4132	ധരിച്ചിരുന്നത്	0.0354
-4.4132	ധരിച്ചിരുന്നു	0.0354
-4.4132	ധരിച്ചു	0.0354
-4.4132	ധാരണ	-0.0580
-4.1120	ധാരാളം	0.0356
-4.4132	ധീരതയെ	0.0354
-4.4132	ധീരനായ	-0.0541
-4.4132	ധീരന്മാരായ	-0.0580
-4.1120	ധൈര്യം	-0.0580
-4.4132	ധൈര്യമായിരിക്കണം	0.0354
-4.1120	ധൈര്യമായിരിക്കൂ	-0.1782
-4.4132	ധൈര്യശാലിയുമാണ്	0.0354
-4.4132	നക്ഷത്രം	-0.0580
-4.4132	നക്ഷത്രങ്ങളിലും	-0.0580
-4.4132	നക്ഷത്രങ്ങളിലേക്ക്	-0.0579
-4.4132	നക്ഷത്രങ്ങളില്‍	-0.0572
-4.4132	നക്ഷത്രങ്ങൾ	0.0354
-4.4132	നക്ഷത്രങ്ങൾക്ക്	0.0354
-4.4132	നക്ഷത്രാന്തര	-0.0580
-4.4132	നഗര്‍	-0.0575
-4.4132	നഗറിലും	-0.0578
-4.4132	നഗ്നമായ	0.0354
-4.1120	നഗർ	0.0354
-4.4132	നടക്കാണോ	0.0354
-4.4132	നടക്കാറുണ്ട്	0.0354
-4.4132	നടക്കില്ല	-0.0580
-4.4132	നടക്കില്ലല്ലോ	0.0354
-4.1120	നടക്കില്ലാ	-0.1782
-4.1120	നടക്കും	0.0354
-4.4132	നടക്കുന്നതെന്ന്	-0.0580
-3.8109	നടക്കുന്നത്	-0.2692
-4.4132	നടക്കുന്നില്ല	0.0354
-4.4132	നടക്കുമോ	0.0354
-4.4132	നടക്കൂ	0.0354
-4.4132	നടക്കേണ്ടതായിരുന്നു	0.0354
-4.4132	നടക്ക്	0.0354
-4.4132	നടത്താനാവില്ല	0.0354
-4.4132	നടത്താനും	0.0354
-4.4132	നടത്താന്‍	-0.0580
-4.4132	നടത്തിയ	0.0354
-4.4132	നടത്തിയത്	0.0354
-3.9359	നടത്തിയിട്ടുണ്ട്	-0.2704
-4.4132	നടത്തും	0.0354
-4.4132	നടത്തുകയും	0.0354
-4.4132	നടത്തുന്ന	-0.0580
-4.4132	നടന്ന	-0.0580
-4.4132	നടന്നതിൽ	-0.0580
-4.4132	നടന്നില്ലെങ്ങിൽ	-0.0576
-4.4132	നടന്നില്ലെന്ന്	-0.0518
-3.7140	നടന്നു	0.0358
-4.4132	നടാമായിരുന്നു	0.0354
-4.4132	നടിയായിരുന്നു	0.0354
-4.4132	നടുക്കമായിരുന്നു	0.0354
-4.4132	നടുവിലാണ്	0.0354
-4.4132	നദി	-0.0580
-4.4132	നനഞ്ഞ	-0.0580
-3.3716	നന്ദി	-0.2136
-4.4132	നന്ദിയുണ്ട്	0.0354
-4.4132	നന്ദിറോഷേ	0.0354
-3.3716	നന്നായി	0.0043
-4.4132	നന്നായിട്ടില്ലേ	0.0354
-4.1120	നന്നായിട്ടുണ്ട്	0.0376
-4.4132	നന്നായിരിക്കണം	0.0354
-4.4132	നന്നായിരിക്കും	0.0354
-3.9359	നന്നായിരിക്കുന്നു	-0.0905
-4.4132	നന്നായിരിക്കുന്നോ	0.0354
-3.9359	നന്നായിരുന്നു	-0.2704
-4.4132	നന്നായ്	0.0354
-4.1120	നന്ന്	-0.0580
-3.6348	നമസ്ക്കാരം	-0.0245
-4.4132	നമസ്ക്കാരംനമസ്ക്കാരം	0.0354
-4.4132	നമുക്കതിനു	-0.0579
-3.9359	നമുക്കതിനെ	-0.0579
-3.8109	നമുക്കത്	-0.0578
-4.4132	നമുക്കധികം	-0.0579
-4.4132	നമുക്കറിയാവുന്ന	-0.0580
-4.4132	നമുക്കാവില്ല	-0.0579
-4.4132	നമുക്കിതിനുള്ള	-0.0579
-4.4132	നമുക്കിതുവരെ	-0.0580
-3.8109	നമുക്കിത്	-0.0579
-4.4132	നമുക്കിത്തിരി	-0.0580
-4.4132	നമുക്കിനി	-0.0579
-4.4132	നമുക്കിനിയും	-0.0580
-4.4132	നമുക്കിവനെ	-0.0580
-3.9359	നമുക്കിവിടെ	-0.0578
-4.4132	നമുക്കു	-0.0580
-3.9359	നമുക്കെന്തെങ്കിലും	-0.0580
-4.4132	നമുക്കെല്ലാവര്‍ക്കും	-0.0576
-4.4132	നമുക്കൊരു	-0.0541
-4.4132	നമുക്കൊരുമിച്ച്	-0.0579
-2.6068	നമുക്ക്	-0.0073
-4.4132	നമ്പര്‍	-0.0577
-4.4132	നമ്മളതിനെ	-0.0579
-4.1120	നമ്മളത്	-0.0579
-4.4132	നമ്മളറിയൂ	0.0354
-4.1120	നമ്മളാണ്	-0.0580
-4.4132	നമ്മളാരാണെന്ന്	-0.0580
-4.4132	നമ്മളിത്	-0.0580
-4.4132	നമ്മളില്‍	-0.0578
-3.8109	നമ്മളിവിടെ	-0.0579
-4.4132	നമ്മളിൽ	-0.0571
-3.0908	നമ്മളെ	0.0218
-4.4132	നമ്മളെക്കൊണ്ട്	0.0354
-4.4132	നമ്മളെങ്ങോട്ടാ	-0.0580
-4.4132	നമ്മളെങ്ങോട്ടാണ്	-0.0579
-4.4132	നമ്മളെപോലെയുള്ള	-0.0580
-4.4132	നമ്മളെപ്പോലെ	-0.0580
-4.4132	നമ്മളെയെല്ലാം	-0.0580
-4.4132	നമ്മളൊന്നും	-0.0580
-2.7228	നമ്മള്‍	0.0354
-4.4132	നമ്മള്‍ക്ക്	-0.0580
-4.1120	നമ്മിൽ	-0.0577
-4.4132	നമ്മുക്കിവിടെന്ന്	-0.0579
-4.4132	നമ്മുക്കുള്ള	-0.0580
-3.7140	നമ്മുക്ക്	-0.1310
-2.7317	നമ്മുടെ	-0.0109
-4.4132	നമ്മുടെത്	-0.0580
-4.1120	നമ്മുടേത്	-0.0578
-3.8109	നമ്മെ	-0.0578
-4.4132	നമ്മോട്	-0.0580
-3.0328	നമ്മൾ	0.0310
-4.1120	നമ്മൾക്ക്	-0.0579
-4.1120	നയിക്കുന്നത്	-0.1782
-4.1120	നയിച്ചത്	0.0358
-4.4132	നയിച്ചവർ	0.0354
-4.4132	നല്കിയിരിക്കുന്നത്	0.0354
-2.6496	നല്ല	0.0188
-4.4132	നല്ലതല്ലേ	0.0354
-4.4132	നല്ലതാണെങ്കിൽ	-0.0580
-4.4132	നല്ലതാണെന്ന്	-0.0580
-3.9359	നല്ലതാണ്	-0.0934
-4.1120	നല്ലതും	-0.0580
-4.4132	നല്ലതുപോലെ	0.0354
-4.1120	നല്ലതെന്ന്	-0.1782
-3.4130	നല്ലത്	-0.3233
-4.4132	നല്ലവനെന്ന്	0.0354
-4.4132	നല്ലവരാണ്	0.0354
-3.8109	നല്ലൊരു	-0.0576
-4.4132	നല്‍കരുത്	-0.0580
-4.1120	നല്‍കി	-0.1782
-4.4132	നല്‍കിയതിന്	-0.0580
-4.4132	നല്‍കുന്നതാണ്	0.0354
-4.4132	നല്‍കൂ	0.0354
-4.4132	നശിക്കും	0.0354
-4.4132	നശിച്ച	-0.0580
-4.4132	നശിച്ചിരിക്കുന്നു	0.0354
-3.9359	നശിച്ചു	0.0361
-4.4132	നശിച്ചുപോയി	0.0354
-4.4132	നശിപ്പിക്കല്‍	0.0354
-4.4132	നശിപ്പിക്കാന്‍	-0.0580
-4.4132	നശിപ്പിക്കേണ്ടിവന്നു	0.0354
-4.1120	നശിപ്പിച്ചു	0.0355
-4.4132	നശിപ്പിച്ച്	-0.0580
-4.4132	നഷ്ടപ്പെടാന്‍	0.0354
-4.4132	നഷ്ടപ്പെടുത്തി	0.0354
-4.4132	നഷ്ടപ്പെടുന്നു	0.0354
-4.4132	നഷ്ടപ്പെട്ടാല്‍	0.0354
-4.4132	നഷ്ടപ്പെട്ടിരുന്നു	-0.0575
-4.4132	നഷ്ടപ്പെട്ടു	0.0354
-4.4132	നഷ്ടമാകും	0.0354
-4.4132	നഷ്ടമാകുന്നു	0.0354
-4.4132	നഷ്ടമായി	0.0354
-4.4132	നഷ്ട്ടപ്പെട്ട	-0.0580
-4.4132	നഷ്ട്ടമായി	0.0354
-4.4132	നഷ്ട്ടമായില്ല	0.0354
-4.4132	നഷ്ട്മാകും	0.0354
-4.4132	നഷ്ട്മാകുന്നു	0.0354
-2.8945	നാം	0.0155
-4.4132	നാച്ചുറല്‍	-0.0580
-4.4132	നാടകറാണി	-0.0580
-4.4132	നാട്ടില്‍	-0.0577
-4.4132	നാടൻ	-0.0580
-4.4132	നായ	0.0354
-4.4132	നായകന്മാർ	-0.0558
-4.4132	നായികയെ	-0.0580
-4.1120	നായ്ക്കളുടെ	-0.0580
-4.4132	നായ്ക്കുട്ടിയല്ലേ	0.0354
-4.4132	നാരങ്ങ	-0.0580
-4.1120	നാരങ്ങയും	-0.1782
-4.4132	നാറിയ	-0.0580
-4.4132	നാലാം	-0.0580
-4.4132	നാലാമതും	-0.0580
-4.4132	നാലാമത്തെ	-0.0580
-4.4132	നാലു	-0.0580
-3.9359	നാല്	0.0356
-4.4132	നാളായി	-0.0580
-4.4132	നാളുകളിലൂടെയാണ്	-0.0580
-3.4130	നാളെ	-0.1727
-4.4132	നാളെയെല്ലാം	-0.0580
-4.4132	നാള്‍	-0.0580
-4.4132	നാവിഗേഷനിലൂടെ	0.0354
-3.9359	നാശം	-0.2704
-4.4132	നാശത്തിന്	0.0354
-3.9359	നാസ	-0.2704
-4.4132	നാസയിൽ	-0.0580
-4.4132	നാസയ്കുള്ള	-0.0577
-4.4132	നാൽപ്പത്തഞ്ചു	-0.0580
-4.4132	നികുതി	-0.0580
-4.4132	നിക്ക്	0.0354
-4.4132	നിഗമനത്തില്‍	-0.0580
-4.4132	നിഗൂഢമാണ്	0.0354
-4.4132	നിങ്ങളത്	-0.0580
-4.1120	നിങ്ങളല്ലേ	-0.0578
-4.4132	നിങ്ങളവനെ	-0.0580
-4.4132	നിങ്ങളവളെ	-0.0580
-4.4132	നിങ്ങളവിടെ	-0.0579
-4.1120	നിങ്ങളാണോ	0.0355
-4.1120	നിങ്ങളാണ്	0.0355
-4.1120	നിങ്ങളായിരുന്നു	0.0370
-4.1120	നിങ്ങളിത്	-0.0580
-4.4132	നിങ്ങളിപ്പോള്‍	-0.0568
-4.4132	നിങ്ങളില്‍	-0.0580
-4.4132	നിങ്ങളിവനോട്	-0.0578
-4.1120	നിങ്ങളിവിടെ	0.0354
-4.4132	നിങ്ങളു	-0.0579
-3.9359	നിങ്ങളും	-0.0575
-2.6206	നിങ്ങളുടെ	0.0002
-4.4132	നിങ്ങളുടെതാണെന്ന്	-0.0580
-4.4132	നിങ്ങളുടെയല്ല	0.0354
-4.4132	നിങ്ങളുടെയെടുത്ത്	-0.0580
-4.4132	നിങ്ങളുടേതാണെന്ന്	-0.0580
-4.1120	നിങ്ങളുടേതാണ്	-0.1782
