#############################################################################
## Copyright (c) 1996, Carnegie Mellon University, Cambridge University,
## Ronald Rosenfeld and Philip Clarkson
## Version 3, Copyright (c) 2006, Carnegie Mellon University 
## Contributors includes Wen Xu, Ananlada Chotimongkol, 
## David Huggins-Daines, Arthur Chan and Alan Black 
#############################################################################
=============================================================================
===============  This file was produced by the CMU-Cambridge  ===============
===============     Statistical Language Modeling Toolkit     ===============
=============================================================================
This is a 3-gram language model, based on a vocabulary of 7077 words,
  which begins "</s>", "<s>", "അ"...
This is a CLOSED-vocabulary model
  (OOVs eliminated from training data and are forbidden in test data)
Good-Turing discounting was applied.
1-gram frequency of frequency : 5354 
2-gram frequency of frequency : 14029 946 297 126 60 48 26 
3-gram frequency of frequency : 19469 848 268 113 57 43 25 
1-gram discounting ratios : 1.00 
2-gram discounting ratios : 0.13 0.47 0.56 0.59 0.96 0.63 0.83 
3-gram discounting ratios : 0.08 0.47 0.56 0.63 0.90 0.68 0.82 
This file is in the ARPA-standard format introduced by Doug Paul.

p(wd3|wd1,wd2)= if(trigram exists)           p_3(wd1,wd2,wd3)
                else if(bigram w1,w2 exists) bo_wt_2(w1,w2)*p(wd3|wd2)
                else                         p(wd3|w2)

p(wd2|wd1)= if(bigram exists) p_2(wd1,wd2)
            else              bo_wt_1(wd1)*p_1(wd2)

All probs and back-off weights (bo_wt) are given in log10 form.

Data formats:

Beginning of data mark: \data\
ngram 1=nr            # number of 1-grams
ngram 2=nr            # number of 2-grams
ngram 3=nr            # number of 3-grams

\1-grams:
p_1     wd_1 bo_wt_1
\2-grams:
p_2     wd_1 wd_2 bo_wt_2
\3-grams:
p_3     wd_1 wd_2 wd_3 

end of data mark: \end\

\data\
ngram 1=7077
ngram 2=15672
ngram 3=20959

\1-grams:
-0.7133 </s>	-3.6071
-0.7132 <s>	-0.2343
-4.4139 അ	0.0352
-4.4139 അംഗവുമായ	-0.0581
-4.4139 അംഗീകരിക്കലല്ലേ	0.0352
-4.4139 അംഗീകരിച്ചതാണ്	-0.0581
-3.9366 അകത്തേക്ക്	-0.0572
-3.9366 അകത്ത്	-0.0578
-4.4139 അകന്നു	-0.0580
-4.4139 അകപ്പെട്ടു	-0.0582
-4.4139 അകപ്പെട്ടുകിടക്കുന്നു	0.0352
-4.1127 അകലം	-0.1783
-4.4139 അകലങ്ങളിൽ	-0.0576
-4.4139 അകലയാണ്	-0.0578
-4.4139 അകലയും	0.0352
-4.4139 അകലെ	0.0352
-4.4139 അകലെയാണ്	-0.0581
-4.4139 അകിടുള്ള	-0.0582
-4.4139 അക്കാദമി	-0.0582
-4.4139 അക്കാദമിയുടെ	-0.0582
-4.1127 അക്കൗണ്ട്‌	-0.2717
-4.4139 അക്കൗണ്ട്‌സ്	-0.0581
-4.4139 അങ്കിളിന്	-0.0582
-4.1127 അങ്കിളിന്‍റെ	-0.0581
-4.4139 അങ്കിൾ	-0.0581
-4.4139 അങ്ങകലെ	-0.0542
-3.0713 അങ്ങനെ	0.0349
-4.4139 അങ്ങനെതന്നെ	0.0352
-4.4139 അങ്ങനെത്തന്നെ	0.0352
-4.4139 അങ്ങനെയാണ്	0.0352
-4.4139 അങ്ങനെയായിരുന്നെങ്കില്‍	-0.0554
-4.4139 അങ്ങനെയുള്ള	-0.0579
-4.1127 അങ്ങനെയൊക്കെ	-0.0580
-4.1127 അങ്ങനെയൊന്നും	-0.0581
-4.4139 അങ്ങനെയൊന്നുമല്ലാ	-0.0574
-4.4139 അങ്ങനെയൊന്നുമില്ല	0.0352
-4.1127 അങ്ങനെയൊന്നുമില്ലാ	-0.1783
-4.4139 അങ്ങനെയൊന്ന്	-0.0582
-4.4139 അങ്ങനെയൊരു	-0.0582
-4.4139 അങ്ങേരത്	-0.0582
-3.8116 അങ്ങോട്ട്	-0.0578
-4.4139 അങ്ങോട്ട്‌	-0.0582
-4.1127 അച്ഛനമ്മമാരെ	-0.0582
-4.4139 അച്ഛനമ്മമാരെയെല്ലാം	-0.0581
-4.4139 അച്ഛനമ്മരാണെ	-0.0581
-4.4139 അച്ഛനിന്ന്	-0.0580
-3.6356 അച്ഛനും	-0.0246
-4.4139 അച്ഛനെ	-0.0582
-4.1127 അച്ഛനോടും	-0.2717
-3.9366 അച്ഛനോട്	-0.0577
-4.4139 അച്ഛന്	-0.0582
-3.7147 അച്ഛന്റെ	-0.1187
-3.0158 അച്ഛന്‍	-0.0326
-4.1127 അച്ഛാ	0.0357
-4.4139 അഞ്ചാംലോകത്തിനുള്ളില്‍	-0.0574
-4.4139 അഞ്ചാമത്തെ	-0.0582
-4.4139 അഞ്ചു	-0.0582
-4.4139 അഞ്ചുദിവസം	-0.0579
-4.4139 അഞ്ചുദിവസമായി	-0.0574
-4.4139 അഞ്ചുമിനുട്ടെ	-0.0582
-3.9366 അഞ്ച്	-0.0580
-4.4139 അഞ്ഞൂറ്	-0.0581
-4.4139 അടക്കാന്‍	0.0352
-4.4139 അടക്കിയിട്ടുണ്ട്	0.0352
-4.4139 അടക്കിയിരിക്കുന്നത്	0.0352
-4.4139 അടക്കുന്നു	0.0352
-4.4139 അടക്കുന്നുണ്ട്	0.0352
-4.4139 അടങ്ങ്‌	-0.0582
-4.4139 അടച്ചിടും	0.0352
-4.4139 അടച്ചിട്ടില്ലേ	0.0352
-4.4139 അടച്ചോ	0.0352
-4.4139 അടവുകളും	-0.0582
-4.1127 അടവുകള്‍	0.0353
-4.4139 അടിച്ചുപൊളിക്കാം	0.0352
-4.4139 അടിച്ചുപൊളിച്ച്	-0.0580
-4.4139 അടിച്ചോണ്ട്	-0.0577
-4.4139 അടിത്തറ	-0.0582
-4.4139 അടിപൊളി	0.0352
-4.4139 അടിയന്തിര	-0.0582
-4.4139 അടിയില്‍	-0.0581
-4.4139 അടിയുണ്ടാക്കുന്നു	0.0352
-4.4139 അടിസ്ഥാന	-0.0578
-4.4139 അടിസ്ഥാനം	0.0352
-4.4139 അടിസ്ഥാനത്തിന്റെ	-0.0581
-4.4139 അടിസ്ഥാനത്തിൽ	-0.0582
-4.4139 അടിസ്ഥാനപരമായ	0.0352
-4.4139 അടിസ്ഥാനപരമായി	-0.0562
-3.3723 അടുത്ത	-0.1235
-4.4139 അടുത്തയിരിക്കുമ്പോള്‍	0.0352
-4.4139 അടുത്തവട്ടം	-0.0582
-4.1127 അടുത്താണ്	-0.1783
-4.4139 അടുത്തു	-0.0579
-4.4139 അടുത്തുതന്നെയുണ്ട്	0.0352
-4.4139 അടുത്തുനിന്നും	-0.0582
-4.4139 അടുത്തുവന്ന	-0.0562
-4.4139 അടുത്തെത്തി	-0.0578
-4.4139 അടുത്തെത്തിക്കു	0.0352
-4.1127 അടുത്തെത്തിക്കൊണ്ടിരിക്കുന്നു	-0.1783
-4.4139 അടുത്തേക്കെങ്കിലും	-0.0582
-4.4139 അടുത്തേയ്ക്	-0.0582
-4.4139 അടുത്തൊരു	-0.0580
-4.1127 അടുത്ത്	-0.0577
-4.4139 അടുപ്പമായിരുന്നോ	0.0352
-4.4139 അഡ്രസ്‌	0.0352
-4.4139 അഡ്രെസ്സാണുള്ളത്	0.0352
-4.4139 അഡ്രെസ്സാണെന്നാണ്‌	-0.0580
-4.4139 അഡ്രെസ്സാണോ	0.0352
-4.4139 അഡ്രെസ്സാണ്	0.0352
-3.9366 അഡ്രെസ്സ്	-0.0581
-4.4139 അതങ്ങനെയല്ലായിരുന്നു	0.0352
-4.4139 അതത്യാവശ്യമാണ്	0.0352
-4.4139 അതത്ര	-0.0582
-4.4139 അതദ്ദേഹത്തിനും	-0.0581
-4.4139 അതയയ്കുന്നുണ്ട്	0.0352
-4.4139 അതര്‍ഥമാക്കുന്നത്	-0.0582
-4.4139 അതറിയലല്ല	-0.0573
-4.4139 അതറിയാം	0.0352
-4.1127 അതല്ല	-0.0582
-4.4139 അതല്ലമമ്മ	-0.0578
-4.4139 അതല്ലാ	-0.0582
-4.4139 അതല്ലേ	0.0352
-4.4139 അതവള്‍ക്ക്	-0.0582
-4.1127 അതവിടെ	-0.0582
-4.4139 അതവിടെയാണ്	0.0352
-3.9366 അതാ	-0.1883
-4.4139 അതാകും	-0.0582
-4.4139 അതാണെന്റെ	-0.0578
-4.4139 അതാണോ	-0.0581
-3.2998 അതാണ്	0.0446
-4.4139 അതാദ്യം	-0.0574
-4.4139 അതായതു	-0.0570
-4.4139 അതായത്	0.0352
-4.4139 അതാരാണെന്ന്	0.0352
-4.4139 അതാരാണ്	-0.0581
-4.4139 അതിക്രമം	-0.0581
-4.4139 അതിക്രമിച്ച്	-0.0582
-4.4139 അതിഗംഭീര	-0.0581
-4.4139 അതിഗംഭീരം	0.0352
-4.4139 അതിജീവനത്തിനുവേണ്ടി	-0.0582
-4.4139 അതിജീവിക്കാം	0.0352
-4.4139 അതിജീവിച്ചത്	0.0352
-4.1127 അതിഥികളെ	0.0352
-4.4139 അതിഥിയാണോ	0.0352
-4.4139 അതിനകത്ത്	-0.0582
-4.4139 അതിനടിയിലേയ്ക്	-0.0582
-4.4139 അതിനനുവാദമുണ്ടല്ലോ	0.0352
-4.4139 അതിനനുസരിച്ച്	-0.0560
-4.4139 അതിനപ്പുറം	-0.0582
-4.1127 അതിനര്‍ത്ഥം	0.0429
-4.4139 അതിനല്ലേ	-0.0520
-4.4139 അതിനായി	-0.0574
-4.4139 അതിനാലാണ്	-0.0520
-4.4139 അതിനാൽ	-0.0581
-4.4139 അതിനിയും	-0.0582
-3.5686 അതിനു	-0.0125
-4.4139 അതിനും	-0.0582
-4.4139 അതിനുമാത്രമുള്ള	-0.0582
-4.4139 അതിനുമുമ്പ്	-0.0581
-4.1127 അതിനുള്ള	-0.0581
-4.4139 അതിനുള്ളിലെ	-0.0582
-4.1127 അതിനുള്ളിലേക്ക്	-0.0581
-3.4595 അതിനെ	-0.0579
-4.4139 അതിനെക്കുറിച്ച്	-0.0577
-4.4139 അതിനെപ്പറ്റി	-0.0580
-4.4139 അതിനെയാണ്	-0.0574
-4.4139 അതിനെയാർക്കും	-0.0582
-4.4139 അതിനേക്കാളും	-0.0582
-4.4139 അതിനൊന്നുമുള്ള	-0.0579
-4.4139 അതിനൊപ്പം	0.0352
-4.4139 അതിനൊരു	-0.0582
-4.1127 അതിനോട്	-0.0581
-3.1584 അതിന്	0.0461
-3.5106 അതിന്റെ	0.0366
-4.4139 അതിന്‌	-0.0580
-3.7147 അതിന്‍റെ	-0.0540
-4.4139 അതിപ്പോൾ	-0.0581
-4.4139 അതിലധികമോ	0.0352
-4.4139 അതിലും	-0.0582
-4.4139 അതിലുണ്ടായിരുന്നവ	-0.0582
-4.4139 അതിലൂടെയാണോ	-0.0582
-4.4139 അതിലെ	0.0352
-4.4139 അതിലെവിടെയാണ്	-0.0582
-4.4139 അതിലേക്കുള്ള	-0.0582
-4.4139 അതിലൊന്നും	-0.0582
-4.1127 അതില്‍	-0.0542
-4.4139 അതിവിടെ	-0.0582
-4.4139 അതിശയിപ്പിക്കുന്ന	-0.0582
-4.4139 അതിശയൊക്തിയല്ല	0.0352
-3.6356 അതിൽ	-0.1137
-4.4139 അതീതമായി	0.0352
-3.3345 അതു	0.0398
-3.6356 അതും	-0.0244
-4.4139 അതുകഴിഞ്ഞ്	-0.0581
-3.9366 അതുകൊണ്ടാണ്	-0.0947
-4.1127 അതുകൊണ്ടാ	0.0358
-4.4139 അതുകൊണ്ടാണിത്	-0.0582
-4.4139 അതുകൊണ്ടാണോ	-0.0581
-3.7147 അതുകൊണ്ടാണ്	0.0361
-4.4139 അതുകൊണ്ടെന്താണ്	0.0352
-4.4139 അതുകൊണ്ടൊന്നും	-0.0582
-3.2676 അതുകൊണ്ട്	-0.0327
-3.8116 അതുതന്നെ	0.0385
-4.4139 അതുതന്നെയല്ലേ	-0.0582
-4.4139 അതുതന്നെയാണ്	-0.0578
-4.4139 അതുപോലും	-0.0582
-4.4139 അതുപോലെ	-0.0574
-4.4139 അതുപോലെയൊക്കെ	-0.0582
-4.4139 അതുപോലെയൊന്നുമില്ലാ	0.0352
-2.8574 അതെ	0.0379
-4.4139 അതെഇതൊരു	-0.0582
-4.4139 അതെങ്ങനെ	0.0352
-4.4139 അതെചിലപ്പോൾ	-0.0582
-4.4139 അതെടുത്തോളു	0.0352
-4.4139 അതെത്ര	-0.0582
-4.4139 അതെനിക്കറിയില്ല	0.0352
-3.8116 അതെനിക്ക്	-0.1518
-4.4139 അതെന്താ	0.0352
-4.4139 അതെന്താണ്	0.0352
-4.4139 അതെന്തുകൊണ്ടായിരുന്നുവെന്ന്	-0.0554
-4.4139 അതെന്നോട്	-0.0580
-4.1127 അതെന്‍റെ	-0.0582
-4.1127 അതെപ്പോഴും	0.0352
-4.4139 അതെഭക്ഷണത്തിന്	-0.0577
-4.1127 അതെയോ	0.0353
-4.1127 അതെല്ലാം	-0.0582
-4.4139 അതെവിടെയാണ്	0.0352
-3.9366 അതേ	-0.0578
-4.4139 അതേക്കുറിച്ച്	-0.0582
-4.4139 അതേസമയം	0.0352
-4.4139 അതൊക്കെ	-0.0573
-4.4139 അതൊന്നു	-0.0582
-4.4139 അതൊന്നും	-0.0582
-4.4139 അതൊന്നുമല്ലാ	0.0352
-4.4139 അതൊരിക്കലും	-0.0582
-3.4137 അതൊരു	0.0016
-3.4137 അതോ	-0.0634
-2.0998 അത്	0.0207
-4.4139 അത്തുണ്ട്	0.0352
-4.4139 അത്ഭുതം	-0.0580
-4.4139 അത്ഭുതകരമാണ്	0.0352
-4.4139 അത്ഭുതങ്ങൾ	-0.0581
-4.4139 അത്ഭുതത്തിന്റെ	-0.0582
-4.4139 അത്ഭുതപ്പെടാറുണ്ടായിരുന്നു	0.0352
-4.4139 അത്ഭുതപ്പെടുത്താം	-0.0542
-4.4139 അത്ഭുതപ്പെടുത്താൻ	0.0352
-4.4139 അത്ഭുതമെന്ന്	-0.0582
-4.4139 അത്യന്തം	-0.0582
-4.4139 അത്യാവശ്യം	-0.0581
-4.4139 അത്യാഹിതം	-0.0582
-4.4139 അത്യാഹിതങ്ങളാണ്	-0.0582
-3.6356 അത്ര	0.0353
-4.4139 അത്രക്ക്	-0.0581
-4.1127 അത്രയും	-0.0581
-4.4139 അത്രയേയുള്ളൂ	-0.0582
-4.4139 അത്രയ്ക്കൊന്നും	0.0352
-4.4139 അത്രെ	-0.0580
-4.4139 അത്രേ	-0.0582
-2.8822 അദ്ദേഹം	0.0421
-4.4139 അദ്ദേഹത്തിനത്	-0.0581
-4.4139 അദ്ദേഹത്തിനറിയാമായിരുന്നു	0.0352
-4.4139 അദ്ദേഹത്തിനു	-0.0582
-4.4139 അദ്ദേഹത്തിനേയും	-0.0582
-3.7147 അദ്ദേഹത്തിന്	0.0404
-3.2676 അദ്ദേഹത്തിന്‍റെ	-0.0410
-4.4139 അദ്ദേഹത്തിന്‍റേത്	-0.0582
-4.4139 അദ്ദേഹത്തില്‍	-0.0579
-3.5106 അദ്ദേഹത്തെ	-0.1012
-4.4139 അദ്ദേഹത്തോട്	-0.0582
-4.1127 അദ്ദേഹമത്	-0.0581
-4.4139 അദ്ദേഹമാണ്	-0.0579
-4.1127 അദ്ദേഹമായിരുന്നു	-0.1783
-4.4139 അദ്ദേഹമെന്താ	-0.0582
-4.4139 അദ്ദേഹമെന്താണ്	-0.0579
-4.4139 അദ്ദേഹമെന്തിനാ	-0.0580
-4.4139 അദ്ദേഹമെന്‍റെ	-0.0582
-4.4139 അദ്ദേഹവും	-0.0582
-4.4139 അദ്ധ്യയന	-0.0582
-4.4139 അധിക	-0.0582
-3.6356 അധികം	-0.0581
-4.4139 അധികകാലം	-0.0582
-4.4139 അധികനേരം	-0.0582
-4.4139 അധികപ്രസംഗിയായ	0.0352
-4.4139 അധികമില്ല	-0.0571
-4.4139 അധികമില്ലല്ലോ	0.0352
-4.4139 അധികമൊന്നും	-0.0582
-4.4139 അധികസമയം	-0.0570
-4.4139 അധ്യാപകർ	-0.0578
-4.4139 അനങ്ങരുത്	0.0352
-4.4139 അനങ്ങല്ലേ	0.0352
-4.4139 അനന്തമായ	-0.0582
-4.4139 അനാഥനായതെന്നോ	-0.0581
-4.4139 അനാഥന്‍	-0.0579
-3.9366 അനാഥാലയത്തിലേക്ക്	-0.0949
-4.4139 അനുഗ്രഹിക്കുകയാണെങ്കിൽ	0.0352
-4.4139 അനുഭവവേദ്യമാകും	0.0352
-4.4139 അനുഭവവേദ്യമാണ്	-0.0582
-4.4139 അനുഭവിക്കുന്നത്	0.0352
-4.4139 അനുഭവിച്ചിട്ടില്ല	0.0352
-4.4139 അനുമതിയുണ്ട്	0.0352
-4.4139 അനുയോജ്യമായതെന്ന്	-0.0554
-4.4139 അനുവദിക്കുന്നു	0.0352
-4.4139 അനുവാദമില്ല	0.0352
-4.4139 അനുവാദമില്ലാ	0.0352
-4.4139 അനുവാദമുണ്ട്	0.0352
-4.4139 അനുസരിക്കണം	0.0352
-4.4139 അനുസരിക്കേണ്ട	-0.0582
-3.9366 അനുസരിചിട്ടുണ്ട്	-0.2640
-4.4139 അന്തരിച്ചു	0.0352
-4.4139 അന്തരീക്ഷം	-0.0582
-4.4139 അന്തരീക്ഷത്തിന്റെ	-0.0582
-4.1127 അന്തരീക്ഷത്തിൽ	-0.0577
-4.4139 അന്തരീഷത്തിൽ	-0.0581
-4.4139 അന്തസ്സ്‌	-0.0581
-4.4139 അന്തസ്സ്‌‌	-0.0581
-4.4139 അന്ധകാരത്തിലേയ്ക്	-0.0582
-4.4139 അന്നത്തെ	-0.0579
-4.4139 അന്നത്തെക്കാലത്ത്	-0.0581
-3.9366 അന്ന്	-0.0579
-4.4139 അന്വേഷകർ	0.0352
-4.1127 അന്വേഷണം	-0.0581
-4.4139 അന്വേഷിക്കലല്ലല്ലോ	0.0352
-4.1127 അന്വേഷിക്കുകയാണ്	-0.1783
-4.4139 അന്വേഷിക്കുന്ന	-0.0562
-4.4139 അന്വേഷിക്കുന്നതാണ്	-0.0582
-4.4139 അന്വേഷിക്കുന്നതില്‍	-0.0554
-4.1127 അന്വേഷിച്ച്	0.0353
-4.4139 അപകടം	-0.0582
-4.4139 അപകടകരമായ	-0.0542
-4.4139 അപകടത്തിലാണെന്ന്	0.0352
-4.4139 അപഗ്രഥിച്ച്	0.0352
-4.4139 അപരിചിതനല്ല	0.0352
-4.4139 അപരിചിതമായ	-0.0580
-4.4139 അപരിചിതമായി	-0.0582
-4.4139 അപരിചിതമായൊരു	-0.0582
-4.4139 അപരിചിതരുമായി	0.0352
-4.4139 അപൂര്‍ണ്ണമായ	-0.0582
-4.4139 അപൂര്‍ണ്ണമായി	0.0352
-4.4139 അപ്പം	-0.0582
-4.4139 അപ്പക്കള്ളന്‍	0.0352
-4.4139 അപ്പുറത്തു	-0.0582
-4.4139 അപ്പുറത്തേയ്ക്	-0.0582
-4.4139 അപ്പുറമുള്ള	0.0352
-4.4139 അപ്പൂപ്പന്‍	-0.0581
-4.4139 അപ്പൂപ്പന്‍റെ	-0.0582
-4.1127 അപ്പൂപ്പാ	0.0359
-4.1127 അപ്പൊ	-0.0573
-3.9366 അപ്പോ	-0.0564
-4.1127 അപ്പോളോ	0.0352
-4.4139 അപ്പോഴും	-0.0582
-4.4139 അപ്പോഴേയ്കും	-0.0582
-2.8574 അപ്പോൾ	0.0357
-4.4139 അപ്പ്	-0.0582
-4.1127 അപ്‌ലോഡ്‌	-0.0580
-4.4139 അബദ്ധമാണ്	0.0352
-4.1127 അഭിനന്ദനങ്ങള്‍	0.0353
-4.4139 അഭിനയിക്കുന്നത്	0.0352
-4.4139 അഭിനയിക്ക്	0.0352
-4.4139 അഭിനയിച്ചു	0.0352
-4.4139 അഭിനിവേശമായിരുന്നു	0.0352
-3.9366 അഭിനേതാക്കള്‍	-0.0580
-4.4139 അഭിനേത്രിയായിരുന്നോ	0.0352
-4.4139 അഭിപ്രായ	-0.0582
-4.4139 അഭിമാനമുണ്ട്	-0.0578
-4.4139 അഭിമുഖീകരിക്കേണ്ടതായി	-0.0579
-4.4139 അമാനുഷികമാണെന്ന്	-0.0581
-4.4139 അമൂല്യ	-0.0582
-3.7147 അമേലിയ	-0.0366
-4.4139 അമേലിയയോട്	-0.0582
-4.1127 അമോണിയ	0.0365
-4.4139 അമോണിയയ്കു	-0.0581
-4.4139 അമ്പരപ്പുണ്ടോ	0.0352
-3.3723 അമ്മ	-0.0554
-4.4139 അമ്മക്കും	0.0352
-4.4139 അമ്മക്കൊരു	-0.0582
-4.4139 അമ്മക്ക്	-0.0581
-3.9366 അമ്മയും	-0.0567
-4.4139 അമ്മയുടെ	-0.0582
-4.1127 അമ്മയുടെയും	0.0353
-4.4139 അമ്മയുണ്ടായിരുന്നെങ്കിൽ	0.0352
-4.4139 അമ്മയുമെവിടെ	0.0352
-4.4139 അമ്മയെ	-0.0554
-4.4139 അമ്മയെക്കുറിച്ച്	0.0352
-4.1127 അമ്മയോടും	-0.0581
-4.4139 അമ്മയോട്	-0.0581
-3.5106 അമ്മാ	-0.0979
-4.1127 അമ്മാവന്‍	0.0353
-4.4139 അമ്മേ	0.0352
-4.4139 അമ്മോണിയ	0.0352
-4.4139 അയക്കണമായിരുന്നു	0.0352
-4.4139 അയക്കാൻ	-0.0580
-4.4139 അയക്കും	0.0352
-4.4139 അയക്കുക	0.0352
-4.4139 അയക്കുന്നു	0.0352
-4.4139 അയക്കുമ്പോൾ	0.0352
-4.1127 അയച്ചതാണ്	-0.1783
-4.4139 അയച്ചത്	0.0352
-4.4139 അയച്ചാൽ	-0.0579
-4.4139 അയച്ചിട്ടുണ്ടോ	0.0352
-3.8116 അയച്ചിട്ടുണ്ട്	-0.2947
-4.4139 അയച്ചില്ല	0.0352
-3.9366 അയച്ചു	0.0353
-4.4139 അയച്ചുകൊടുത്താലും	0.0352
-4.4139 അയച്ചുതരാനും	-0.0582
-4.4139 അയച്ചുതരാനുള്ള	0.0352
-4.4139 അയച്ചുതരൂ	0.0352
-4.4139 അയച്ചുതാ	0.0352
-4.4139 അയച്ചോ	0.0352
-4.4139 അയയ്കാതിരുന്നതിന്റെ	-0.0578
-4.4139 അയയ്കാനായാല്‍	0.0352
-4.1127 അയയ്കുന്നു	-0.1783
-4.4139 അയാളത്	-0.0582
-4.4139 അയാളിത്	-0.0577
-4.4139 അയാളിവിടത്തെ	-0.0582
-3.5686 അയാളുടെ	0.0354
-4.1127 അയാളെ	-0.0582
-4.1127 അയാളൊരു	-0.2717
-4.1127 അയാളോട്	-0.0582
-3.4595 അയാള്‍	-0.0564
-4.4139 അയാള്‍ക്കങ്ങനെ	-0.0582
-4.4139 അയാള്‍ക്കിനി	-0.0582
-4.4139 അയാള്‍ക്കെന്ത്	-0.0581
-4.4139 അയാള്‍ക്ക്	-0.0582
-3.8116 അയ്യോ	-0.0584
-4.4139 അയർലണ്ടിലെ	-0.0582
-4.4139 അരമണിക്കൂറിന്	-0.0581
-4.4139 അരമണിക്കൂറൊന്നും	-0.0576
-4.4139 അരികിലായി	-0.0582
-4.4139 അരിവാങ്ങാൻ	0.0352
-4.4139 അരുത്	0.0352
-4.4139 അര്‍ത്ഥം	-0.0582
-4.4139 അര്‍ത്ഥങ്ങളുമുണ്ട്	0.0352
-4.4139 അര്‍ത്ഥമില്ല	0.0352
-4.4139 അര്‍ത്ഥമെന്ന്	-0.0582
-4.4139 അര്‍ത്ഥവത്താണ്	-0.0581
-4.4139 അര്‍ത്ഥവുമില്ല	0.0352
-4.4139 അര്‍ത്ഥശൂന്യമാണ്	0.0352
-4.4139 അര്‍ഥം	0.0352
-4.4139 അര്‍പ്പിച്ചു	0.0352
-4.4139 അറയില്ലേ	-0.0574
-4.4139 അറിഞ്ഞപ്പോള്‍	0.0352
-4.4139 അറിഞ്ഞിരിക്കണം	0.0352
-4.4139 അറിഞ്ഞുകൂടാ	0.0352
-4.4139 അറിയണമല്ലോ	0.0352
-4.4139 അറിയണോ	0.0352
-4.4139 അറിയപ്പെടാതിരിക്കാനുള്ളതാണ്	0.0352
-4.4139 അറിയരുത്	0.0352
-3.5106 അറിയാം	-0.2088
-4.4139 അറിയാതിരിക്കാന്‍	0.0352
-4.4139 അറിയാതെയാണോ	-0.0559
-4.4139 അറിയാത്തതിനെ	-0.0582
-4.4139 അറിയാമല്ലോ	0.0352
-3.9366 അറിയാമായിരുന്നു	-0.2640
-3.7147 അറിയാമോ	-0.2056
-4.4139 അറിയാറായിട്ടില്ല	0.0352
-4.1127 അറിയാൻ	-0.0581
-4.4139 അറിയിക്കും	-0.0581
-4.4139 അറിയിക്കുന്നു	0.0352
-4.4139 അറിയിയാം	-0.0581
-3.3345 അറിയില്ല	-0.6015
-4.4139 അറിയില്ലല്ലോ	0.0352
-4.1127 അറിയില്ലാ	-0.1783
-4.4139 അറിയില്ലായിരുന്നു	-0.0559
-3.9366 അറിയില്ലേ	-0.2640
-4.4139 അറിയുമായിരുന്നു	0.0352
-4.4139 അറിയുമെങ്കില്‍	0.0352
-3.7147 അറിയുമോ	-1.2998
-4.4139 അറിയൂ	0.0352
-4.4139 അറിയേണ്ടതെല്ലാം	0.0352
-4.4139 അറിയേണ്ടൂ	0.0352
-4.4139 അറ്റാക്ക്‌	-0.0582
-4.4139 അലക്സാണ്ടർ	0.0352
-4.4139 അലങ്കരിച്ചിരിക്കുന്നത്	0.0352
-4.4139 അലങ്കാരപണികൾ	0.0352
-4.4139 അലട്ടിയിട്ടുണ്ട്	0.0352
-4.4139 അലപ്പസമയത്തിന്	0.0352
-4.4139 അലമാരിയില്‍	-0.0580
-4.4139 അലറുന്നു	0.0352
-4.4139 അലിഖാൻ	-0.0582
-4.4139 അലുമിനിയം	0.0352
-3.8116 അല്പം	-0.0581
-3.0713 അല്ല	-0.0238
-4.4139 അല്ലല്ലോ	0.0352
-3.2676 അല്ലാ	-0.0260
-3.8116 അല്ലാതെ	0.0374
-4.4139 അല്ലാതെന്താണ്	-0.0581
-4.4139 അല്ലാതെന്ത്	-0.0581
-4.1127 അല്ലായിരുന്നു	-0.1783
-4.4139 അല്ലായിരുന്നോ	0.0352
-3.9366 അല്ലെ	-0.2640
-3.4137 അല്ലെങ്കില്‍	-0.0604
-4.4139 അല്ലെന്ന്	0.0352
-3.1127 അല്ലേ	-1.2490
-4.4139 അല്ലേടോ	0.0352
-4.1127 അല്‍പം	-0.0581
-4.4139 അളക്കാന്‍	-0.0580
-4.4139 അളക്കാവുന്നതാണ്	-0.0580
-4.4139 അളവ്	-0.0582
-4.4139 അഴിഞ്ഞു	-0.0582
-4.4139 അഴിമതി	-0.0578
-3.5686 അവ	-0.0549
-4.4139 അവകാശമില്ലേ	0.0352
-4.4139 അവധിയിൽ	0.0352
-4.4139 അവനതറിയണം	0.0352
-4.4139 അവനത്	-0.0582
-4.4139 അവനറിയില്ല	0.0352
-4.4139 അവനിതിന്റെ	-0.0582
-4.4139 അവനില്‍	-0.0582
-4.4139 അവനു	-0.0582
-4.4139 അവനും	-0.0582
-3.4595 അവനെ	-0.0576
-4.1127 അവനെന്താണ്	-0.0576
-4.4139 അവനെന്നെ	-0.0579
-4.4139 അവനെന്നെയും	-0.0582
-4.4139 അവനെന്റെ	-0.0582
-4.4139 അവനെയും	-0.0578
-4.4139 അവനെയൊന്ന്	-0.0582
-4.4139 അവനെവിടെ	0.0352
-4.4139 അവനൊന്നും	-0.0582
-4.4139 അവനൊന്ന്	-0.0582
-3.7147 അവനൊരു	-0.0581
-3.5106 അവനോട്	-0.1017
-3.5106 അവന്	-0.0968
-3.6356 അവന്റെ	-0.0580
-3.0520 അവന്‍	-0.0522
-3.4595 അവന്‍റെ	-0.0579
-4.4139 അവയുടെ	-0.0582
-4.4139 അവയെ	-0.0574
-4.4139 അവയെക്കുറിച്ച്	-0.0582
-4.4139 അവയ്ക്കു	-0.0576
-4.4139 അവരത്	-0.0582
-4.4139 അവരല്ല	-0.0578
-4.4139 അവരവനെ	-0.0582
-4.4139 അവരാ	-0.0582
-4.4139 അവരാണെല്ലാം	-0.0581
-3.9366 അവരാണ്	0.0354
-4.4139 അവരാനെന്നു	0.0352
-4.4139 അവരിതെല്ലാം	-0.0582
-4.4139 അവരിപ്പോളും	-0.0581
-4.4139 അവരിപ്പോഴും	-0.0582
-4.4139 അവരിലേക്ക്	-0.0582
-4.4139 അവരിവിടെയെത്തും	0.0352
-4.1127 അവരിൽ	-0.0581
-4.4139 അവരും	-0.0582
-3.2096 അവരുടെ	0.0360
-4.4139 അവരുദ്ദേശിക്കുന്നത്	-0.0581
-4.4139 അവരുമായി	0.0352
-4.4139 അവരുമായിട്ടുള്ള	-0.0582
-3.5106 അവരെ	-0.0941
-4.4139 അവരെക്കൊണ്ട്	-0.0582
-4.4139 അവരെന്തിനാണ്	-0.0578
-4.4139 അവരെപ്പോഴും	-0.0582
-4.4139 അവരെയല്ലം	-0.0520
-4.4139 അവരെയൊക്കെ	-0.0582
-4.4139 അവരെല്ലാം	-0.0581
-4.4139 അവരെവിടെ	0.0352
-4.4139 അവരൊക്കെ	-0.0572
-4.4139 അവരോടെല്ലാം	-0.0579
-3.9366 അവരോട്	-0.0576
-4.4139 അവര്	-0.0582
-4.4139 അവര്ക്ക്	-0.0580
-2.9366 അവര്‍	0.0235
-4.4139 അവര്‍ക്കിത്	-0.0582
-4.4139 അവര്‍ക്കിവിടെ	-0.0582
-4.4139 അവര്‍ക്കുവേണ്ടി	0.0352
-4.4139 അവര്‍ക്കെന്തു	-0.0581
-4.4139 അവര്‍ക്കൊരു	-0.0581
-3.4137 അവര്‍ക്ക്	0.0379
-4.4139 അവളതിന്റെ	-0.0582
-4.4139 അവളത്	-0.0582
-4.4139 അവളായിരുന്നേനെ	-0.0559
-4.4139 അവളിപ്പോളും	-0.0581
-4.4139 അവളിപ്പോഴും	-0.0582
-4.1127 അവളില്‍	-0.0581
-3.3345 അവളുടെ	-0.0577
-3.5106 അവളെ	-0.0567
-4.4139 അവളെന്താണ്	-0.0582
-4.4139 അവളെയാണ്	-0.0582
-4.4139 അവളേം	-0.0582
-4.4139 അവളൊന്നും	-0.0582
-4.4139 അവളൊരിക്കലും	-0.0582
-4.4139 അവളൊരു	-0.0572
-4.4139 അവളോടെങ്ങനെ	-0.0582
-4.4139 അവളോടൊരു	-0.0581
-4.4139 അവളോട്‌	-0.0581
-3.2096 അവള്‍	-0.0063
-4.4139 അവള്‍ക്ക്	-0.0582
-4.4139 അവശിഷ്ട്ടം	0.0352
-4.4139 അവശേഷിച്ചിരുന്നെങ്കിൽ	0.0352
-4.4139 അവശ്വസനിയമാണ്	0.0352
-4.4139 അവസരം	0.0352
-4.4139 അവസരമുണ്ട്	0.0352
-4.4139 അവസരവുമാകും	0.0352
-3.9366 അവസാന	-0.0581
-3.9366 അവസാനം	-0.0510
-4.4139 അവസാനത്തിൽ	-0.0577
-4.1127 അവസാനത്തെ	-0.0581
-4.4139 അവസാനമായി	-0.0582
-4.4139 അവസാനമാവും	0.0352
-4.4139 അവസാനിക്കും	0.0352
-4.4139 അവസാനിക്കുകയായിരുന്നു	0.0352
-4.4139 അവസാനിക്കുന്നതിനോടുള്ള	-0.0582
-4.4139 അവസാനിക്കുന്നത്	0.0352
-4.4139 അവസാനിച്ചത്	-0.0582
-4.4139 അവസാനിച്ചല്ലോ	0.0352
-4.4139 അവസാനിച്ചിരിക്കുന്നു	0.0352
-4.4139 അവസാനിച്ചെന്നു	-0.0580
-4.4139 അവസാനിപ്പിക്കരുത്	0.0352
-4.4139 അവസാനിപ്പിക്കുന്നു	0.0352
-4.4139 അവസാനിപ്പിച്ചു	0.0352
-3.9366 അവസ്ഥ	-0.0572
-4.4139 അവിചാരിത	-0.0582
-4.1127 അവിടം	-0.0582
-4.4139 അവിടുത്തെ	0.0352
-4.4139 അവിടുന്ന്	-0.0580
-2.7509 അവിടെ	0.0366
-4.4139 അവിടെത്തെ	-0.0582
-4.4139 അവിടെന്ന്	-0.0559
-4.4139 അവിടെയല്ലാ	0.0352
-3.8116 അവിടെയാണ്	-0.1635
-4.4139 അവിടെയായിരിക്കും	-0.0581
-4.4139 അവിടെയില്ലാത്തത്	-0.0582
-4.4139 അവിടെയുണ്ടെന്ന്	-0.0579
-3.9366 അവിടെയുണ്ട്	-0.2640
-4.4139 അവിടെയുമല്ലാ	0.0352
-4.4139 അവിടെയുള്ളവരെല്ലാം	-0.0582
-4.4139 അവിടെയെവിടെയെങ്കിലും	-0.0582
-3.8116 അവിടെയൊരു	-0.0579
-4.4139 അവിടേക്ക്	0.0352
-4.4139 അവ്യക്ത	-0.0582
-3.4595 അവൻ	-0.0576
-2.9987 അവർ	0.0385
-4.4139 അവർക്കറിയാം	0.0352
-4.4139 അവർക്കറിയില്ലാ	0.0352
-4.4139 അവർക്കെല്ലാം	-0.0582
-3.4137 അവർക്ക്	0.0388
-3.1349 അവൾ	0.0278
-4.4139 അവൾക്കു	-0.0581
-3.8116 അവൾക്ക്‌	-0.0527
-4.4139 അവൾക്ക്‌‌	-0.0582
-4.1127 അശു	-0.0582
-4.4139 അശ്രദ്ധമായ	-0.0582
-4.4139 അസംബന്ധം	0.0352
-4.4139 അസംബന്ധംങ്ങളെക്കുറിച്ച്	0.0352
-4.4139 അസാധാരണമായ	-0.0582
-4.4139 അസാധാരണമായി	-0.0582
-4.4139 അസാമാന്യകഴിവാണയാള്‍ക്ക്	0.0352
-4.4139 അസിസ്റ്റന്റ്	-0.0581
-4.4139 അസ്തമയത്തിനുമുമ്പുള്ള	-0.0582
-4.4139 അസ്ഥികൂടങ്ങള്‍	-0.0582
-4.4139 അസ്വഭാവികതയിൽ	-0.0580
-4.4139 അസ്വാഭാവികത	-0.0547
-4.4139 അസ്വാഭാവികതകള്‍	-0.0581
-4.4139 അഹങ്കാരം	-0.0578
-3.9366 അഹ്	0.0353
-4.4139 അർഥം	-0.0582
-4.4139 അർഥമെന്താണ്	0.0352
-2.3492 ആ	0.0126
-3.9366 ആം	-0.0949
-3.8116 ആംസ്റ്റർഡാം	-0.0577
-4.1127 ആംസ്റ്റർഡാമാണ്	-0.1783
-4.4139 ആംസ്റ്റർഡാമിലും	0.0352
-4.4139 ആംസ്റ്റർഡാമിലെത്തിയാൽ	-0.0582
-4.4139 ആംസ്റ്റർഡാമിലെവിടെയാണ്	-0.0581
-4.4139 ആംസ്റ്റർഡാമിലേക്കുള്ള	-0.0582
-4.4139 ആംസ്റ്റർഡാമിലേക്ക്	-0.0582
-4.4139 ആംസ്റ്റർഡാമിൽ	-0.0581
-4.4139 ആംസ്റ്റർഡാമൊക്കെ	-0.0582
-4.4139 ആകട്ടെ	-0.0576
-4.4139 ആകണം	0.0352
-4.4139 ആകര്‍ഷിക്കുന്നത്	0.0352
-4.4139 ആകാംഷ	-0.0582
-4.4139 ആകാശത്ത്	-0.0580
-4.4139 ആകാൻ	-0.0581
-4.4139 ആകും	0.0352
-4.4139 ആകുമായിരിക്കാം	0.0352
-4.4139 ആകുമായിരുന്നു	0.0352
-4.4139 ആകുമെന്ന്	-0.0560
-4.4139 ആകുവാൻ	0.0352
-3.7147 ആകെ	-0.0378
-4.4139 ആക്കണോ	0.0352
-4.4139 ആക്കി	-0.0582
-4.4139 ആക്കിയ	-0.0582
-4.4139 ആക്കും	0.0352
-4.4139 ആക്രമിക്കാന്‍	-0.0578
-4.4139 ആക്രമിക്ക്	0.0352
-4.4139 ആക്ഷന്‍	0.0352
-4.4139 ആക്സലേറ്റർ	-0.0582
-4.1127 ആഗ്രഹം	0.0354
-4.4139 ആഗ്രഹമുണ്ട്	0.0352
-3.9366 ആഗ്രഹിക്കുന്നു	-0.2640
-4.4139 ആഗ്രഹിച്ചിരുന്നത്	0.0352
-4.4139 ആഘോഷത്തിലേക്	0.0352
-4.4139 ആജ്ഞകള്‍	-0.0582
-4.4139 ആണന്നറിയില്ലേ	0.0352
-3.9366 ആണുങ്ങളുടെ	-0.0581
-4.4139 ആണുങ്ങൾക്കും	-0.0582
-4.4139 ആണെന്നാണോ	0.0352
-4.4139 ആണെന്നാണ്	0.0352
-4.4139 ആണെന്നുള്ള	-0.0582
-4.4139 ആണെന്നെയൊള്ളൂ	0.0352
-3.9366 ആണെന്ന്	-0.0532
-3.8116 ആണോ	-0.1649
-2.9823 ആണ്	-0.4095
-4.4139 ആണ്‍കുട്ടി	0.0352
-4.1127 ആത്മവിശ്വാസം	0.0357
-4.4139 ആത്മാര്‍ത്ഥത	-0.0580
-4.4139 ആത്മാവും	-0.0582
-4.4139 ആദർശസുക്തം	-0.0578
-3.6356 ആദ്യ	-0.0581
-3.5106 ആദ്യം	-0.1518
-4.4139 ആദ്യംതന്നെ	-0.0569
-4.4139 ആദ്യകാല	-0.0582
-4.4139 ആദ്യതെ	-0.0581
-4.4139 ആദ്യത്തേത്	0.0352
-4.1127 ആദ്യമായി	0.0353
-4.4139 ആനുകൂല്യങ്ങളും	-0.0582
-4.1127 ആന്‍റിയെ	-0.0577
-4.1127 ആപേക്ഷികതയെ	-0.0582
-4.4139 ആഭരങ്ങളെടുക്കാൻ	-0.0579
-4.4139 ആയത്	0.0352
-3.9366 ആയി	-0.0581
-4.4139 ആയിക്കൊണ്ടിരിക്കുകയാണ്	-0.0582
-4.4139 ആയിട്ടുണ്ട്	0.0352
-4.4139 ആയിരം	-0.0582
-4.4139 ആയിരിക്കണം	0.0352
-4.4139 ആയിരിക്കാം	-0.0576
-3.9366 ആയിരിക്കും	-0.0949
-4.4139 ആയിരിക്കുമ്പോൾ	-0.0580
-3.7147 ആയിരുന്നു	-0.2013
-4.4139 ആയിരുന്നെങ്കില്‍	0.0352
-4.1127 ആയിരുന്നോ	-0.1783
-4.4139 ആയിരുന്നോന്ന്	0.0352
-4.4139 ആയുധം	-0.0559
-4.4139 ആയുധമൊന്നും	-0.0575
-4.4139 ആയുഷ്മാൻ	-0.0582
-4.4139 ആരംഭമാണ്	0.0352
-4.4139 ആരംഭിക്കുന്നു	0.0352
-4.4139 ആരംഭിച്ചത്	0.0352
-4.4139 ആരംഭിച്ചു	0.0352
-3.9366 ആരാ	0.0357
-4.1127 ആരാണത്	0.0355
-4.1127 ആരാണീ	-0.0577
-4.4139 ആരാണെന്നു	-0.0570
-4.4139 ആരാണെന്ന്	0.0352
-3.2376 ആരാണ്	-0.4474
-4.4139 ആരാധികയായത്	0.0352
-4.4139 ആരായാലും	0.0352
-3.6356 ആരും	0.0370
-4.4139 ആരുടെയെങ്കില്‍	-0.0580
-4.4139 ആരുമില്ല	0.0352
-3.9366 ആരെങ്കിലും	0.0353
-4.1127 ആരെയും	-0.0582
-3.9366 ആരോ	0.0359
-4.1127 ആരോടും	-0.0540
-4.4139 ആരോട്	-0.0580
-3.9366 ആര്	0.0353
-3.8116 ആര്‍ക്കും	-0.0577
-4.4139 ആര്‍ക്കുമിവനെ	-0.0582
-4.4139 ആര്‍ജ്ജിച്ചു	0.0352
-4.4139 ആറ്	0.0352
-4.4139 ആലോചിക്കും	0.0352
-4.4139 ആലോചിച്ചു	-0.0582
-4.4139 ആളല്ലേ	0.0352
-4.4139 ആളാണ്‌	0.0352
-4.4139 ആളായിരിക്കും	-0.0581
-4.4139 ആളുകളാണോ	-0.0573
-4.4139 ആളുകളാണ്	0.0352
-4.4139 ആളുകളും	-0.0582
-4.1127 ആളുകളെ	-0.0574
-4.4139 ആളുകളെല്ലാം	-0.0582
-3.9366 ആളുകള്‍	0.0353
-4.4139 ആളുപോലും	-0.0547
-4.4139 ആള്‍	0.0352
-4.4139 ആള്‍ക്കാരെ	-0.0582
-4.4139 ആഴത്തില്‍	-0.0581
-4.4139 ആഴ്ചകള്‍ക്കു	-0.0580
-4.4139 ആഴ്ചയായിരുന്നു	0.0352
-4.4139 ആഴ്ച്ച	-0.0580
-4.4139 ആവര്‍ത്തിക്കാം	0.0352
-4.4139 ആവര്‍ത്തിക്കാതിരിക്കണമെങ്കില്‍	0.0352
-4.4139 ആവര്‍ത്തിക്കുന്നു	-0.0547
-4.4139 ആവശ്യ	0.0352
-3.5686 ആവശ്യം	-0.0130
-4.4139 ആവശ്യത്തിനനുസരിച്ച്	0.0352
-4.4139 ആവശ്യത്തിന്	-0.0582
-4.4139 ആവശ്യപ്പെടുന്നത്	-0.0578
-4.4139 ആവശ്യപ്പെടുമ്പോള്‍	-0.0582
-4.4139 ആവശ്യപ്പെടേണ്ടതില്ല	0.0352
-4.4139 ആവശ്യപ്പെട്ടതും	0.0352
-4.4139 ആവശ്യപ്പെട്ടു	0.0352
-4.4139 ആവശ്യമല്ലേ	0.0352
-4.4139 ആവശ്യമാണ്	0.0352
-4.4139 ആവശ്യമായ	-0.0581
-4.1127 ആവശ്യമില്ല	-0.1783
-4.4139 ആവശ്യമുണ്ടോ	0.0352
-4.4139 ആവശ്യമുണ്ട്	0.0352
-3.9366 ആവില്ല	-0.2640
-4.4139 ആവുന്നത്ര	-0.0582
-4.4139 ആവേശമാണ്	0.0352
-4.4139 ആവർത്തിച്ച്‌	-0.0580
-4.1127 ആശംസിക്കുന്നു	-0.1783
-4.4139 ആശയം	-0.0582
-4.4139 ആശയക്കുഴപ്പങ്ങൾ	0.0352
-4.4139 ആശയമോ	0.0352
-3.8116 ആശയവിനിമയം	0.0357
-4.4139 ആശാവഹമല്ല	0.0352
-4.4139 ആശീര്‍വദിക്കാൻ	-0.0581
-4.4139 ആശീര്‍വ്വാദം	-0.0582
-4.4139 ആശ്ചര്യപ്പെടുകയാണ്	0.0352
-4.4139 ആശ്വാസം	-0.0582
-4.4139 ആസന്നമാവുന്നു	-0.0582
-4.4139 ആസമയം	0.0352
-4.4139 ആസാമികളുടെ	-0.0581
-4.4139 ആസുത്രണം	-0.0578
-4.4139 ആസ്വദിച്ചോ	0.0352
-4.1127 ആസ്വദിച്ചോളു	-0.1783
-4.4139 ആഹാരം	-0.0582
-3.4595 ആഹ്	-0.0814
-4.1127 ആൻഡ്‌	-0.0582
-4.4139 ആർക്കറിയാം	-0.0574
-4.4139 ആർക്കാണ്	-0.0579
-4.1127 ആർക്കിടെക്ചർ	-0.0580
-4.1127 ആർക്കും	-0.0580
-4.4139 ആർക്കൊക്കെ	-0.0578
-4.4139 ഇ	-0.0580
-3.9366 ഇംഗ്ലീഷിലെന്താണ്	-0.3574
-4.4139 ഇംഗ്ലീഷിൽ	-0.0581
-4.1127 ഇംഗ്ലീഷ്	0.0401
-4.4139 ഇക്കാര്യം	-0.0581
-4.4139 ഇക്കൊല്ലം	-0.0547
-3.4595 ഇങ്ങനെ	-0.0571
-4.4139 ഇങ്ങനെത്തെ	-0.0582
-4.1127 ഇങ്ങനെയാണ്	-0.0581
-4.4139 ഇങ്ങനെയായാൽ	-0.0580
-4.4139 ഇങ്ങനെയുള്ള	-0.0582
-4.4139 ഇങ്ങനെയെല്ലാം	-0.0582
-4.1127 ഇങ്ങനെയൊക്കെ	-0.0578
-3.9366 ഇങ്ങനെയൊന്നും	-0.0581
-4.1127 ഇങ്ങനെയൊരു	-0.0581
-4.4139 ഇങ്ങുതരൂ	0.0352
-4.4139 ഇങ്ങോട്ടയച്ചതാണ്	0.0352
-4.4139 ഇങ്ങോട്ടും	-0.0579
-3.4595 ഇങ്ങോട്ട്	0.0360
-4.4139 ഇഞ്ചിയും	-0.0582
-4.4139 ഇടക്കൊക്കെ	-0.0582
-4.4139 ഇടതു	-0.0582
-4.4139 ഇടതുഭാഗത്ത്	-0.0582
-4.4139 ഇടതുവശം	-0.0582
-4.4139 ഇടത്തും	-0.0582
-4.4139 ഇടത്തേക്ക്	0.0352
-4.4139 ഇടത്തോട്ട്	-0.0581
-4.4139 ഇടയിൽ	-0.0582
-4.4139 ഇടാറുണ്ട്	0.0352
-4.4139 ഇടാൻ	-0.0581
-4.4139 ഇടു	0.0352
-4.4139 ഇടുപ്പളവ്‌	-0.0582
-4.1127 ഇട്	-0.1783
-4.4139 ഇട്ടത്	0.0352
-4.4139 ഇട്ടിട്ടില്ലല്ലോ	0.0352
-4.4139 ഇട്ടിട്ട്	-0.0582
-4.4139 ഇട്ടോ	0.0352
-4.4139 ഇട്ട്	-0.0582
-4.4139 ഇണങ്ങിച്ചെരുന്നത്	-0.0582
-4.4139 ഇതദ്ദേഹത്തിന്	-0.0581
-4.4139 ഇതധികം	-0.0582
-4.4139 ഇതറിയാന്‍	-0.0582
-4.1127 ഇതല്ല	0.0376
-4.4139 ഇതല്ലേ	-0.0572
-4.4139 ഇതവസാന	-0.0582
-3.2676 ഇതാ	0.0218
-4.4139 ഇതാണത്	0.0352
-4.4139 ഇതാണവളുടെ	-0.0582
-4.4139 ഇതാണോ	-0.0572
-3.3345 ഇതാണ്	-0.0153
-4.4139 ഇതാരാണ്	0.0352
-4.1127 ഇതാരുടെ	-0.0581
-4.4139 ഇതി	-0.0582
-4.4139 ഇതിനപ്പറ്റി	-0.0582
-3.8116 ഇതിനു	-0.0573
-4.1127 ഇതിനുമുമ്പ്	-0.0570
-4.4139 ഇതിനുള്ളില്‍	-0.0577
-3.9366 ഇതിനെ	-0.0581
-4.4139 ഇതിനെന്റെ	0.0352
-4.4139 ഇതിനൊരു	-0.0582
-3.5686 ഇതിന്	0.0398
-3.6356 ഇതിന്‍റെ	-0.0248
-4.4139 ഇതിപ്പോ	-0.0580
-4.4139 ഇതിലിടുന്നത്	0.0352
-4.4139 ഇതിലുണ്ടാവൂ	0.0352
-4.4139 ഇതിലുണ്ട്	0.0352
-3.8116 ഇതില്‍	-0.0581
-4.4139 ഇതിവിടെ	-0.0582
-4.4139 ഇതു	-0.0582
-4.1127 ഇതും	-0.0578
-4.4139 ഇതുകൊണ്ട്	-0.0579
-4.4139 ഇതുനോക്ക്	-0.0581
-4.4139 ഇതുപയോഗിച്ചിരുന്നു	0.0352
-4.4139 ഇതുപോലെ	-0.0582
-4.4139 ഇതുപോലെയുള്ള	-0.0582
-4.4139 ഇതുപോലൊരു	-0.0582
-4.4139 ഇതുമായി	-0.0579
-3.7147 ഇതുവരെ	-0.0577
-4.4139 ഇതുവരെയില്ല	0.0352
-4.1127 ഇതുവരെയും	-0.0578
-4.4139 ഇതുവഴി	-0.0579
-4.4139 ഇതെങ്ങനെയാണ്	-0.0582
-4.4139 ഇതെങ്ങനെയുണ്ട്	0.0352
-4.4139 ഇതെടുത്തോളു	-0.0582
-4.4139 ഇതെനിക്കുള്ള	-0.0581
-4.4139 ഇതെനിക്ക്	-0.0582
-4.4139 ഇതെന്താ	-0.0582
-3.9366 ഇതെന്താണ്	-0.0949
-3.3723 ഇതെന്‍റെ	-0.0676
-4.4139 ഇതെല്ലം	-0.0560
-3.6356 ഇതെല്ലാം	-0.0538
-3.8116 ഇതൊക്കെ	-0.0581
-4.1127 ഇതൊന്നും	0.0360
-3.6356 ഇതൊരു	-0.0581
-4.4139 ഇതോടെ	-0.0582
-2.2866 ഇത്	0.0040
-4.4139 ഇത്തരം	-0.0582
-4.1127 ഇത്തവണ	-0.0541
-4.4139 ഇത്തവണയും	-0.0581
-3.9366 ഇത്തിരി	-0.0579
-3.9366 ഇത്ര	-0.0579
-3.9366 ഇത്രയും	-0.0580
-4.4139 ഇത്രയ്ക്	-0.0582
-3.7147 ഇത്രെയും	-0.2119
-4.4139 ഇത്രേ	-0.0582
-4.4139 ഇദ്ദേഹം	-0.0581
-3.1349 ഇനി	0.0484
-4.4139 ഇനിയവ	-0.0582
-4.4139 ഇനിയാരാണെന്നെ	-0.0579
-4.4139 ഇനിയിങ്ങോട്ട്	-0.0582
-3.7147 ഇനിയും	0.0381
-4.4139 ഇനിയെനിക്ക്	-0.0582
-4.4139 ഇനിയെന്താണ്	-0.0581
-4.4139 ഇനിയെന്തെങ്കിലും	0.0352
-4.4139 ഇനിയെന്നാണ്	-0.0578
-4.4139 ഇനിയെന്‍റെ	-0.0578
-4.4139 ഇനിയെല്ലാം	-0.0569
-4.4139 ഇനിയൊന്നുമില്ല	0.0352
-4.4139 ഇനിയൊരിക്കലും	-0.0579
-4.4139 ഇനിഷ്യൽ	0.0352
-4.4139 ഇന്ക്യുബറ്റ്	-0.0582
-3.6356 ഇന്ത്യ	-0.1549
-4.4139 ഇന്ത്യകാരുടേതാണോ	-0.0581
-4.4139 ഇന്ത്യക്കാരനാണോ	0.0352
-4.4139 ഇന്ത്യക്കാരനും	0.0352
-4.4139 ഇന്ത്യക്കാരാണ്	0.0352
-4.4139 ഇന്ത്യക്കാർ	-0.0582
-4.4139 ഇന്ത്യക്ക്	-0.0578
-4.4139 ഇന്ത്യഗേറ്റാണല്ലേ	-0.0581
-4.4139 ഇന്ത്യനാണ്	-0.0581
-4.4139 ഇന്ത്യയിലും	-0.0582
-4.4139 ഇന്ത്യയിലുമുണ്ടോ	0.0352
-4.4139 ഇന്ത്യയിലുമുണ്ട്	0.0352
-4.4139 ഇന്ത്യയിലേക്കുള്ള	-0.0580
-3.8116 ഇന്ത്യയിലേക്ക്	0.0357
-3.4595 ഇന്ത്യയിൽ	-0.1836
-4.1127 ഇന്ത്യയുടെ	-0.0581
-3.8116 ഇന്ത്യൻ	0.0359
-4.4139 ഇന്ധന	-0.0582
-3.6356 ഇന്ധനം	-0.0249
-4.4139 ഇന്ധനമോ	0.0352
-4.1127 ഇന്നത്തെ	-0.0579
-4.4139 ഇന്നലെ	-0.0559
-4.4139 ഇന്നിത്ര	-0.0581
-4.4139 ഇന്നും	-0.0572
-4.4139 ഇന്നുമാത്രമാണ്	0.0352
-4.4139 ഇന്നുമുതൽ	-0.0520
-4.4139 ഇന്നെന്റെ	-0.0582
-3.1833 ഇന്ന്	-0.0867
-4.4139 ഇന്‍സ്പെക്ടറുടെ	-0.0582
-4.4139 ഇന്‍സ്പെക്ടറെ	-0.0582
-3.8116 ഇന്‍സ്പെക്റ്റര്‍	-0.1497
-2.7605 ഇപ്പോൾ	0.0020
-4.1127 ഇപ്പൊ	-0.0580
-4.4139 ഇപ്പോളദ്ദേഹത്തിന്റെ	-0.0581
-4.4139 ഇപ്പോളാകും	0.0352
-4.1127 ഇപ്പോളും	-0.0572
-4.4139 ഇപ്പോളെന്തിനാണ്	-0.0578
-4.4139 ഇപ്പോഴിവിടെ	-0.0582
-3.5686 ഇപ്പോഴും	0.0421
-4.4139 ഇമെയിൽ	-0.0581
-4.4139 ഇമ്രാൻഹാഷ്മിയുടെ	-0.0582
-4.4139 ഇരിക്കു	0.0352
-4.1127 ഇരിക്കുകയാണ്	-0.1783
-4.1127 ഇരിക്കുന്നത്	0.0352
-4.4139 ഇരിക്കുന്നു	-0.0581
-4.4139 ഇരിക്കുമ്പോള്‍	-0.0580
-4.4139 ഇരിക്കൂ	0.0352
-3.6356 ഇരിക്ക്	-0.1470
-4.4139 ഇരുട്ടത്ത്	-0.0582
-4.1127 ഇരുട്ടാണ്‌	0.0352
-4.1127 ഇരുട്ടില്‍	-0.0582
-4.4139 ഇരുട്ടും	0.0352
-4.4139 ഇരുട്ടുമുറിയില്‍	0.0352
-4.4139 ഇരുട്ട്	0.0352
-4.4139 ഇരുനൂറു	-0.0581
-4.4139 ഇരുന്നിരുന്നു	0.0352
-4.4139 ഇരുന്ന്	-0.0580
-4.4139 ഇരുപതടി	-0.0582
-4.4139 ഇരുപതാം	-0.0582
-4.4139 ഇറക്കം	-0.0581
-4.4139 ഇറക്കണം	0.0352
-4.4139 ഇറക്കാം	0.0352
-4.4139 ഇറക്കിട്ട്	0.0352
-4.4139 ഇറക്കും	-0.0581
-4.4139 ഇറക്കുന്ന	-0.0582
-4.4139 ഇറങ്ങാം	0.0352
-4.4139 ഇറങ്ങിപോയി	0.0352
-4.4139 ഇറങ്ങിയ	-0.0581
-4.4139 ഇറങ്ങുന്നത്	-0.0572
-4.4139 ഇറങ്ങേണ്ടത്	-0.0582
-4.4139 ഇറച്ചികൊണ്ടുളള	-0.0579
-4.4139 ഇറ്റാലിയനാണ്	0.0352
-3.7147 ഇറ്റാലിയൻ	-0.1312
-3.9366 ഇലക്ട്രിക്കൽ	-0.0580
-4.1127 ഇലക്ട്രോണിക്സ്	-0.0580
-2.8339 ഇല്ല	-0.1214
-4.1127 ഇല്ലല്ലോ	0.0353
-3.5106 ഇല്ലാ	-0.1588
-4.4139 ഇല്ലാതാകും	0.0352
-4.4139 ഇല്ലാതാക്കിയാല്‍	-0.0582
-4.4139 ഇല്ലാതായി	0.0352
-4.4139 ഇല്ലാതിരിക്കുമ്പോള്‍	0.0352
-4.4139 ഇല്ലാതെ	-0.0581
-3.9366 ഇല്ലായിരുന്നു	-0.2640
-4.4139 ഇല്ലായിരുന്നെങ്കില്‍	-0.0559
-4.4139 ഇല്ലില്ല	0.0352
-4.4139 ഇല്ലെങ്കിലും	0.0352
-4.4139 ഇല്ലെന്നു	-0.0580
-4.4139 ഇല്ലെന്ന്	0.0352
-3.9366 ഇല്ലേ	-0.0940
-4.4139 ഇളകാതെ	-0.0581
-4.4139 ഇളക്കി	-0.0582
-4.4139 ഇളക്കുകയായിരുന്നു	0.0352
-4.1127 ഇവ	-0.0579
-4.4139 ഇവനാകെ	-0.0582
-4.4139 ഇവനാണവന്‍	0.0352
-4.4139 ഇവനിങ്ങ്	0.0352
-4.4139 ഇവനും	-0.0582
-4.1127 ഇവനെ	-0.0581
-4.4139 ഇവനെന്തായിരിക്കും	-0.0582
-4.4139 ഇവനെന്തൊക്കെ	-0.0580
-3.9366 ഇവന്‍	-0.1836
-4.4139 ഇവരുടെ	-0.0582
-4.4139 ഇവരൊക്കെ	-0.0579
-4.4139 ഇവരൊക്കെയാണോ	-0.0573
-4.1127 ഇവരോട്	-0.0581
-4.4139 ഇവര്‍	-0.0579
-4.4139 ഇവര്‍ക്കിവിടെ	-0.0579
-4.4139 ഇവളുടെ	-0.0582
-4.1127 ഇവള്‍	0.0365
-3.9366 ഇവിടം	-0.0580
-3.9366 ഇവിടത്തെ	-0.0577
-4.4139 ഇവിടന്നു	-0.0582
-4.4139 ഇവിടുത്തെ	-0.0569
-3.7147 ഇവിടുന്ന്	-0.1181
-2.5749 ഇവിടെ	-0.0070
-4.4139 ഇവിടെതന്നെയുണ്ടാവും	-0.0581
-3.8116 ഇവിടെത്തന്നെ	-0.0581
-4.4139 ഇവിടെത്തന്നെയുണ്ട്	0.0352
-4.1127 ഇവിടെനിന്നാണ്	0.0395
-4.4139 ഇവിടെനിന്നും	-0.0581
-4.4139 ഇവിടെനിന്ന്	-0.0582
-4.4139 ഇവിടെന്നൊരു	-0.0580
-4.1127 ഇവിടെയാണ്‌	0.0354
-3.8116 ഇവിടെയുണ്ട്	-0.1669
-4.4139 ഇവിടെയുള്ളത്	0.0352
-4.4139 ഇവിടെയെങ്ങും	-0.0582
-4.4139 ഇവിടെയെത്തിച്ചത്	0.0352
-4.4139 ഇഷ്ട	-0.0582
-4.4139 ഇഷ്ടം	-0.0579
-4.4139 ഇഷ്ടങ്ങള്‍	-0.0582
-4.4139 ഇഷ്ടത്തിലാണ്	0.0352
-4.4139 ഇഷ്ടത്തോടെ	0.0352
-4.4139 ഇഷ്ടപെടാത്ത	0.0352
-4.1127 ഇഷ്ടപെട്ട	0.0354
-4.4139 ഇഷ്ടപെട്ടില്ലാ	-0.0580
-4.4139 ഇഷ്ടപ്പെടാത്തത്	0.0352
-4.4139 ഇഷ്ടപ്പെടുന്ന	-0.0542
-4.4139 ഇഷ്ടപ്പെടുന്നതു	-0.0582
-4.4139 ഇഷ്ടപ്പെടുന്നില്ല	0.0352
-4.4139 ഇഷ്ടപ്പെടുന്നില്ലെന്ന്	-0.0580
-4.4139 ഇഷ്ടമല്ല	0.0352
-4.4139 ഇഷ്ടമല്ലല്ലോ	-0.0580
-4.4139 ഇഷ്ടമല്ലാ	0.0352
-4.4139 ഇഷ്ടമല്ലേ	0.0352
-4.4139 ഇഷ്ടമാണെങ്കിൽ	0.0352
-4.4139 ഇഷ്ടമാണെന്ന്	-0.0560
-4.4139 ഇഷ്ടമാണോ	0.0352
-3.2376 ഇഷ്ടമാണ്	-0.6903
-4.4139 ഇഷ്ടമായത്	0.0352
-4.4139 ഇഷ്ടമായന്നോ	-0.0581
-3.7147 ഇഷ്ടമായി	-0.2055
-3.8116 ഇഷ്ടമായിട്ടില്ലാ	-0.2947
-4.4139 ഇഷ്ടമായിരുന്നു	0.0352
-4.4139 ഇഷ്ടമായിരുന്നെന്ന്	0.0352
-4.4139 ഇഷ്ടമായില്ല	0.0352
-4.4139 ഇഷ്ടമായില്ലേ	0.0352
-4.4139 ഇഷ്ടമായെന്നറിഞ്ഞപ്പോള്‍	0.0352
-4.4139 ഇഷ്ടമായോ	0.0352
-4.4139 ഇഷ്ടമുള്ളത്	-0.0580
-3.4137 ഇസബെല്‍	-0.2433
-4.4139 ഇൻ	-0.0581
-4.4139 ഇൻവെർട്ടറിലാണ്	-0.0582
-2.3967 ഈ	-0.0849
-4.4139 ഈടാക്കിക്കോളു	0.0352
-3.6356 ഈഫൽ	-0.1824
-4.4139 ഈയാളുകൾ	-0.0574
-3.8116 ഈവനിങ്ങ്	-0.1510
-3.5106 ഉം	-0.0533
-4.4139 ഉച്ചയ്ക്	-0.0581
-4.4139 ഉച്ഛ്വാസവായുവും	-0.0582
-4.4139 ഉടനീളം	-0.0581
-4.1127 ഉടനെ	0.0362
-4.4139 ഉണരാനുള്ള	-0.0579
-4.4139 ഉണര്	0.0352
-4.1127 ഉണ്ടല്ലോ	-0.1783
-4.4139 ഉണ്ടവിടെ	0.0352
-4.4139 ഉണ്ടാകില്ല	0.0352
-4.4139 ഉണ്ടാകുന്നൊരു	-0.0582
-4.4139 ഉണ്ടാകുമെന്ന്	-0.0571
-4.4139 ഉണ്ടാകുമോ	0.0352
-4.1127 ഉണ്ടാക്കാനും	0.0352
-3.8116 ഉണ്ടാക്കാൻ	-0.1518
-4.1127 ഉണ്ടാക്കി	-0.1783
-4.4139 ഉണ്ടാക്കികൂടെ	0.0352
-4.1127 ഉണ്ടാക്കിയ	-0.0542
-4.4139 ഉണ്ടാക്കിയതാകണം	0.0352
-4.4139 ഉണ്ടാക്കിയതാണോ	0.0352
-4.1127 ഉണ്ടാക്കിയതാണ്	-0.1783
-4.4139 ഉണ്ടാക്കിയത്	0.0352
-4.4139 ഉണ്ടാക്കിയപ്പോള്‍	0.0352
-4.4139 ഉണ്ടാക്കുക	0.0352
-4.1127 ഉണ്ടാക്കുന്നത്	-0.1783
-4.4139 ഉണ്ടാക്കുന്നു	0.0352
-4.4139 ഉണ്ടായതല്ലേ	0.0352
-4.4139 ഉണ്ടായതാകണം	0.0352
-4.4139 ഉണ്ടായതാണ്	0.0352
-4.1127 ഉണ്ടായി	-0.1783
-4.4139 ഉണ്ടായിട്ടുള്ളൂ	0.0352
-4.4139 ഉണ്ടായിരുന്ന	0.0352
-4.4139 ഉണ്ടായിരുന്നത്	-0.0582
-3.5686 ഉണ്ടായിരുന്നു	-0.2593
-4.4139 ഉണ്ടായിരുന്നുഅവിടെ	-0.0520
-4.4139 ഉണ്ടായിരുന്നോ	0.0352
-4.4139 ഉണ്ടാവണമെന്നില്ല	0.0352
-4.4139 ഉണ്ടാവാൻ	-0.0582
-4.4139 ഉണ്ടാവില്ല	0.0352
-4.4139 ഉണ്ടാവില്ലായിരിക്കും	-0.0578
-4.4139 ഉണ്ടാവുക	0.0352
-4.4139 ഉണ്ടാവുമ്പോൾ	0.0352
-4.1127 ഉണ്ടെന്ന്	-0.0579
-3.9366 ഉണ്ടോ	-0.2640
-4.4139 ഉണ്ടോന്ന്	-0.0582
-3.0520 ഉണ്ട്	-0.4926
-3.7147 ഉത്തരം	-0.0580
-4.4139 ഉത്തരവാദിത്തങ്ങൾ	-0.0580
-4.4139 ഉത്തരവാദിത്തമുണ്ട്	0.0352
-4.4139 ഉത്തേജിപ്പിക്കും	0.0352
-4.4139 ഉത്സാഹിച്ചു	-0.0582
-4.4139 ഉദിക്കട്ടെ	0.0352
-4.4139 ഉദിച്ചു	0.0352
-4.4139 ഉദ്ദേശം	-0.0581
-4.1127 ഉദ്ദേശിക്കുന്നത്	-0.0576
-4.4139 ഉദ്ദേശിക്കുന്നില്ല	0.0352
-4.4139 ഉദ്ദേശിക്കുന്നു	0.0352
-3.7147 ഉദ്ദേശിച്ചത്	-0.1178
-4.1127 ഉദ്ദേശിച്ചില്ല	-0.1783
-4.4139 ഉപകരണം	-0.0581
-4.4139 ഉപകരണങ്ങൾ	-0.0582
-4.4139 ഉപകരണമോ	-0.0580
-4.4139 ഉപകാരപ്പെടില്ല	0.0352
-4.4139 ഉപകാരപ്പെടും	0.0352
-4.4139 ഉപകാരപ്രദമാണ്	0.0352
-4.4139 ഉപഗ്രഹങ്ങള്‍	-0.0581
-4.4139 ഉപദേഷ്ടാവ്	-0.0582
-4.4139 ഉപയോഗിക്കാം	0.0352
-4.4139 ഉപയോഗിക്കും	0.0352
-4.4139 ഉപയോഗിക്കുംബോളുള്ള	-0.0582
-4.4139 ഉപയോഗിച്ച്	0.0352
-4.4139 ഉപയോഗം	-0.0582
-4.4139 ഉപയോഗമുള്ളത്	-0.0579
-3.9366 ഉപയോഗശൂന്യമായ	-0.1883
-4.4139 ഉപയോഗിക്കട്ടേ	0.0352
-4.1127 ഉപയോഗിക്കാം	0.0359
-4.4139 ഉപയോഗിക്കാതിരുന്നത്	0.0352
-4.4139 ഉപയോഗിക്കാനും	-0.0582
-4.1127 ഉപയോഗിക്കുന്നത്	-0.1783
-4.4139 ഉപയോഗിച്ചതു	-0.0582
-4.4139 ഉപയോഗിച്ചത്	-0.0582
-4.4139 ഉപയോഗിച്ചാണത്	-0.0581
-4.4139 ഉപയോഗിച്ചാണ്	-0.0564
-4.1127 ഉപയോഗിച്ചു	-0.1783
-3.8116 ഉപയോഗിച്ച്	-0.0583
-4.1127 ഉപരി	0.0353
-4.4139 ഉപേക്ഷിക്കപ്പെട്ട	-0.0582
-4.4139 ഉപേക്ഷിക്കാം	0.0352
-4.1127 ഉപേക്ഷിക്കാൻ	0.0353
-4.4139 ഉപേക്ഷിക്കുക	-0.0582
-4.4139 ഉപേക്ഷിക്കേണ്ടി	-0.0579
-4.4139 ഉപേക്ഷിച്ചാൽ	-0.0581
-4.1127 ഉപേക്ഷിച്ചു	-0.0581
-4.4139 ഉപേക്ഷിച്ചുപോകുമോ	0.0352
-4.4139 ഉപേക്ഷിച്ച്	-0.0581
-4.4139 ഉപ്പിട്ട	-0.0582
-4.4139 ഉപ്പും	0.0352
-4.4139 ഉപ്പ്	-0.0582
-4.1127 ഉയരുന്നു	0.0355
-4.4139 ഉയിര്‍ത്തെഴുന്നേല്‍പ്പ്	0.0352
-4.4139 ഉയർത്തി	0.0352
-4.4139 ഉയർത്തുന്നു	0.0352
-4.4139 ഉയർന്ന	-0.0582
-4.4139 ഉരുക്കി	-0.0582
-4.1127 ഉരുളക്കിഴങ്ങ്	0.0352
-4.4139 ഉറക്കത്തിലായിരുന്നു	0.0352
-4.4139 ഉറക്കത്തിലേയ്ക്	-0.0582
-4.4139 ഉറക്കമായിരിക്കും	0.0352
-3.9366 ഉറക്കെ	0.0353
-4.4139 ഉറങ്ങാൻ	-0.0580
-4.4139 ഉറങ്ങിക്കോ	0.0352
-4.4139 ഉറങ്ങിപ്പോയി	0.0352
-4.4139 ഉറങ്ങിയില്ല	0.0352
-4.4139 ഉറങ്ങ്‌	0.0352
-3.8116 ഉറപ്പല്ലേ	-0.2947
-3.9366 ഉറപ്പാണോ	-0.0921
-4.1127 ഉറപ്പായിട്ടും	-0.0519
-4.4139 ഉറപ്പിക്കരുത്	-0.0580
-4.4139 ഉറപ്പിക്കാന്‍	-0.0572
-4.4139 ഉറപ്പുണ്ടോ	0.0352
-4.1127 ഉറപ്പുണ്ട്	-0.1783
-4.1127 ഉറപ്പുതരാം	-0.1783
-4.4139 ഉറപ്പുള്ളതാണ്	0.0352
-4.4139 ഉറപ്പുവരുത്തും	-0.0582
-4.4139 ഉറപ്പോ	0.0352
-3.8116 ഉറപ്പ്	-0.0576
-4.1127 ഉള്ള	-0.0581
-3.9366 ഉള്ളത്	-0.0936
-4.4139 ഉള്ളിലേയ്ക്	-0.0582
-4.1127 ഉള്ളില്‍	-0.0580
-4.4139 ഉള്ളു	0.0352
-3.9366 ഉവ്വ്	0.0354
-4.1127 ഉൾപ്പെടെ	-0.1783
-4.4139 ഊ	0.0352
-4.4139 ഊര്‍ജ്ജം	0.0352
-4.4139 ഊര്‍ജ്ജതന്ത്രജ്ഞനാണ്	0.0352
-4.4139 ഊഴമാണ്	0.0352
-4.4139 ഊഹ്	-0.0579
-4.1127 എ	0.0352
-4.4139 എക്കാലത്തേക്കാളും	-0.0580
-4.4139 എക്സ്മൈറ്റ്സ്	0.0352
-3.7147 എങ്കിലും	-0.0566
-3.8116 എങ്കില്‍	-0.0548
-4.4139 എങ്ങനിരുന്നു	0.0352
-2.9665 എങ്ങനെ	-0.0665
-4.4139 എങ്ങനെയാ	-0.0559
-3.4595 എങ്ങനെയാണ്	-0.3950
-3.9366 എങ്ങനെയായിരിക്കും	-0.2640
-4.4139 എങ്ങനെയും	-0.0582
-4.4139 എങ്ങനെയെങ്കിലും	0.0352
-4.4139 എങ്ങനെയെന്നത്	0.0352
-4.4139 എങ്ങാണ്ടൊരിടത്ത്	0.0352
-4.4139 എങ്ങും	-0.0582
-4.4139 എങ്ങെനെ	-0.0582
-3.9366 എങ്ങോട്ടാണ്	0.0353
-4.4139 എങ്ങോട്ടും	-0.0582
-4.4139 എങ്ങോട്ടെങ്കിലും	-0.0581
-4.4139 എങ്ങോട്ട്	-0.0580
-4.4139 എച്ച്	-0.0582
-3.6356 എച്ച്ഓഡി	-0.4291
-4.4139 എഞ്ചിനിൽ	-0.0581
-4.4139 എഞ്ചിനീയര്‍മാരെ	-0.0582
-4.4139 എഞ്ചിനീയറിംഗ്	-0.0577
-4.4139 എഞ്ചിനീയറും	-0.0582
-4.4139 എഞ്ചിനീയർ	-0.0582
-4.4139 എഞ്ചിൻ	-0.0582
-4.4139 എടാ	0.0352
-3.9366 എടീ	-0.0578
-4.4139 എടുക്കാംഡ്രാഗണിനെ	-0.0582
-4.4139 എടുക്കു	0.0352
-4.4139 എടുക്കും	0.0352
-4.4139 എടുക്കുക	0.0352
-4.4139 എടുക്കുകയും	-0.0579
-4.4139 എടുക്കുന്നതെന്തിനാണ്	0.0352
-4.1127 എടുക്കുന്നു	0.0352
-4.4139 എടുക്കുന്നുള്ളൂ	0.0352
-4.4139 എടുക്കുന്നോ	-0.0580
-4.4139 എടുക്കുമെന്നാണ്	0.0352
-4.4139 എടുക്കെടി	0.0352
-3.9366 എടുക്ക്	-0.2640
-4.4139 എടുത്ത	-0.0582
-4.4139 എടുത്തതാണ്	0.0352
-4.4139 എടുത്താലോ	-0.0582
-4.4139 എടുത്താല്‍	-0.0581
-4.4139 എടുത്തിട്ട്	-0.0581
-4.4139 എടുത്തില്ലേ	0.0352
-4.4139 എടുത്തുചാട്ടം	-0.0580
-4.1127 എടുത്തോ	0.0356
-4.4139 എടുത്തോണ്ട്	-0.0580
-4.4139 എടുത്തോളുഇത്	-0.0559
-4.1127 എടുത്ത്	0.0354
-4.1127 എടോ	-0.0581
-4.4139 എട്ടു	-0.0579
-4.1127 എട്ട്	0.0353
-4.4139 എഡമണ്ടിന്റെ	-0.0582
-4.4139 എഡമണ്ട്സിനെക്കുറിച്ച്	-0.0578
-4.1127 എഡമണ്ട്സ്	-0.0545
-4.4139 എഡ്മംഡ്സും	0.0352
-4.4139 എഡ്മംഡ്സ്	-0.0581
-3.7147 എഡ്മണ്ടിന്റെ	-0.2119
-4.4139 എഡ്മണ്ടിന്റേതാണ്	-0.0582
-4.4139 എഡ്മണ്ടുമായി	-0.0582
-4.1127 എണീക്ക്	0.0356
-4.1127 എണ്ണം	-0.0579
-4.4139 എണ്ണക്ക്	-0.0582
-4.4139 എണ്ണമുണ്ട്	-0.0582
-4.4139 എണ്ണി	0.0352
-4.4139 എതിർപ്പ്	-0.0578
-4.1127 എത്തണം	0.0353
-3.9366 എത്താൻ	-0.0580
-3.7147 എത്തി	-0.1183
-4.4139 എത്തിക്കാൻ	-0.0582
-4.4139 എത്തിക്കുന്നതിനായിരുന്നു	0.0352
-4.4139 എത്തിക്കുമെന്നുള്ള	-0.0581
-4.4139 എത്തിക്കൂ	0.0352
-4.4139 എത്തിച്ചിരിക്കുന്നു	0.0352
-4.1127 എത്തിച്ചു	-0.1783
-4.4139 എത്തിച്ചേർന്നു	-0.0576
-4.4139 എത്തിച്ച്	-0.0582
-4.4139 എത്തിയതുപോലെ	0.0352
-4.4139 എത്തിയത്	0.0352
-4.4139 എത്തിയില്ലേ	0.0352
-4.4139 എത്തിയെന്ന്	0.0352
-4.4139 എത്തിയേക്കാം	0.0352
-4.4139 എത്തിയ്ത്	0.0352
-4.1127 എത്തില്ലായിരുന്നു	-0.1783
-3.4137 എത്ര	-0.0574
-3.7147 എത്രത്തോളം	-0.0577
-4.4139 എത്രയാ	-0.0581
-4.1127 എത്രയാണ്	0.0359
-4.4139 എത്രയിലാണ്	-0.0582
-3.8116 എത്രെ	-0.1518
-4.1127 എനിക്കതറിയാം	0.0359
-4.1127 എനിക്കതിനെ	-0.0582
-4.4139 എനിക്കതിന്	-0.0581
-4.4139 എനിക്കതിന്റെ	-0.0582
-3.5106 എനിക്കത്	-0.0571
-4.4139 എനിക്കത്ര	0.0352
-4.1127 എനിക്കറിയണം	-0.1783
-3.2376 എനിക്കറിയാം	-0.0677
-3.9366 എനിക്കറിയാമായിരുന്നു	-0.0949
-3.6356 എനിക്കറിയില്ല	-0.0155
-4.4139 എനിക്കറിയില്ലായിരുന്നു	-0.0547
-4.4139 എനിക്കറിയേണ്ടത്	0.0352
-4.1127 എനിക്കവനെ	-0.0582
-4.1127 എനിക്കവളെ	0.0355
-4.4139 എനിക്കവിടെ	-0.0581
-4.4139 എനിക്കാകുമെന്നാണ്	-0.0582
-4.4139 എനിക്കാണുയരം	-0.0580
-4.4139 എനിക്കാണെന്ന്	-0.0580
-4.4139 എനിക്കായി	-0.0582
-4.4139 എനിക്കാവുമ്പോഴൊക്കെ	-0.0520
-4.4139 എനിക്കിതു	-0.0578
-4.4139 എനിക്കിതുവരെ	-0.0564
-3.8116 എനിക്കിത്	-0.0577
-4.4139 എനിക്കിപോൾ	-0.0582
-4.4139 എനിക്കിപ്പം	-0.0580
-4.4139 എനിക്കിപ്പഴേ	-0.0542
-4.1127 എനിക്കിപ്പോള്‍	-0.0530
-4.4139 എനിക്കിപ്പോൾ	-0.0579
-4.4139 എനിക്കിഷ്ടമാണ്	0.0352
-4.4139 എനിക്കിഷ്ടമായി	0.0352
-4.4139 എനിക്കിഷ്ട്ടായി	-0.0575
-4.4139 എനിക്കീ	-0.0582
-3.4595 എനിക്കു	-0.0965
-3.8116 എനിക്കും	0.0358
-4.1127 എനിക്കുമറിയാം	0.0352
-4.4139 എനിക്കുമിത്	-0.0582
-4.4139 എനിക്കുറപ്പാണ്	-0.0577
-4.4139 എനിക്കെത്രെ	-0.0582
-4.1127 എനിക്കെന്താണ്	-0.0578
-3.7147 എനിക്കെന്റെ	-0.1312
-4.1127 എനിക്കെന്‍റെ	-0.0581
-4.4139 എനിക്കെപ്പോളാണ്	-0.0581
-4.4139 എനിക്കൊന്നും	-0.0582
-4.4139 എനിക്കൊന്നേ	-0.0582
-3.4137 എനിക്കൊരു	-0.0572
-2.1989 എനിക്ക്	-0.0168
-3.2096 എന്താ	0.0222
-4.4139 എന്താണതിന്‍റെ	-0.0581
-4.4139 എന്താണതെന്ന്	-0.0579
-4.1127 എന്താണത്	0.0355
-4.4139 എന്താണന്ന്	-0.0582
-4.4139 എന്താണവിടെ	-0.0581
-4.4139 എന്താണാ	-0.0582
-4.1127 എന്താണിതിന്റെ	-0.0582
-4.4139 എന്താണിത്	0.0352
-3.9366 എന്താണിത്ര	-0.0581
-4.4139 എന്താണിപ്പോൾ	-0.0582
-3.8116 എന്താണിവിടെ	-0.0577
-4.4139 എന്താണീ	-0.0582
-4.4139 എന്താണു	0.0352
-4.4139 എന്താണുള്ളത്	0.0352
-4.4139 എന്താണെന്നു	-0.0554
-3.9366 എന്താണെന്ന്	0.0356
-3.0158 എന്താണ്	-0.0460
-4.4139 എന്താന്നാൽ	-0.0579
-4.4139 എന്താന്നുവച്ചാൽ	-0.0576
-3.5686 എന്തായാലും	-0.0053
-4.4139 എന്തായി	0.0352
-4.4139 എന്തായിരുന്നു	0.0352
-3.9366 എന്തിനാ	-0.0542
-4.4139 എന്തിനാണവൾ	-0.0574
-4.4139 എന്തിനാണെന്നും	-0.0580
-4.4139 എന്തിനാണെന്ന്	-0.0582
-3.5686 എന്തിനാണ്	-0.0533
-4.4139 എന്തിനു	0.0352
-4.4139 എന്തിനുവേണ്ടി	-0.0574
-4.4139 എന്തിനെയാണെന്ന്	0.0352
-3.5106 എന്തിന്	-0.3541
-3.7147 എന്തു	-0.0577
-4.4139 എന്തും	-0.0580
-4.4139 എന്തുകാര്യം	0.0352
-4.4139 എന്തുകൊണ്ട്	-0.0559
-4.4139 എന്തുകൊണ്ടിത്	-0.0582
-3.5106 എന്തുകൊണ്ട്	-0.0029
-4.4139 എന്തുചെയ്യന്‍	-0.0580
-4.4139 എന്തുചെയ്യും	-0.0574
-4.4139 എന്തുപറയും	0.0352
-4.4139 എന്തുപറയുന്നു	-0.0569
-3.9366 എന്തുപറ്റി	-0.0948
-4.4139 എന്തുപറ്റും	0.0352
-4.4139 എന്തുസംഭവിക്കും	0.0352
-3.2096 എന്തെങ്കിലും	-0.0576
-4.4139 എന്തെങ്കിലുമാവട്ടെ	-0.0582
-4.4139 എന്തെങ്കിലുമൊക്കെ	-0.0581
-4.4139 എന്തെങ്കിലുമൊന്ന്	-0.0582
-4.4139 എന്തെന്നാല്‍	-0.0580
-4.4139 എന്തെല്ലാം	-0.0578
-3.8116 എന്തൊരു	-0.0581
-4.4139 എന്തൊര്	-0.0582
-3.4137 എന്തോ	-0.1185
-3.0520 എന്ത്	-0.0225
-4.1127 എന്ന	0.0352
-4.4139 എന്നതിനാൽ	-0.0582
-4.4139 എന്നതിനെക്കുറിച്ചും	0.0352
-4.4139 എന്നതിലാണ്	-0.0578
-4.1127 എന്നത്	0.0353
-4.4139 എന്നദ്ദേഹം	-0.0582
-4.4139 എന്നപോലെയാണ്	-0.0580
-4.4139 എന്നലറുക	0.0352
-4.4139 എന്നല്ലല്ലോ	0.0352
-4.4139 എന്നല്ലേ	-0.0581
-4.4139 എന്നവരോട്	-0.0581
-3.9366 എന്നാ	0.0356
-4.4139 എന്നാണവളുടെ	-0.0580
-4.4139 എന്നാണു	-0.0581
-4.4139 എന്നാണോ	0.0352
-3.3723 എന്നാണ്	-0.2030
-4.4139 എന്നായിരുന്നു	-0.0569
-4.4139 എന്നാലത്	-0.0582
-4.4139 എന്നാലിതാര്	-0.0582
-3.8116 എന്നാലും	-0.0544
-3.0915 എന്നാല്‍	-0.0031
-4.4139 എന്നാവണ്ടിയിരുന്നു	0.0352
-4.4139 എന്നിട്ടും	-0.0560
-4.4139 എന്നിട്ട്	-0.0560
-4.4139 എന്നു	0.0352
-3.8116 എന്നും	-0.0576
-4.4139 എന്നുമുതലാണ്	-0.0564
-4.1127 എന്നുള്ളതാണ്	-0.1783
-4.4139 എന്നുവിളിച്ചാൽ	-0.0579
-3.0335 എന്നെ	-0.0703
-4.4139 എന്നെങ്കിലും	-0.0542
-4.4139 എന്നെത്തന്നെ	-0.0570
-4.4139 എന്നെപ്പോലെ	-0.0582
-4.4139 എന്നെയല്ല	-0.0582
-4.4139 എന്നെയും	-0.0582
-3.0713 എന്നോട്	-0.0273
-3.9366 എന്നൊക്കെ	-0.0581
-4.4139 എന്നൊന്നില്ലടീ	-0.0582
-4.4139 എന്നൊന്ന്	-0.0575
-4.4139 എന്നോ	0.0352
-4.4139 എന്നോടൊപ്പം	-0.0582
-2.8952 എന്ന്	-0.0979
-4.4139 എന്‍ജിനുകള്‍	-0.0582
-3.8116 എന്‍ജിന്‍	-0.0518
-4.4139 എന്‍ജിന്‍സ്	-0.0520
-2.5386 എന്‍റെ	-0.0035
-4.4139 എന്‍റെകൂടെ	-0.0580
-4.4139 എന്‍റെതാണെന്ന്	-0.0582
-4.4139 എന്‍റെയൊപ്പം	-0.0582
-4.4139 എന്‍റെയൊരു	-0.0582
-4.4139 എപ്പോഴും	0.0352
-4.4139 എപ്പോളുമൊരു	-0.0582
-3.7147 എപ്പോഴും	-0.0381
-4.4139 എപ്പോഴെങ്കിലും	-0.0582
-4.4139 എപ്പോൾ	-0.0581
-4.1127 എയര്‍	-0.0582
-4.4139 എയും	-0.0542
-4.4139 എയർപോർട്ടിൽ	-0.0578
-4.4139 എരിവാണ്	0.0352
-4.4139 എരിവുള്ള	0.0352
-4.4139 എരിവ്	-0.0582
-4.4139 എറുമ്പ്	-0.0581
-4.4139 എലിക്കുഞ്ഞുങ്ങള്‍	-0.0582
-3.5686 എല്ലാ	-0.0581
-3.2096 എല്ലാം	0.0164
-4.4139 എല്ലാത്തിനുമുള്ള	-0.0582
-4.4139 എല്ലാമങ്ങെനെ	-0.0582
-4.4139 എല്ലാമുണ്ട്	0.0352
-4.1127 എല്ലായിടത്തും	-0.0581
-4.4139 എല്ലായിടത്തേക്കും	-0.0582
-4.1127 എല്ലായ്പോഴും	-0.0557
-4.4139 എല്ലായ്പ്പോഴും	0.0352
-4.4139 എല്ലാരും	-0.0582
-3.6356 എല്ലാവരും	-0.0576
-4.4139 എല്ലാവരുമെന്നോട്	-0.0582
-3.8116 എല്ലാവരെയും	-0.0578
-4.4139 എല്ലാവരേയും	-0.0582
-4.4139 എല്ലാവരോടും	-0.0582
-4.4139 എല്ലാവർക്കും	-0.0581
-4.4139 എല്ലാവർക്കുമുള്ള	-0.0582
-4.1127 എല്ലി	-0.2717
-4.4139 എളുപ്പമല്ല	0.0352
-4.4139 എളുപ്പവു	0.0352
-4.4139 എളുപ്പവുമാണ്	-0.0581
-4.4139 എഴുതാനാകും	0.0352
-4.4139 എഴുതി	-0.0582
-4.4139 എഴുതിയിട്ടുണ്ട്	0.0352
-4.4139 എഴുതുകയല്ല	0.0352
-4.4139 എഴുതുമ്പോൾ	0.0352
-4.4139 എഴുന്നേൽക്ക്	0.0352
-4.4139 എവിടുന്നാണ്	-0.0581
-4.4139 എവിടുന്ന്	-0.0580
-3.7147 എവിടെ	-0.2056
-4.1127 എവിടെയാ	-0.0569
-4.4139 എവിടെയാണെന്നാണ്	-0.0582
-3.6356 എവിടെയാണ്	-0.1522
-4.4139 എവിടെയായിരുന്നു	0.0352
-4.1127 എവിടെയും	-0.0582
-4.4139 എവിടെയെങ്കിലും	-0.0582
-4.4139 എവിടേക്കാ	-0.0582
-4.4139 എസ്	-0.0582
-4.1127 എൻജിൻ	-0.2717
-4.4139 ഏക	-0.0579
-3.9366 ഏകത്വം	0.0366
-4.4139 ഏകദേശം	0.0352
-3.9366 ഏത്	-0.0949
-4.4139 ഏതാണ്	0.0352
-4.4139 ഏതിലൂടെ	-0.0582
-3.9366 ഏതു	-0.1879
-4.4139 ഏതെങ്കിലും	-0.0582
-4.4139 ഏതൊക്കെ	0.0352
-3.7147 ഏമ്പക്കം	-0.0580
-4.4139 ഏയ്‌	0.0352
-4.4139 ഏറെ	-0.0581
-3.2998 ഏറ്റവും	-0.1434
-4.4139 ഏറ്റു	0.0352
-4.4139 ഏറ്റെടുക്കണം	0.0352
-4.4139 ഏറ്റെടുക്കുക	0.0352
-4.4139 ഏറ്റെടുക്കുകയാണ്	0.0352
-4.4139 ഏറ്റെടുക്കുന്നു	0.0352
-4.4139 ഏറ്റെടുക്കൂ	0.0352
-4.4139 ഏല്‍പ്പിച്ചു	-0.0577
-4.4139 ഏഴിന്	-0.0520
-4.1127 ഏഴു	-0.0579
-4.4139 ഏഴ്	-0.0582
-4.4139 ഏഹ്	0.0352
-4.4139 ഏൻഡുറൻസ്	-0.0582
-4.4139 ഏർപ്പെട്ടകാര്യം	-0.0582
-4.4139 ഏർപ്പെട്ടിരുന്നുവെന്നാണ്	0.0352
-4.1127 ഐ	-0.2717
-3.9366 ഒക്കെ	0.0357
-4.4139 ഒക്കെയാണ്	0.0352
-4.4139 ഒക്സിജെൻ	-0.0582
-4.4139 ഒടുക്കം	-0.0582
-4.4139 ഒട്ടിക്കും	0.0352
-4.4139 ഒത്തിണക്കൂ	0.0352
-4.1127 ഒത്തിരി	-0.0581
-4.4139 ഒന്നാം	-0.0580
-4.4139 ഒന്നാണ്	0.0352
-4.4139 ഒന്നായി	-0.0582
-4.1127 ഒന്നിച്ചിരുന്ന്	-0.0582
-4.4139 ഒന്നിനും	0.0352
-4.4139 ഒന്നിനെ	-0.0582
-4.4139 ഒന്നിരിക്കാമോ	0.0352
-4.4139 ഒന്നിറങ്ങ്	0.0352
-3.8116 ഒന്നു	-0.0579
-3.2376 ഒന്നും	0.0391
-4.1127 ഒന്നുകൂടി	-0.0579
-4.4139 ഒന്നുകൂടെ	-0.0581
-4.4139 ഒന്നുക്കൂടി	-0.0578
-4.4139 ഒന്നുണ്ടാക്കി	-0.0581
-4.1127 ഒന്നുമറിയില്ല	-0.1783
-4.4139 ഒന്നുമറിയില്ലാ	0.0352
-3.9366 ഒന്നുമല്ല	-0.0936
-4.4139 ഒന്നുമിട്ടിട്ടില്ലാ	0.0352
-4.1127 ഒന്നുമില്ല	-0.1783
-4.4139 ഒന്നുമില്ലല്ലോ	0.0352
-4.1127 ഒന്നുമില്ലാ	-0.1783
-4.4139 ഒന്നുമില്ലെന്ന്	0.0352
-4.4139 ഒന്നുമുണ്ടായില്ലല്ലോ	0.0352
-4.4139 ഒന്നൂടെ	-0.0581
-4.4139 ഒന്നെങ്കിലും	-0.0574
-4.4139 ഒന്നോ	-0.0582
-3.2376 ഒന്ന്	-0.0291
-4.4139 ഒപ്പം	-0.0582
-4.4139 ഒപ്പമുണ്ടാകില്ലേ	0.0352
-4.4139 ഒപ്പിച്ചുതരാന്‍	-0.0581
-4.4139 ഒപ്റ്റിക്കല്‍	-0.0582
-4.4139 ഒരധികപ്പറ്റായിരിക്കില്ലെന്നും	0.0352
-4.4139 ഒരനാഥന്‍	-0.0579
-4.4139 ഒരമ്മയും	-0.0582
-4.4139 ഒരാളാണ്	-0.0582
-4.4139 ഒരാളെങ്കിലും	0.0352
-4.1127 ഒരാള്‍	-0.1783
-4.4139 ഒരാവശ്യമായി	-0.0582
-4.1127 ഒരാൾ	0.0352
-3.5686 ഒരിക്കലും	-0.0577
-4.4139 ഒരിക്കല്‍	0.0352
-4.4139 ഒരിങ്ങിയിട്ടില്ല	0.0352
-2.0445 ഒരു	-0.0193
-4.4139 ഒരുക്കങ്ങളും	-0.0581
-4.4139 ഒരുക്കുന്ന	-0.0582
-4.1127 ഒരുതവണ	-0.0578
-4.4139 ഒരുത്തരമുണ്ടെങ്കില്‍	0.0352
-4.4139 ഒരുദിവസം	-0.0582
-4.4139 ഒരുപാടാളുകൾ	-0.0580
-3.3723 ഒരുപാട്	-0.0275
-4.1127 ഒരുമിച്ചായിരുന്നു	-0.1783
-4.4139 ഒരുമിച്ചു	-0.0582
-4.4139 ഒരുവളുടെ	-0.0579
-4.1127 ഒരെണ്ണം	-0.0579
-3.9366 ഒരേ	-0.0581
-3.6356 ഒരേയൊരു	-0.1820
-4.4139 ഒരൊഴിവ്	-0.0582
-4.4139 ഒര്‍മ്മയുണ്ടോ	0.0352
-4.4139 ഒരൽപം	-0.0582
-4.1127 ഒറ്റ	-0.0581
-4.1127 ഒറ്റക്കാണ്	-0.0577
-4.4139 ഒറ്റക്കൈകൊണ്ട്	-0.0579
-3.6356 ഒറ്റക്ക്	0.0360
-4.4139 ഒറ്റപ്പെട്ട	-0.0582
-4.4139 ഒറ്റപ്പെട്ടപോലെ	-0.0581
-4.4139 ഒറ്റയ്കല്ല	0.0352
-3.9366 ഒറ്റയ്ക്	0.0354
-4.4139 ഒറ്റയ്ക്കാണോ	0.0352
-4.4139 ഒറ്റയ്ക്കാവില്ലെന്ന്	0.0352
-4.4139 ഒറ്റയ്ക്കൊരു	-0.0581
-3.8116 ഒലക്സാണ്ടർ	-0.0585
-4.4139 ഒളിക്കാനാ	-0.0582
-4.4139 ഒളിപ്പിക്കുന്ന	-0.0581
-4.1127 ഒഴികെ	0.0354
-3.9366 ഒഴിവാക്കി	-0.2640
-4.4139 ഒഴിവാക്കുക	0.0352
-4.4139 ഒഴിവാണ്	0.0352
-4.4139 ഒഴിവുസമയങ്ങളിൽ	-0.0582
-4.4139 ഒഴുകിനടക്കുകയായിരിക്ക​​ണം	0.0352
-3.9366 ഒഹ്	-0.1841
-4.4139 ഒൻപത്	0.0352
-2.8822 ഓ	0.0076
-3.5686 ഓകെ	-0.0052
-4.4139 ഓകെയല്ലേ	0.0352
-4.1127 ഓക്കെ	-0.0577
-3.2676 ഓക്കേ	-0.1368
-4.1127 ഓക്സിജന്‍	-0.0582
-4.1127 ഓക്സിജന്‍റെ	-0.0582
-4.4139 ഓക്സിജെനും	-0.0582
-4.4139 ഓടിക്കാനും	-0.0582
-4.4139 ഓടിക്കാൻ	-0.0582
-4.4139 ഓടിക്കൊണ്ടിരിക്കുന്നിടത്തോളം	-0.0581
-4.4139 ഓടിച്ചോണ്ടിരിക്കാന്‍	-0.0579
-4.4139 ഓടിച്ചോളാം	0.0352
-4.4139 ഓടിപ്പിക്കാന്‍	0.0352
-4.4139 ഓട്ടോപൈലറ്റിന്	-0.0582
-3.8116 ഓട്ടോമാറ്റണ്‍	0.0360
-4.4139 ഓണാക്കു	0.0352
-4.1127 ഓണ്‍	-0.0582
-4.1127 ഓഫാക്കുകയാണ്	0.0354
-4.4139 ഓഫീസര്‍	-0.0542
-4.4139 ഓഫീസിലേക്ക്	-0.0582
-4.1127 ഓഫീസിൽ	-0.0581
-4.4139 ഓഫീസ്	-0.0581
-4.4139 ഓയ്	0.0352
-4.4139 ഓരോ	-0.0582
-3.5106 ഓരോ	0.0354
-4.4139 ഓരോന്നിനുമുള്ള	-0.0582
-4.4139 ഓര്‍ക്കില്ല	0.0352
-4.4139 ഓര്‍ക്കുന്നു	0.0352
-4.4139 ഓര്‍ഗാനിക്സ്	0.0352
-4.4139 ഓര്‍ത്തെടുക്കാനുള്ള	-0.0582
-4.4139 ഓര്‍ത്തോ	0.0352
-4.4139 ഓര്‍ത്ത്	-0.0582
-4.4139 ഓര്‍ബിറ്റിലേയ്ക്	-0.0582
-4.4139 ഓര്‍മ്മകള്‍	0.0352
-4.4139 ഓര്‍മ്മവേണം	0.0352
-4.4139 ഓവർ	0.0352
-4.4139 ഓസെഡിനേയും	0.0352
-4.4139 ഓഹോ	0.0352
-3.2096 ഓഹ്	-0.0145
-4.4139 ഓഹ്നമസ്തേ	0.0352
-4.1127 ഓർക്കുക	0.0354
-4.4139 ഓർഗാനിക്	-0.0581
-4.4139 ഓർമ്മ	-0.0579
-4.4139 ഓർമ്മകൾ	-0.0582
-4.4140 കംപ്യൂട്ടർ	0.0000
-4.1127 കട	-0.0574
-4.1127 കടകളില്‍	-0.0578
-4.4139 കടക്കാം	0.0352
-4.4139 കടക്കാന്‍	-0.0582
-4.4139 കടക്കാറില്ല	-0.0582
-4.4139 കടക്കേണ്ടതുണ്ടായിരുന്നു	0.0352
-4.4139 കടക്കേണ്ടതുണ്ട്	0.0352
-4.4139 കടക്ക്	0.0352
-4.4139 കടത്തിവിടാനാവുമെന്ന്	-0.0570
-4.4139 കടന്നിട്ടില്ല	0.0352
-4.4139 കടന്നു	-0.0578
-4.4139 കടന്നുപോ	-0.0581
-4.4139 കടന്നുപോകുന്നത്	0.0352
-4.4139 കടന്നുപോയിട്ടില്ല	0.0352
-4.4139 കടന്ന്	0.0352
-4.4139 കടപ്പെട്ടിരിക്കുന്നു	0.0352
-4.4139 കടമ	-0.0582
-4.4139 കടമയാണ്	-0.0578
-4.4139 കടമായിട്ട്	-0.0582
-4.1127 കടമ്പ	0.0352
-4.4139 കടയായിരുന്നു	0.0352
-4.4139 കടയില്‍	-0.0578
-4.4139 കടിച്ച്	-0.0582
-4.4139 കടുത്ത	-0.0582
-4.4139 കടുപ്പക്കാരനാണ്	0.0352
-4.4139 കട്ടെടുത്തു	0.0352
-4.4139 കട്ട്	-0.0582
-4.4139 കഠിന	-0.0582
-4.4139 കഠിനപ്രയത്നം	-0.0578
-4.4139 കഠിനമായി	-0.0582
-4.4139 കഠിനമായിരിക്കുമെന്ന്	-0.0582
-4.4139 കണക്കാക്കാം	0.0352
-4.4139 കണക്കാക്കിയാൽ	0.0352
-4.4139 കണികാതന്ത്രത്തിന്റെ	-0.0578
-4.4139 കണികാതന്ത്രവുമായി	-0.0582
-3.7147 കണ്ട	-0.0562
-4.4139 കണ്ടതാണ്	0.0352
-3.8116 കണ്ടതില്‍	-0.0579
-4.4139 കണ്ടതില്‍വച്ച്	0.0352
-3.9366 കണ്ടത്	-0.2640
-4.4139 കണ്ടത്താൻ	-0.0581
-4.4139 കണ്ടാൽ	-0.0579
-4.1127 കണ്ടിട്ടില്ല	0.0353
-4.4139 കണ്ടിട്ടില്ലെന്നോ	0.0352
-4.4139 കണ്ടിട്ടുണ്ടായിരുന്നില്ല	0.0352
-4.4139 കണ്ടിട്ടുണ്ടോ	0.0352
-3.9366 കണ്ടിട്ടുണ്ട്	-0.2640
-4.4139 കണ്ടിരുന്നില്ലെങ്കിൽ	0.0352
-4.4139 കണ്ടിരുന്നില്ലേ	0.0352
-4.4139 കണ്ടിരുന്നു	0.0352
-4.4139 കണ്ടിരുന്നോ	0.0352
-4.4139 കണ്ടില്ല	0.0352
-4.4139 കണ്ടില്ലല്ലോ	0.0352
-3.7147 കണ്ടില്ലേ	-1.2998
-3.3723 കണ്ടു	-0.7349
-4.4139 കണ്ടുനോക്ക്	0.0352
-4.4139 കണ്ടുപിടിക്കണം	-0.0582
-4.1127 കണ്ടുപിടിക്കാന്‍	-0.1783
-4.1127 കണ്ടുപിടിക്കും	-0.1783
-4.4139 കണ്ടുപിടിക്കേണ്ടത്	0.0352
-4.4139 കണ്ടുപിടിച്ചതല്ല	0.0352
-4.4139 കണ്ടുപിടിച്ചിട്ടുണ്ട്	0.0352
-4.1127 കണ്ടുപിടിച്ചു	-0.1783
-4.4139 കണ്ടുപിടിച്ച്	0.0352
-4.4139 കണ്ടുപിടുത്തക്കാർ	-0.0582
-4.4139 കണ്ടുപിടുത്തവുമായി	-0.0582
-4.4139 കണ്ടുപോകരുത്	0.0352
-4.4139 കണ്ടുമുട്ടി	-0.0581
-4.4139 കണ്ടുമുട്ടിയത്	-0.0582
-4.4139 കണ്ടുമുട്ടുമെന്ന്	0.0352
-4.4139 കണ്ടൂടെ	0.0352
-4.1127 കണ്ടെത്തണം	-0.1783
-4.1127 കണ്ടെത്താനാവില്ല	-0.1783
-4.4139 കണ്ടെത്താനുണ്ട്	0.0352
-3.8116 കണ്ടെത്താന്‍	-0.0555
-3.8116 കണ്ടെത്തി	-0.2947
-4.4139 കണ്ടെത്തിയതാണത്	0.0352
-4.4139 കണ്ടെത്തിയതാണ്	0.0352
-3.9366 കണ്ടെത്തിയത്	-0.2640
-4.4139 കണ്ടെത്തിയിരിക്കുന്നു	0.0352
-4.4139 കണ്ടെത്തിയിരുന്നു	0.0352
-4.4139 കണ്ടെത്തിയെന്ന്	-0.0582
-4.4139 കണ്ടെത്തും	-0.0576
-4.4139 കണ്ടെത്തുക	0.0352
-4.4139 കണ്ടെത്തുകയാണെങ്കിൽ	0.0352
-4.4139 കണ്ടെത്തുന്ന	-0.0578
-4.4139 കണ്ടെത്തുമ്പോള്‍	0.0352
-4.4139 കണ്ടെത്തേണ്ടിയിരിക്കുന്നു	0.0352
-4.4139 കണ്ടെത്തേണ്ടിയിരുന്നു	0.0352
-4.1127 കണ്ടെത്ത്	-0.1783
-3.7147 കണ്ടോ	-0.2041
-4.4139 കണ്ട്രോളുകൾ	-0.0582
-4.4139 കണ്ണിലേക്ക്	-0.0542
-4.4139 കണ്ണില്‍	-0.0547
-4.4139 കണ്ണുകൾ	-0.0582
-4.4139 കത്തിക്കാതെ	-0.0582
-3.8116 കത്തിക്കാന്‍	-0.0577
-4.4139 കത്തിക്കും	0.0352
-4.4139 കത്തിക്കുന്നതിനും	-0.0580
-4.4139 കത്തിക്കുവാ	0.0352
-4.4139 കത്തിച്ചിട്ടില്ല	0.0352
-4.4139 കത്തിച്ചു	-0.0582
-4.4139 കത്തിപ്പോയി	0.0352
-3.9366 കഥ	-0.0949
-4.1127 കഥകള്‍	0.0353
-4.4139 കഥയാണ്	0.0352
-4.4139 കന്തികമോ	-0.0580
-4.4139 കപ്പിയും	0.0352
-4.4139 കപ്പു	-0.0578
-4.4139 കപ്പും	-0.0579
-4.4139 കപ്പോ	-0.0581
-4.1127 കപ്പൽ	-0.0577
-4.4139 കബാറെറ്റ്	0.0352
-4.1127 കമിഴ്തിയാണ്	-0.2717
-4.4139 കമിഴ്തിവെക്കുമായിരുന്നു	0.0352
-4.4139 കമ്പനിക്ക്	-0.0582
-4.4139 കമ്പനിയിൽ	-0.0581
-4.4139 കമ്പനിയുടെ	-0.0582
-4.4139 കമ്പമുണ്ട്	0.0352
-4.4139 കമ്പ്യൂട്ടറിലെത്തിക്കൂ	0.0352
-4.1127 കമ്പ്യൂട്ടറിൽ	-0.0577
-4.4139 കമ്പ്യൂട്ടറുകള്‍	-0.0582
-3.8116 കമ്പ്യൂട്ടർ	-0.1519
-4.4139 കയര്‍	-0.0581
-4.1127 കയറണം	-0.1783
-4.4139 കയറാം	-0.0578
-4.4139 കയറാനും	0.0352
-4.4139 കയറാൻ	-0.0579
-3.8116 കയറി	-0.2947
-4.4139 കയറിയോ	0.0352
-4.4139 കയറുകയും	0.0352
-4.4139 കയറുന്നു	0.0352
-4.4139 കയറുമോ	-0.0582
-4.4139 കയറൂ	0.0352
-4.4139 കയറ്	0.0352
-4.4139 കയറ്റി	-0.0582
-4.4139 കയ്യാങ്കളി	-0.0581
-4.4139 കയ്യിലാണ്	0.0352
-4.4139 കയ്യിലില്ല	0.0352
-4.4139 കയ്യിലുണ്ടായിരുന്ന	-0.0582
-4.4139 കയ്യിലുണ്ടെങ്കില്‍	0.0352
-4.1127 കയ്യിലുണ്ടോ	-0.1783
-4.4139 കയ്യിലുണ്ട്	0.0352
-3.6356 കയ്യില്‍	0.0355
-4.4139 കരകയറ്റിയത്	0.0352
-4.4139 കരഘോഷം	0.0352
-4.4139 കരഞ്ഞു	0.0352
-4.4139 കരയരുത്	0.0352
-4.4139 കരയിലോ	0.0352
-4.4139 കരയില്‍	-0.0581
-4.1127 കരയും	-0.1783
-4.4139 കരയുകയാണോ	0.0352
-4.4139 കരയുകയായിരുന്നു	0.0352
-4.4139 കരയുന്നത്	-0.0581
-4.4139 കരവിരുതുകൊണ്ടോ	0.0352
-4.4139 കരീനക്ക്	-0.0578
-4.4139 കരുണ	-0.0582
-4.4139 കരുതാന്‍	-0.0542
-3.5686 കരുതി	-0.0468
-4.4139 കരുതിയ	0.0352
-3.9366 കരുതിയത്	-0.0949
-4.4139 കരുതിയിരുന്ന	-0.0582
-4.4139 കരുതിയിരുന്നു	-0.0574
-4.4139 കരുതിയില്ലാ	0.0352
-4.4139 കരുതിയോ	0.0352
-4.4139 കരുതുന്ന	-0.0581
-4.4139 കരുതുന്നത്	0.0352
-3.9366 കരുതുന്നു	0.0383
-4.4139 കരുതുന്നുണ്ടോ	0.0352
-4.4139 കര്‍ഷകന്‍	-0.0582
-4.4139 കര്‍ഷകരെ	0.0352
-3.9366 കറക്കം	0.0353
-4.4139 കറക്കവുമായി	-0.0582
-4.4139 കറങ്ങുന്ന	-0.0582
-4.4139 കറന്‍റിന്‍റെ	-0.0578
-4.1127 കലപില	0.0353
-4.4139 കലമാനിനെ	-0.0582
-4.4139 കലാകാരനാണ്	0.0352
-4.1127 കല്യാണം	-0.0580
-4.4139 കല്യാണത്തിനു	-0.0581
-4.4139 കല്യാണത്തിന്‍റെ	-0.0582
-4.4139 കളഞ്ഞു	0.0352
-4.4139 കളപ്പുരയിൽ	-0.0579
-4.4139 കളയും	0.0352
-4.4139 കളയുന്നു	0.0352
-4.4139 കളര്‍	-0.0582
-4.4139 കളറാണ്	0.0352
-4.4139 കളറില്‍	0.0352
-3.9366 കളവ്	0.0404
-4.1127 കളി	-0.0574
-4.4139 കളികാണാന്‍	-0.0581
-4.4139 കളിക്കാം	-0.0580
-4.4139 കളിക്കാറുണ്ടന്ന്	0.0352
-4.4139 കളിക്കാറുണ്ട്	0.0352
-4.4139 കളിക്കാൻ	0.0352
-4.4139 കളിക്കുക	0.0352
-4.4139 കളിക്കുകയാവും	0.0352
-4.4139 കളിക്കുന്നതിന്	0.0352
-4.4139 കളിക്കുന്നത്	0.0352
-4.4139 കളിക്കുന്നുണ്ടല്ലോ	0.0352
-4.4139 കളിക്കുന്നുണ്ട്	-0.0581
-4.4139 കളിക്ക്	0.0352
-4.4139 കളിച്ചതാണ്	0.0352
-4.4139 കളിച്ചു	-0.0582
-4.4139 കളിപ്പാട്ടം	0.0352
-4.4139 കളിപ്പാട്ടക്കട	-0.0581
-4.4139 കള്ളക്കളി	-0.0582
-4.4139 കള്ളത്തരത്തേക്കാള്‍	0.0352
-4.1127 കള്ളനല്ല	-0.1783
-4.4139 കള്ളനും	-0.0582
-4.4139 കള്ളനുമാണ്	0.0352
-4.4139 കള്ളനോട്	0.0352
-4.4139 കള്ളന്മാരുമായി	-0.0582
-3.9366 കള്ളന്‍	-0.0949
-4.4139 കള്ളാ	0.0352
-4.4139 കള്ളീ	-0.0564
-4.4139 കള്ളുകുടിച്ചിട്ടുണ്ടോ	0.0352
-4.4139 കഴിക്കട്ടെ	0.0352
-4.4139 കഴിക്കലും	-0.0582
-4.4139 കഴിക്കാം	0.0352
-4.4139 കഴിക്കാതെ	-0.0582
-4.4139 കഴിക്കാറ്	0.0352
-3.7147 കഴിക്കാൻ	-0.1311
-4.4139 കഴിക്കുന്നത്	0.0352
-4.4139 കഴിക്ക്	-0.0579
-4.4139 കഴിച്ചിട്ടില്ല	0.0352
-4.4139 കഴിച്ചിട്ടില്ലാ	0.0352
-4.4139 കഴിച്ചിട്ടില്ലേ	0.0352
-4.4139 കഴിച്ചിരിക്കണം	-0.0578
-4.4139 കഴിച്ചു	-0.0581
-4.4139 കഴിച്ച്	-0.0582
-3.8116 കഴിഞ്ഞ	-0.0578
-4.4139 കഴിഞ്ഞതിനു	-0.0580
-4.4139 കഴിഞ്ഞതുപോലയല്ലാ	0.0352
-4.4139 കഴിഞ്ഞപ്പോള്‍	-0.0581
-4.4139 കഴിഞ്ഞപ്രാവശ്യം	-0.0582
-4.1127 കഴിഞ്ഞാൽ	-0.0569
-4.1127 കഴിഞ്ഞിട്ട്	0.0357
-4.1127 കഴിഞ്ഞില്ല	-0.1783
-3.6356 കഴിഞ്ഞു	-0.1549
-4.4139 കഴിഞ്ഞുവെന്ന്	0.0352
-4.4139 കഴിഞ്ഞെക്കും	0.0352
-4.1127 കഴിഞ്ഞേനെ	-0.1783
-4.4139 കഴിഞ്ഞോ	0.0352
-4.1127 കഴിഞ്ഞ്	-0.0580
-4.4139 കഴിയാതത്	-0.0581
-3.4137 കഴിയില്ല	-0.9858
-3.5686 കഴിയില്ലാ	-0.6848
-3.5106 കഴിയും	-0.1044
-4.4139 കഴിയുക	0.0352
-4.4139 കഴിയുകയും	-0.0579
-4.4139 കഴിയുകയൊള്ളൂ	0.0352
-4.4139 കഴിയുകായെന്ന്	-0.0571
-4.1127 കഴിയുന്നില്ല	-0.1783
-4.4139 കഴിയുന്നില്ലന്നോ	-0.0582
-4.4139 കഴിയുന്നില്ലാ	0.0352
-4.4139 കഴിയുന്നില്ലേ	0.0352
-4.4139 കഴിയുന്നുണ്ട്	0.0352
-4.4139 കഴിയുമായിരുന്നു	0.0352
-4.4139 കഴിയുമെങ്കിൽ	0.0352
-4.4139 കഴിയുമെന്ന്	-0.0570
-3.9366 കഴിയുമോ	-0.2640
-4.4139 കഴിയുമ്പോൾ	-0.0581
-4.4139 കഴിവുകളുണ്ട്	0.0352
-4.4139 കഴിവ്	-0.0581
-4.4139 കഴുകട്ടെ	0.0352
-4.4139 കഴുത്തിറങ്ങിയ	-0.0582
-4.4139 കവണ	0.0352
-4.4139 കവയത്രിയുടെ	-0.0580
-3.8116 കവിത	-0.1515
-4.4139 കഷണം	-0.0582
-4.4139 കഷ്ടടം	-0.0581
-4.4139 കഷ്ടപ്പെടുന്നതുകാണാന്‍	-0.0554
-4.4139 കഷ്ടപ്പെട്ടു	0.0352
-4.4139 കസിനാണ്	-0.0579
-3.5686 കാണണം	-0.6848
-3.9366 കാണണോ	-0.0947
-4.4139 കാണപ്പെടുന്നു	0.0352
-4.4139 കാണപ്പെട്ടത്	0.0352
-4.4139 കാണരുത്	0.0352
-3.5686 കാണാം	-0.4612
-4.4139 കാണാത്ത	0.0352
-4.4139 കാണാനാഗ്രഹമുണ്ടോ	0.0352
-4.4139 കാണാനാണെങ്കിൽ	-0.0560
-4.4139 കാണാനാണ്	-0.0581
-4.1127 കാണാനും	0.0352
-4.4139 കാണാനുള്ള	-0.0580
-3.8116 കാണാന്‍	0.0359
-4.4139 കാണാമായിരുന്നു	0.0352
-4.4139 കാണാറില്ല	0.0352
-4.4139 കാണാറില്ലേ	0.0352
-3.0335 കാണാൻ	0.0143
-4.4139 കാണാൻനല്ല	-0.0581
-4.1127 കാണികള്‍	-0.0581
-4.4139 കാണിക്കണം	0.0352
-4.4139 കാണിക്കരുത്	0.0352
-4.4139 കാണിക്കാം	0.0352
-4.4139 കാണിക്കാൻ	-0.0547
-4.4139 കാണിക്കുന്നതിനായി	0.0352
-4.4139 കാണിക്കുന്നത്	0.0352
-4.4139 കാണിക്കുന്നു	0.0352
-4.4139 കാണിക്കൂ	0.0352
-3.5106 കാണിച്ചു	-0.0086
-4.4139 കാണിച്ചുകൊടുത്തിട്ടുണ്ട്	0.0352
-4.4139 കാണിച്ചുതരട്ടെ	0.0352
-4.4139 കാണിച്ചുതരാം	0.0352
-4.4139 കാണിച്ചോട്ടെ	0.0352
-4.4139 കാണിച്ച്	0.0352
-4.4139 കാണിപ്പിക്കണം	0.0352
-4.4139 കാണില്ലേ	0.0352
-4.4139 കാണും	0.0352
-4.4139 കാണുകയാണല്ലേ	0.0352
-4.4139 കാണുകയാണ്	0.0352
-4.4139 കാണുന്നതോ	0.0352
-3.9366 കാണുന്നത്	-0.0937
-4.4139 കാണുന്നപോലിരുന്നു	-0.0576
-4.1127 കാണുന്നില്ലല്ലോ	0.0354
-4.1127 കാണുന്നു	0.0353
-4.4139 കാണുന്നുണ്ടോ	0.0352
-4.4139 കാണുന്നുണ്ട്	-0.0560
-4.4139 കാണുമോ	-0.0576
-4.1127 കാണുമ്പോള്‍	0.0353
-4.4139 കാണുമ്പോഴുള്ള	0.0352
-4.4139 കാണൂ	0.0352
-4.4139 കാണ്ടുപിടിക്കും	0.0352
-4.4139 കാത്തിരിക്കാം	0.0352
-4.4139 കാത്തിരിക്കാൻ	-0.0582
-4.1127 കാത്തിരിക്കുക	-0.1783
-4.4139 കാത്തിരിക്കുകയാണെന്ന്	-0.0580
-4.4139 കാത്തിരിക്കുകയാണ്‌	0.0352
-4.4139 കാത്തിരിക്കുന്നത്	0.0352
-3.9366 കാത്തിരിക്കുന്നു	-0.0936
-4.4139 കാത്തിരിക്കുന്നുണ്ടാവും	0.0352
-4.4139 കാത്തിരിക്കേണ്ടി	-0.0579
-4.1127 കാത്തിരുന്നോളും	-0.1783
-4.4139 കാത്തു	-0.0582
-4.1127 കാത്തുനിൽക്കണോ	-0.1783
-4.4139 കാത്തുനിൽക്കുകയാണ്	0.0352
-4.4139 കാത്തുവച്ചിരുന്നതായിരുന്നു	0.0352
-4.4139 കാത്തുസൂക്ഷിക്കണം	0.0352
-4.4139 കാത്തുസൂക്ഷിച്ചതെല്ലാം	-0.0582
-4.4139 കാന്തിക	-0.0582
-3.9366 കാബറെറ്റ്	-0.2640
-4.4139 കാബെററ്റിനെ	-0.0578
-4.4139 കാബെററ്റ്	0.0352
-4.1127 കായം	0.0353
-3.0520 കാരണം	-0.2125
-4.4139 കാരണങ്ങളുണ്ടാകാം	0.0352
-4.4139 കാരണമാകുമെന്ന്	-0.0582
-3.9366 കാരണമാണ്	-0.0946
-4.4139 കാരണമുണ്ടായേക്കാം	0.0352
-4.4139 കാരണമോ	0.0352
-4.4139 കാരണവുമില്ല	0.0352
-3.0158 കാര്യം	0.0057
-4.4139 കാര്യങ്ങളാണവ	0.0352
-4.4139 കാര്യങ്ങളാണ്	0.0352
-4.4139 കാര്യങ്ങളിൽ	-0.0560
-4.4139 കാര്യങ്ങളും	-0.0582
-3.2998 കാര്യങ്ങള്‍	0.0098
-4.4139 കാര്യത്തിലും	-0.0581
-4.4139 കാര്യത്തിലൊഴിച്ച്	-0.0577
-3.5106 കാര്യത്തില്‍	0.0022
-4.4139 കാര്യപെട്ടത്	-0.0581
-4.4139 കാര്യമല്ല	0.0352
-4.4139 കാര്യമാക്കേണ്ടതില്ല	0.0352
-4.4139 കാര്യമാണെന്ന്	-0.0554
-3.8116 കാര്യമാണ്	-0.1675
-4.4139 കാര്യമായിട്ടാണോ	0.0352
-4.4139 കാര്യമായിരുന്നേനെ	-0.0578
-4.4139 കാര്യമില്ല	0.0352
-4.1127 കാര്യമില്ലാ	-0.1783
-4.4139 കാര്യമില്ലായിരുന്നു	0.0352
-4.4139 കാര്യമെല്ലാം	-0.0582
-4.4139 കാര്യമൊന്നുമില്ല	0.0352
-4.1127 കാര്യമോ	-0.1783
-4.4139 കാര്യവുമില്ല	0.0352
-4.1127 കാര്‍	-0.0554
-4.4139 കാര്‍ട്ടനും	-0.0582
-4.4139 കാറിനടുത്തേയ്ക്	-0.0582
-4.4139 കാറിന്‍റെ	-0.0582
-4.4139 കാറിലേക്ക്	-0.0582
-4.4139 കാറോടിക്കാൻ	-0.0578
-4.4139 കാല	-0.0582
-3.5686 കാലം	-0.0157
-4.4139 കാലഘട്ടത്തിനുമപ്പുറം	0.0352
-4.4139 കാലങ്ങളായിട്ട്	-0.0520
-4.4139 കാലത്തിനും	-0.0582
-4.4139 കാലത്തിന്	-0.0581
-4.4139 കാലദേശങ്ങളിലേയ്ക്	-0.0582
-4.1127 കാലമായി	0.0374
-4.4139 കാലമായിരുന്നു	0.0352
-4.4139 കാലാന്തരത്തിനപ്പുറത്തേയ്ക്	-0.0542
-4.1127 കാലാവസ്ഥ	0.0352
-4.4139 കാലിന്	-0.0582
-4.1127 കാലും	-0.0581
-4.4139 കാലുപിടിക്കണോ	0.0352
-4.4139 കാലെടുത്തുവെയ്കുമ്പോള്‍	0.0352
-4.4139 കാഴ്ചയ്കപ്പുറത്തേയ്ക്	0.0352
-4.4139 കാവല്‍	-0.0581
-4.4139 കാഹളം	0.0352
-4.4139 കാൻസറായിരുന്നു	0.0352
-4.4139 കിംവതന്തികള്‍	-0.0582
-4.1127 കിടക്ക	-0.0582
-4.1127 കിടക്കാം	-0.1783
-4.4139 കിടക്കുകയാണ്	0.0352
-4.4139 കിടക്കുന്നോ	0.0352
-4.4139 കിടക്ക്‌	0.0352
-4.4139 കിടന്നാൽ	-0.0579
-4.4139 കിടന്നുറങ്ങിക്കോളു	0.0352
-4.4139 കിടന്നുറങ്ങ്	-0.0582
-4.4139 കിടപ്പു	-0.0582
-4.4139 കിട്ടരുതേ	0.0352
-3.4595 കിട്ടി	-0.9599
-4.4139 കിട്ടിക്കഴിഞ്ഞാല്‍	0.0352
-4.4139 കിട്ടിയ	-0.0582
-4.4139 കിട്ടിയതൊള്ളൂ	0.0352
-4.4139 കിട്ടിയല്ലോ	0.0352
-4.4139 കിട്ടിയാൽ	0.0352
-4.4139 കിട്ടിയിട്ടില്ലാ	0.0352
-4.4139 കിട്ടിയിട്ടുണ്ടന്നാണ്	0.0352
-4.4139 കിട്ടിയെന്ന്	-0.0579
-3.3345 കിട്ടും	-0.7776
-4.4139 കിട്ടുക	0.0352
-4.4139 കിട്ടുകയാണെങ്കിൽ	-0.0581
-4.4139 കിട്ടുകയൊള്ളൂ	0.0352
-4.4139 കിട്ടുന്നതെന്തും	-0.0582
-4.4139 കിട്ടുന്നില്ല	0.0352
-4.4139 കിട്ടുമോ	0.0352
-3.9366 കിപ്പ്	-0.1879
-3.9366 കിലോ	-0.0564
-4.4139 കിളവാ	0.0352
-4.4139 കിഴങ്ങന്‍മാര്‍	0.0352
-4.4139 കിഴങ്ങല്ലാം	-0.0582
-4.4139 കീടമേ	0.0352
-4.4139 കീറുന്നു	-0.0582
-4.4139 കീഴിലാണ്	-0.0582
-3.8116 കുക്കർ	-0.0580
-4.4139 കുഞ്ഞിനെ	-0.0582
-4.4139 കുഞ്ഞ്	-0.0582
-4.4139 കുടിക്കലുമെല്ലാം	0.0352
-4.4139 കുടിക്കാനും	-0.0582
-4.4139 കുടിക്കാനൊക്കെയാണോ	-0.0582
-4.4139 കുടിക്കാന്‍	-0.0582
-4.4139 കുടിക്കും	0.0352
-4.1127 കുടിക്ക്	-0.1783
-4.4139 കുടിക്കൽ	0.0352
-4.4139 കുടിച്ചത്	0.0352
-4.4139 കുടിച്ചാലോ	0.0352
-4.4139 കുടിച്ചാൽ	-0.0573
-4.4139 കുടിച്ചിട്ടുണ്ടോ	0.0352
-4.4139 കുടിച്ചിരുന്നു	-0.0582
-4.4139 കുടിച്ചിരുന്നോ	0.0352
-4.4139 കുടിച്ച്	0.0352
-4.1127 കുടിമുടി	0.0353
-3.9366 കുടിയനായിരുന്നു	-0.2640
-3.9366 കുടുംബം	0.0353
-4.4139 കുടുംബക്കാരെല്ലാം	-0.0582
-4.4139 കുടുംബങ്ങളെക്കുറിച്ചുമാണ്	-0.0579
-4.4139 കുടുംബങ്ങൾ	-0.0582
-4.4139 കുടുംബത്തിന്റെ	-0.0582
-4.4139 കുടുംബത്തെക്കുറിച്ചു	-0.0581
-4.4139 കുടുംബത്തെക്കുറിച്ചും	0.0352
-4.4139 കുടുംബത്തെയെങ്കിലും	-0.0582
-4.4139 കുടുംബമില്ലാതെ	-0.0577
-4.4139 കുടുംബവുമായി	-0.0582
-4.4139 കുടുങ്ങിക്കിടക്കുകയാണ്	0.0352
-4.4139 കുടുങ്ങിക്കിടന്ന്	0.0352
-4.4139 കുടുങ്ങിയല്ലോ	0.0352
-4.4139 കുട്ടാ	0.0352
-3.2998 കുട്ടി	-0.6321
-4.4139 കുട്ടികളുണ്ടാകില്ല	0.0352
-4.1127 കുട്ടികളുണ്ട്	-0.1783
-3.8116 കുട്ടികളെ	-0.0564
-4.1127 കുട്ടികളേ	-0.1783
-3.7147 കുട്ടികള്‍	-0.0375
-4.4139 കുട്ടികള്‍ക്കായോ	-0.0581
-4.4139 കുട്ടികള്‍ക്കും	-0.0582
-4.4139 കുട്ടിക്കളിയാണെന്ന്	-0.0582
-4.4139 കുട്ടിക്കു	-0.0578
-4.4139 കുട്ടിക്കോ	0.0352
-4.4139 കുട്ടിക്ക്	-0.0582
-4.4139 കുട്ടികൾക്ക്	-0.0582
-4.4139 കുട്ടിച്ചാത്തന്‍	-0.0581
-4.4139 കുട്ടിച്ചെകുത്താനേ	0.0352
-4.4139 കുട്ടിപാവം	-0.0580
-4.4139 കുട്ടിയല്ല	0.0352
-4.4139 കുട്ടിയാണോ	0.0352
-3.9366 കുട്ടിയാണ്	-0.2640
-3.9366 കുട്ടിയായിരുന്നപ്പോള്‍	0.0355
-4.4139 കുട്ടിയായോ	0.0352
-4.4139 കുട്ടിയും	-0.0582
-4.4139 കുട്ടിയുടെ	-0.0582
-4.4139 കുട്ടിയുണ്ട്	-0.0582
-4.4139 കുട്ടിയോ	0.0352
-4.4139 കുത്തിമറിച്ചുകൊണ്ടിരിക്കുകയാണ്	0.0352
-4.4139 കുത്തുകളും	-0.0582
-4.1127 കുത്ത്	0.0353
-4.4139 കുന്തംകൊണ്ട്	-0.0562
-4.4139 കുപെറിനു	-0.0581
-3.5106 കുപെർ	-0.0447
-3.9366 കുപേർ	-0.0558
-4.1127 കുപ്പര്‍	0.0352
-4.4139 കുപ്പി	-0.0582
-4.1127 കുപ്പികൾ	-0.0579
-4.4139 കുപ്പിയില്‍	-0.0578
-4.4139 കുരങ്ങുകളിക്കും	-0.0582
-4.4139 കുരമുളകും	-0.0582
-4.4139 കുരയ്ക്കുന്നു	0.0352
-4.4139 കുര്‍ലിങ്ങ്	-0.0581
-3.9366 കുറക്കണം	-0.2640
-4.1127 കുറച്	-0.0581
-3.9366 കുറച്ചു	-0.1881
-4.4139 കുറച്ചുകൂടി	-0.0581
-4.4139 കുറച്ചുക്കൂടി	0.0352
-4.4139 കുറച്ചുപേരെ	-0.0581
-4.4139 കുറച്ചുപേര്‍ക്കേ	-0.0569
-4.4139 കുറച്ചെടുക്കുക	0.0352
-2.9665 കുറച്ച്	0.0016
-4.4139 കുറച്ച്ക്കൂടി	-0.0582
-4.4139 കുറഞ്ഞത്	-0.0580
-4.4139 കുറഞ്ഞുകൊണ്ടിരിക്കും	0.0352
-4.4139 കുറയ്കുന്നതാണ്	-0.0580
-4.4139 കുറയ്കേണ്ടിവരും	0.0352
-4.4139 കുറയ്ക്കാം	0.0352
-4.4139 കുറയ്ക്കുമോ	0.0352
-4.1127 കുറവാണ്	-0.1783
-4.4139 കുറവുകാരണം	-0.0581
-4.4139 കുറിച്ചല്ല	0.0352
-4.4139 കുറിച്ചാലോചിക്കുന്നത്	-0.0581
-4.4139 കുറിച്ചും	-0.0582
-4.4139 കുറിച്ചുള്ള	-0.0581
-4.4139 കുറിച്ചെങ്കിലും	-0.0582
-4.4139 കുറിച്ചെന്നോട്	-0.0542
-4.4139 കുറിച്ചൊന്ന്	0.0352
-3.8116 കുറിച്ച്	-0.0577
-4.4139 കുറുകെ	-0.0542
-3.8116 കുറെ	-0.0581
-4.4139 കുറെയധികം	-0.0582
-4.1127 കുറേ	-0.0581
-4.4139 കുറേക്കാലമായി	-0.0564
-4.4139 കുറേക്കൂടി	-0.0581
-4.4139 കുറേയധികം	-0.0582
-4.1127 കുഴപ്പം	0.0353
-4.1127 കുഴപ്പത്തില്‍	-0.2717
-3.8116 കുഴപ്പമില്ല	-0.0542
-3.8116 കുഴപ്പമില്ലാ	-0.1783
-4.1127 കുഴപ്പമൊന്നും	-0.2717
-4.1127 കുഴപ്പമൊന്നുമില്ലല്ലോ	-0.0578
-4.4139 കുഴപ്പമൊന്നുമില്ലായെന്ന്	-0.0581
-4.4139 കുഴപ്പമൊന്നുമുണ്ടാവില്ലാ	0.0352
-4.4139 കുഴപ്പവുമില്ല	0.0352
-4.4139 കുഴിമാടങ്ങളിലും	-0.0580
-4.4139 കുസൃതി	-0.0582
-4.4139 കുർത്ത	-0.0559
-4.4139 കൂടാതെ	-0.0559
-4.4139 കൂടാരം	-0.0582
-4.4139 കൂടാരത്തിനടുത്തു	-0.0578
-3.2376 കൂടി	-0.1662
-4.4139 കൂടിപോയെന്നാണ്	-0.0580
-4.4139 കൂടിയാ	0.0352
-4.4139 കൂടിയിട്ടുണ്ട്	-0.0575
-4.4139 കൂടിയെടുക്ക്	0.0352
-4.4139 കൂടിയെന്ന്	0.0352
-4.4139 കൂടുതലാണെന്ന്	-0.0582
-3.9366 കൂടുതലാണ്	-0.2640
-4.4139 കൂടുതലും	-0.0582
-3.3345 കൂടുതല്‍	0.0081
-3.1127 കൂടെ	-0.0113
-4.1127 കൂടെയാണോ	0.0353
-4.4139 കൂടെയാണ്	-0.0520
-4.4139 കൂടെയൊക്കെ	-0.0582
-4.4139 കൂട്	-0.0582
-4.4139 കൂട്ടത്തിൽ	-0.0580
-4.4139 കൂട്ടരേ	0.0352
-4.4139 കൂട്ടല്ലേ	0.0352
-4.1127 കൂട്ടാളി	0.0357
-4.4139 കൂട്ടി	-0.0581
-4.4139 കൂട്ടികിട്ടണം	0.0352
-4.4139 കൂട്ടിയാണോ	-0.0581
-4.4139 കൂട്ടിവയ്ക്കാം	0.0352
-4.4139 കൂട്ടുകാരന്‍	-0.0582
-4.4139 കൂട്ടുകാരേ	0.0352
-4.4139 കൂട്ടുകാർ	-0.0580
-4.4139 കൂട്ടുകൾ	0.0352
-4.4139 കൂട്ടുന്നതിനെ	-0.0582
-4.4139 കൂട്ടൂ	0.0352
-3.4595 കൂപര്‍	-0.1713
-4.1127 കൂപേർ	-0.0548
-3.9366 കൂപ്	-0.0943
-2.7509 കൂപ്പര്‍	-0.2457
-4.4139 കൂപ്പറിനെ	-0.0582
-4.4139 കൂപ്പറിനോട്	-0.0582
-4.4139 കൂപ്പറിന്റേതുമല്ല	0.0352
-3.5686 കൂപ്പ്	-0.1172
-4.4139 കൃത്യമായി	-0.0547
-4.4139 കൃത്യസമയത്ത്	0.0352
-4.4139 കൃത്രിമമായി	-0.0582
-3.7147 കൃഷി	-0.0528
-4.4139 കൃഷിക്കാര്‍	-0.0581
-4.4139 കെട്ടടങ്ങും	0.0352
-4.4139 കെട്ടിക്കൊണ്ടായിരുന്നു	0.0352
-4.4139 കെട്ടിടം	-0.0581
-4.4139 കെട്ടിപ്പടുത്തു	0.0352
-4.4139 കെട്ടിയിട്ടില്ലട്ടോ	0.0352
-4.4139 കെട്ടിറങ്ങാനാണ്	0.0352
-4.4139 കെട്ടുപാടുകള്‍	-0.0581
-4.4139 കൊടുത്തു	0.0352
-4.4139 കൊല്ലാന്‍	-0.0582
-4.1127 കൊള്ളാം	-0.1783
-4.4139 കേക്കുണ്ടാക്കുകയാണോ	0.0352
-4.1127 കേക്ക്	0.0352
-4.4139 കേടാണ്	0.0352
-4.4139 കേടായി	0.0352
-4.4139 കേടായിട്ടില്ല	0.0352
-4.4139 കേടായിപ്പോയിപൊട്ടി	0.0352
-4.4139 കേടാവും	0.0352
-4.1127 കേടുവന്ന	-0.0581
-4.4139 കേട്ടതിന്	-0.0580
-4.4139 കേട്ടത്	-0.0579
-4.4139 കേട്ടല്ലോ	0.0352
-4.4139 കേട്ടാലേ	-0.0581
-4.4139 കേട്ടിട്ടുണ്ട്	0.0352
-4.1127 കേട്ടു	0.0362
-3.5106 കേട്ടോ	-0.9066
-4.4139 കേട്ട്	-0.0580
-4.4139 കേന്ദ്രത്തിൽ	-0.0577
-4.4139 കേബേജ്	-0.0573
-4.4139 കേറി	0.0352
-4.4139 കേറിക്കഴിയുമ്പോള്‍	-0.0578
-4.1127 കേറ്	0.0366
-4.4139 കേള്‍ക്കാന്‍	-0.0582
-3.9366 കേള്‍ക്കാമോ	-0.2640
-4.4139 കേള്‍ക്കുന്നുണ്ടാവില്ല	0.0352
-4.1127 കേള്‍ക്കുന്നുണ്ടോ	-0.1783
-4.1127 കേള്‍ക്കൂ	-0.1783
-4.4139 കേവലം	-0.0580
-3.8116 കേസ്	0.0359
-4.1127 കോളനി	-0.0581
-4.1127 കേൾക്കാൻ	-0.0580
-4.1127 കേൾക്കും	-0.1783
-4.4139 കേൾക്കുന്നില്ല	0.0352
-4.4139 കേൾക്കുന്നുണ്ടോ	0.0352
-3.9366 കേൾക്ക്	-0.2640
-4.4139 കൈ	-0.0542
-4.4139 കൈകളും	-0.0582
-3.9366 കൈകാര്യം	-0.0577
-4.1127 കൈകൊണ്ട്	0.0352
-4.4139 കൈമാറുന്നു	0.0352
-4.4139 കൈമാറ്റം	-0.0579
-4.4139 കൈയ്യിലുണ്ട്	0.0352
-3.7147 കൈയ്യില്‍	-0.0537
-4.4139 കൈയ്യിൽതന്നെ	0.0352
-4.4139 കൈയ്യീന്ന്	-0.0582
-4.4139 കൈവരിച്ചിരിക്കുന്നു	0.0352
-4.4139 കൈവിടരുത്	0.0352
-3.7147 കൊച്ചു	-0.0579
-4.4139 കൊച്ചുകള്ളാ	0.0352
-4.4139 കൊച്ച്	-0.0581
-4.4139 കൊടും	-0.0581
-4.4139 കൊടുക്കണം	0.0352
-4.1127 കൊടുക്കാം	-0.1783
-4.4139 കൊടുക്കാനോ	0.0352
-4.4139 കൊടുക്കാൻ	-0.0581
-4.4139 കൊടുക്കുന്ന	-0.0581
-4.4139 കൊടുക്കുവാൻ	-0.0580
-4.4139 കൊടുക്കൂ	0.0352
-4.4139 കൊടുക്കേണ്ടേ	0.0352
-4.4139 കൊടുക്ക്	0.0352
-4.4139 കൊടുത്തതാണ്	-0.0582
-4.4139 കൊടുത്തില്ലാ	0.0352
-4.4139 കൊടുത്തു	0.0352
-4.4139 കൊടുത്തുവിടുക	0.0352
-4.4139 കൊടുത്തൂക്കൂടാ	0.0352
-4.4139 കൊട്ടാരം	0.0352
-4.4139 കൊണ്ടാണെന്നാണ്	0.0352
-4.4139 കൊണ്ടാണ്	0.0352
-4.4139 കൊണ്ടാവണം	-0.0582
-4.4139 കൊണ്ടിരിക്കുകയാണ്	0.0352
-4.4139 കൊണ്ടിരുന്നത്	0.0352
-3.7147 കൊണ്ടു	-0.0578
-4.4139 കൊണ്ടുപോകാം	-0.0571
-4.1127 കൊണ്ടുപോകും	-0.1783
-4.4139 കൊണ്ടുപോകുമായിരുന്നു	0.0352
-4.4139 കൊണ്ടുപോയി	0.0352
-4.4139 കൊണ്ടുപോവാം	-0.0581
-4.4139 കൊണ്ടുവച്ചതാണ്	0.0352
-4.1127 കൊണ്ടുവന്നത്	-0.1783
-4.4139 കൊണ്ടുവന്നിരിക്കുന്നത്	0.0352
-4.4139 കൊണ്ടുവന്നു	0.0352
-4.1127 കൊണ്ടുവരാം	0.0362
-4.4139 കൊണ്ടുവരാൻ	-0.0581
-4.4139 കൊണ്ടുവരുന്നത്	0.0352
-3.1349 കൊണ്ട്	-0.0343
-4.4139 കൊതി	0.0352
-4.4139 കൊന്നേനെ	0.0352
-4.4139 കൊമേഴ്സിൽ	-0.0582
-4.1127 കൊയ്ത്തുയന്ത്രം	-0.0582
-4.4139 കൊറിയോഗ്രഫി	-0.0581
-4.4139 കൊല്ലങ്ങളായി	-0.0581
-4.4139 കൊല്ലങ്ങളായുള്ള	-0.0582
-4.4139 കൊല്ലങ്ങൾ	-0.0582
-4.4139 കൊല്ലങ്ങൾക്ക്	0.0352
-4.4139 കൊല്ലത്തോളം	0.0352
-4.4139 കൊല്ലാൻ	-0.0582
-4.4139 കൊല്ലുകയെന്നത്	0.0352
-4.4139 കൊള്ളണം	0.0352
-3.7147 കൊള്ളാം	-0.0375
-4.4139 കൊള്ളാമെന്ന്	0.0352
-4.4139 കൊൽക്കത്തയിൽ	-0.0582
-4.4139 കോക്ക്ട്ടൈലിലെ	-0.0582
-4.4139 കോക്ക്ട്ടൈൽ	-0.0582
-4.4139 കോട്ടിട്ടയാളാരാണ്	0.0352
-4.4139 കോഡില്‍	-0.0580
-4.4139 കോഡുകൾ	-0.0576
-4.4139 കോണ്‍ഫറൻസ്	-0.0582
-4.4139 കോണ്‍വെന്‍റിലെ	0.0352
-4.4139 കോപൈലറ്റ്	-0.0559
-4.4139 കോപ്പര്‍	-0.0582
-4.4139 കോഫി	-0.0582
-4.4139 കോമാളി	-0.0574
-4.4139 കോമ്പസ്	-0.0582
-4.1127 കോളനി	0.0352
-4.4139 കോളേജിനെ	-0.0582
-4.4139 കോളേജിന്‍റെ	-0.0580
-4.4139 കോളേജിലാണോ	0.0352
-4.1127 കോളേജിലെ	-0.0582
-4.4139 കോളേജിലേക്ക്	-0.0581
-4.4139 കോളേജില്‍	-0.0582
-4.1127 കോളേജിൽ	-0.0580
-3.6356 കോളേജ്	-0.0581
-4.4139 കോവന്‍ട്രിയില്‍	-0.0582
-4.4139 കോഴ്സുകൾ	-0.0581
-3.8116 ക്യാമറ	-0.0581
-4.4139 ക്യാമറകളിലൊന്ന്	0.0352
-4.4139 ക്യാമ്പും	-0.0582
-4.4139 ക്യൂ	-0.0581
-4.1127 ക്രമീകരണം	-0.0578
-4.4139 ക്രാബ്	-0.0582
-4.4139 ക്രിസ്റ്റലുകളായി	-0.0578
-4.1127 ക്രിസ്റ്റീന	0.0352
-4.4139 ക്രൂ	-0.0572
-4.4139 ക്രൂരനാണ്	0.0352
-4.4139 ക്രൂരന്‍	0.0352
-4.4139 ക്രോണ്‍	0.0352
-4.1127 ക്രോസ്	0.0354
-4.4139 ക്ലബ്ബിലുണ്ട്	0.0352
-4.4139 ക്ലബ്ബിൽ	-0.0582
-4.4139 ക്ലാസ്സ്‌	-0.0578
-4.4139 ക്ലീനര്‍	-0.0582
-4.4139 ക്ലോക്കുകളും	0.0352
-4.4139 ക്ലോക്കുകളുടെ	-0.0578
-3.9366 ക്ലോക്കുകള്‍	0.0358
-4.4139 ക്ലോക്കുണ്ടാക്കുന്നവരാണല്ലോ	-0.0578
-4.1127 ക്ലോക്ക്	-0.1783
-4.4139 ക്ലോക്ക്ഷോപ്പിലേയും	0.0352
-4.4139 ക്ലോഡിനെ	-0.0581
-3.7147 ക്ലോഡ്	0.0398
-4.4139 ക്ലോറിന്‍	-0.0582
-4.1127 ക്ലോസ്‌	-0.0580
-3.8116 ക്ഷമ	0.0353
-4.4139 ക്ഷമചോദിക്കുന്നു	0.0352
-4.4139 ക്ഷമയോടെ	-0.0582
-3.2096 ക്ഷമിക്കണം	-0.2791
-4.4139 ക്ഷമിക്കാനിപ്പോ	-0.0582
-4.4139 ക്ഷമിക്കുമെന്ന്	-0.0582
-4.4139 ക്ഷമിക്കുമോ	0.0352
-4.4139 ക്ഷമിക്കൂ	0.0352
-4.4139 ക്ഷമിക്ക്	0.0352
-4.4139 ക്ഷാമം	0.0352
-4.4139 ക്ഷീണിതയായിരിക്കുന്നു	-0.0579
-4.4139 ക്ഷീരപഥത്തില്‍	0.0352
-4.4139 കൗണ്ടറിന്‍റെ	-0.0582
-4.4139 കർഷകരെയാണ്	0.0352
-4.4139 കർഷകൻ	0.0352
-3.9366 ഖേദിക്കുന്നു	-0.0872
-3.9366 ഗംഭീരം	-0.0949
-4.4139 ഗന്ധമുണ്ടോ	0.0352
-4.1127 ഗര്‍ഗാന്റ്വ	-0.0581
-4.4139 ഗര്‍ഭപാത്ത്രത്തോടെ	-0.0578
-4.4139 ഗര്‍ഭിണിയായിരുന്നു	0.0352
-4.4139 ഗസ്റ്റ്	-0.0582
-4.4139 ഗാലക്സിയിലെക്ക്	0.0352
-4.4139 ഗാലക്സിയിൽ	-0.0579
-4.4139 ഗിയര്‍	-0.0582
-4.4139 ഗിയറിലെക്കിട്	0.0352
-4.4139 ഗിയറുകള്‍	0.0352
-3.5106 ഗുഡ്	-0.2540
-4.4139 ഗുഡ്ബൈ	0.0352
-4.4139 ഗുപ്ചുപ്	-0.0580
-4.4139 ഗുപ്ത	-0.0582
-4.4139 ഗുരുതരമായി	0.0352
-4.4139 ഗുരുത്വബലം	-0.0578
-3.9366 ഗുരുത്വാകര്‍ഷണ	-0.0949
-3.2376 ഗുരുത്വാകര്‍ഷണം	-0.0838
-4.1127 ഗുരുത്വാകര്‍ഷണത്തിന്	0.0352
-4.4139 ഗുരുത്വാകര്‍ഷണത്തിലേയ്ക്	-0.0581
-4.4139 ഗുരുത്വാകര്‍ഷണത്തില്‍	-0.0579
-4.4139 ഗുരുത്വാകര്‍ഷണത്തെപ്പറ്റി	0.0352
-4.4139 ഗുരുത്വാകര്‍ഷണമാണ്	0.0352
-4.4139 ഗുരുത്വാകർഷണത്തെപ്പറ്റിയുള്ള	0.0352
-4.4139 ഗുരുത്വാകർഷണമായിരുന്നു	0.0352
-4.4139 ഗുളികകൾ	0.0352
-3.9366 ഗുസ്താവ്	-0.0577
-4.4139 ഗോഡ്ഫാദറാകുന്നതില്‍	0.0352
-4.1127 ഗോതമ്പ്	-0.0581
-4.4139 ഗോര്‍ദനില്‍	-0.0580
-4.4139 ഗോര്‍ദന്‍	0.0352
-4.4139 ഗോളം	0.0352
-4.4139 ഗോവ	-0.0578
-4.4139 ഗോവയിലേക്കാവും	-0.0582
-4.4139 ഗോവയിൽ	-0.0582
-4.4139 ഗോൽഗപ്പയെന്നാണ്	-0.0581
-3.7147 ഗോൽഗപ്പാ	-0.0576
-4.4139 ഗ്യാലക്സിയിലേയ്ക്ക്	0.0352
-3.7147 ഗ്രഹം	-0.0331
-4.4139 ഗ്രഹങ്ങളിലും	0.0352
-4.4139 ഗ്രഹങ്ങൾ	0.0352
-4.4139 ഗ്രഹണം	-0.0581
-4.4139 ഗ്രഹണപഥത്തിൽ	-0.0581
-4.4139 ഗ്രഹത്തിനെക്കുറിച്ച്	-0.0578
-4.4139 ഗ്രഹത്തിനെപ്പറ്റിയോര്‍ത്ത്	0.0352
-3.9366 ഗ്രഹത്തിന്റെ	-0.0581
-4.4139 ഗ്രഹത്തിലെ	-0.0579
-4.4139 ഗ്രഹത്തിലെത്തിക്കും	0.0352
-4.1127 ഗ്രഹത്തിലേയ്ക്	-0.0581
-4.4139 ഗ്രഹത്തില്‍	-0.0581
-4.4139 ഗ്രഹത്തിൽ	-0.0582
-3.9366 ഗ്രഹമാണ്	0.0359
-4.4139 ഗ്രഹമില്ല	0.0352
-4.4139 ഗ്രേഡ്	-0.0581
-4.4139 ഗ്ലാസുകൊണ്ടുണ്ടാക്കിയത്	0.0352
-4.4139 ഗ്ലാസ്സും	-0.0582
-4.4139 ഗ്ലാസ്സോ	-0.0582
-4.4139 ഗർഗാഞ്ചുവ	0.0352
-4.4139 ഗർഗാഞ്ചുവക്ക്	-0.0581
-4.4139 ഘടകങ്ങള്‍	0.0352
-4.4139 ഘടികാരങ്ങളിലാണ്	0.0352
-4.4139 ഘടികാരങ്ങള്‍	-0.0579
-4.1127 ഘട്ട	-0.0582
-4.4139 ഘട്ടം	0.0352
-4.4139 ങേ	-0.0582
-4.4139 ചക്കരേ	0.0352
-4.4139 ചക്രവാളത്തിനപ്പുറം	-0.0582
-4.1127 ചക്രവാളത്തിനുമപ്പുറം	-0.1783
-4.4139 ചക്രവാളത്തിലാണോ	0.0352
-4.4139 ചങ്ങാതിയെ	-0.0582
-4.4139 ചന്തമുണ്ട്	0.0352
-4.4139 ചന്ദ്രനിൽ	-0.0582
-4.4139 ചന്ദ്രന്റെ	-0.0582
-4.4139 ചരിഞ്ഞിറങ്ങുന്നു	0.0352
-4.4139 ചരിത്രത്തിലെ	-0.0580
-4.4139 ചരിത്രത്തെ	-0.0582
-4.4139 ചര്‍ച്ച	-0.0580
-4.4139 ചര്‍മ്മപോലെ	-0.0582
-4.1127 ചലച്ചിത്ര	-0.0582
-4.4139 ചലനം	-0.0578
-4.4139 ചലനത്തിനൊപ്പം	0.0352
-4.1127 ചലിക്കുന്ന	-0.0581
-4.4139 ചവിട്ടി	0.0352
-4.4139 ചവിട്ടുന്നത്	0.0352
-4.4139 ചവിട്ടുന്നുണ്ട്	0.0352
-4.1127 ചാമ്പ്	-0.0547
-3.8116 ചായ	0.0357
-4.4139 ചായയൊക്കെകുടിക്കാം	-0.0577
-4.4139 ചായ്ക്കാൻ	-0.0579
-4.4139 ചാരവും	0.0352
-4.4139 ചാര്‍ജുണ്ടോ	-0.0581
-4.4139 ചാവി	0.0352
-4.4139 ചാർജാണ്	0.0352
-4.4139 ചാർജിംഗിലല്ല	-0.0581
-4.4139 ചിക്കൻ	-0.0582
-4.1127 ചിത്രം	0.0352
-4.4139 ചിത്രങ്ങളില്‍	0.0352
-4.4139 ചിത്രങ്ങളുണ്ട്	-0.0580
-3.9366 ചിത്രങ്ങൾ	-0.0571
-4.4139 ചിത്രികരണം	-0.0581
-4.4139 ചിത്രികരണങ്ങളിൽ	-0.0547
-3.9366 ചിന്തിക്കണം	-0.2640
-4.4139 ചിന്തിക്കു	0.0352
-4.4139 ചിന്തിക്കുന്നതിനു	-0.0581
-4.4139 ചിന്തിക്കുന്നതിലും	-0.0582
-4.4139 ചിന്തിക്കുന്നത്	-0.0569
-4.1127 ചിന്തിക്കുന്നു	-0.1783
-4.4139 ചിന്തിക്കുന്നുണ്ടല്ലേ	0.0352
-4.4139 ചിന്തിക്കൂ	0.0352
-4.4139 ചിന്തിക്കേണ്ടതാണ്	0.0352
-4.4139 ചിന്തിച്ചതാണ്	0.0352
-4.1127 ചിന്തിച്ചു	0.0354
-4.4139 ചിന്തിച്ചോ	0.0352
-4.4139 ചിന്തിച്ച്	-0.0582
-3.8116 ചിന്‍റു	-0.0578
-4.4139 ചിന്‍റുനീ	-0.0577
-4.4139 ചിന്‍റുവിനെ	-0.0578
-4.4139 ചിന്‍റുവിനെയും	-0.0578
-4.4139 ചിന്‍റുവിനെയൊക്കെ	-0.0581
-4.4139 ചിന്‍റുവിന്	-0.0580
-4.1127 ചിന്‍റുവും	-0.0541
-4.4139 ചിന്‍റുസുഖമല്ലേ	-0.0581
-4.4139 ചിപ്പിയില്‍	-0.0579
-3.8116 ചിരി	0.0357
-4.4139 ചിരിക്കാന്‍	-0.0582
-4.4139 ചിറകുകള്‍	0.0352
-3.2376 ചില	0.0139
-4.4139 ചിലകാര്യങ്ങള്‍	-0.0581
-3.8116 ചിലതൊക്കെ	0.0356
-3.9366 ചിലത്	-0.0581
-3.7147 ചിലപ്പോള്‍	0.0356
-4.1127 ചിലപ്പോൾ	-0.0556
-4.4139 ചിലരെയൊക്കെ	-0.0580
-4.4139 ചിലവഴിക്കുന്ന	0.0352
-4.4139 ചിലവാക്കണം	0.0352
-4.4139 ചിലവാക്കുകയെ	-0.0582
-4.4139 ചിലസമയങ്ങളിൽ	0.0352
-4.4139 ചില്ലുകൊണ്ട്	-0.0582
-4.4139 ചീട്ടിലൊന്ന്	-0.0582
-4.1127 ചീട്ട്	-0.1783
-4.4139 ചീസാണ്തക്കാളികഴിച്ചോളു	0.0352
-4.4139 ചീസ്പാകം	-0.0582
-3.9366 ചുംബനം	-0.0949
-4.4139 ചുംബനമാണ്	-0.0580
-4.4139 ചുട്ടത്	0.0352
-4.1127 ചുണ്ടോട്ചുണ്ട്	-0.0581
-4.4139 ചുമ	-0.0582
-4.4139 ചുമരില്‍	-0.0560
-4.4139 ചുമർകൊള്ളാം	0.0352
-4.4139 ചുരുങ്ങിയത്	-0.0542
-4.1127 ചുരുട്ട്	-0.0582
-4.4139 ചുരുളും	-0.0581
-4.4139 ചുറ്റികറങ്ങലെല്ലാം	-0.0582
-4.4139 ചുറ്റികറങ്ങിയോ	0.0352
-4.4139 ചുറ്റികാണ്	0.0352
-4.4139 ചുറ്റിവരുകയാണ്	-0.0582
-4.4139 ചുറ്റിസഞ്ചരിക്കുന്നു	0.0352
-3.7147 ചുറ്റും	-0.0528
-4.1127 ചുറ്റുമുള്ള	0.0352
-4.4139 ചുറ്റുമ്പോള്‍	0.0352
-4.4139 ചുറ്റുമ്പോൾ	0.0352
-4.4139 ചുറ്റൽ	-0.0582
-4.4139 ചുഴി	-0.0582
-4.4139 ചുവടുകള്‍	-0.0582
-4.4139 ചുവടുകൾ	-0.0581
-4.4139 ചുവരിലും	-0.0582
-4.4139 ചൂടാവുന്നു	0.0352
-4.4139 ചൂടിലാണ്	0.0352
-4.4139 ചൂട്	-0.0582
-4.4139 ചെക്കാ	0.0352
-3.8116 ചെക്ക്‌	-0.0580
-4.4139 ചെക്കൻമാരും	-0.0569
-4.4139 ചെന്നായ	0.0352
-4.4139 ചെന്നെത്തിയാലോ	0.0352
-4.4139 ചെമ്മീനുകളും	-0.0582
-4.4139 ചെമ്മീന്‍	-0.0582
-4.4139 ചെയറിൽ	-0.0582
-4.4139 ചെയുന്നു	0.0352
-4.4139 ചെയുമ്പോൾ	-0.0580
-4.4139 ചെയ്ത	0.0352
-3.5686 ചെയ്തത്	-0.2593
-4.4139 ചെയ്തല്ലോ	0.0352
-4.4139 ചെയ്താൽ	-0.0520
-4.4139 ചെയ്തിട്ടല്ല	0.0352
-4.4139 ചെയ്തിട്ടില്ലാ	0.0352
-4.4139 ചെയ്തിട്ടുണ്ടെങ്കിൽ	0.0352
-3.8116 ചെയ്തിട്ടുണ്ട്	-0.1673
-4.4139 ചെയ്തിരിക്കുക	0.0352
-3.9366 ചെയ്തിരിക്കുന്നു	-0.0949
-4.4139 ചെയ്തിരിക്കുയാണ്	0.0352
-4.1127 ചെയ്തിരുന്നത്	-0.1783
-4.4139 ചെയ്തിരുന്നില്ല	0.0352
-4.4139 ചെയ്തിരുന്നു	0.0352
-4.1127 ചെയ്തില്ല	-0.1783
-4.1127 ചെയ്തില്ലേ	-0.1783
-3.2096 ചെയ്തു	-0.4120
-4.4139 ചെയ്തുകൂടെ	0.0352
-4.4139 ചെയ്തുകൊണ്ടിരിക്കുന്നതും	0.0352
-4.4139 ചെയ്തുകൊണ്ടിരുന്നത്	0.0352
-4.1127 ചെയ്തേ	0.0352
-3.9366 ചെയ്തോ	-0.0948
-4.1127 ചെയ്തോളാം	-0.1783
-3.5106 ചെയ്ത്	-0.0457
-4.4139 ചെയ്യട്ടെ	0.0352
-3.5106 ചെയ്യണം	-0.9066
-4.4139 ചെയ്യണമെങ്കിൽ	0.0352
-4.4139 ചെയ്യണമെന്നാണ്	0.0352
-4.4139 ചെയ്യണോ	0.0352
-3.9366 ചെയ്യരുത്	-0.0564
-4.4139 ചെയ്യല്ലേ	0.0352
-3.3723 ചെയ്യാം	-0.7422
-4.4139 ചെയ്യാനറിയാം	-0.0578
-3.6356 ചെയ്യാനാണ്	-0.6526
-4.4139 ചെയ്യാനായേക്കും	0.0352
-4.4139 ചെയ്യാനാവില്ല	0.0352
-4.4139 ചെയ്യാനാവും	0.0352
-4.4139 ചെയ്യാനാവുന്നില്ല	0.0352
-4.4139 ചെയ്യാനാവുമോ	0.0352
-4.4139 ചെയ്യാനും	0.0352
-4.4139 ചെയ്യാനുണ്ട്	0.0352
-4.4139 ചെയ്യാനുള്ള	-0.0582
-4.4139 ചെയ്യാനുള്ളത്	0.0352
-3.9366 ചെയ്യാന്‍	-0.0579
-3.4595 ചെയ്യാൻ	-0.0569
-4.4139 ചെയ്യിക്കുകയാണെന്നാ	-0.0580
-4.4139 ചെയ്യിച്ചുകൊണ്ടിരുന്നത്	0.0352
-4.4139 ചെയ്യില്ലേ	0.0352
-3.4595 ചെയ്യും	-0.9647
-4.4139 ചെയ്യുക	0.0352
-4.4139 ചെയ്യുകയാണ്	0.0352
-4.4139 ചെയ്യുകാ	0.0352
-4.4139 ചെയ്യുന്നതുപോലും	0.0352
-4.4139 ചെയ്യുന്നതെന്ന്	-0.0582
-3.1127 ചെയ്യുന്നത്	-0.6567
-3.5106 ചെയ്യുന്നു	-0.2090
-4.4139 ചെയ്യുന്നുണ്ട്	0.0352
-4.1127 ചെയ്യുമോ	-0.1783
-4.4139 ചെയ്യുവാ	0.0352
-4.4139 ചെയ്യൂ	0.0352
-4.4139 ചെയ്യേണ്ട	0.0352
-4.4139 ചെയ്യേണ്ടതെന്നറിയില്ല	-0.0579
-4.4139 ചെയ്യേണ്ടത്	0.0352
-4.1127 ചെയ്യേണ്ടി	-0.0577
-3.6356 ചെയ്യ്‌	-0.3359
-4.1127 ചെയ്‌താൽ	0.0355
-3.3345 ചെറിയ	0.0065
-4.4139 ചെറു	-0.0582
-4.4139 ചെറുക്കനെവിടെയാണെന്ന്	-0.0582
-4.1127 ചെറുക്കാ	0.0364
-4.4139 ചെറുതാണെന്ന്	0.0352
-4.1127 ചെറുതായിട്ട്	-0.1783
-4.4139 ചെറുതായിരുന്നപ്പോള്‍	0.0352
-4.4139 ചെറുതായിരുന്നു	-0.0582
-4.4139 ചെറുത്	-0.0582
-4.4139 ചെറുപ്പക്കാരന്	-0.0582
-4.4139 ചെറുപ്പമല്ലെന്ന്	-0.0582
-4.4139 ചെറുപ്പമാണ്	0.0352
-4.4139 ചെറ്റേ	0.0352
-4.4139 ചെലവഴിക്കാൻ	-0.0581
-4.4139 ചെലവാക്കുന്നതിനോട്	-0.0582
-4.4139 ചെലവും	-0.0569
-4.4139 ചെലവേറിയതാണ്	0.0352
-4.4139 ചെല്ലാന്‍	-0.0580
-4.4139 ചെല്ല്	-0.0581
-4.4139 ചൊവ്വയിലേക്ക്	-0.0582
-3.5686 ചേച്ചി	-0.4613
-4.4139 ചേച്ചികരയുന്നത്	0.0352
-4.4139 ചേച്ചിയാണ്	0.0352
-4.4139 ചേച്ചിയുടെ	-0.0581
-4.4139 ചേച്ചിയോട്	-0.0559
-4.4139 ചേട്ടന്	-0.0582
-4.4139 ചേട്ടന്‍	-0.0582
-4.4139 ചേട്ടാ	-0.0542
-4.4139 ചേമ്പറില്‍	-0.0579
-4.1127 ചേരില്ലാ	-0.1783
-4.4139 ചേരും	0.0352
-4.4139 ചേരുന്നില്ല	0.0352
-4.4139 ചേരുന്നില്ലാ	0.0352
-4.1127 ചേരുന്നുണ്ട്	-0.1783
-4.4139 ചേരുവകൾ	0.0352
-4.4139 ചേര്‍ക്കല്‍	0.0352
-4.4139 ചേര്‍ക്കാനുള്ള	-0.0581
-3.7147 ചേര്‍ക്കാന്‍	-0.2122
-4.4139 ചേര്‍ക്കുന്നു	0.0352
-4.4139 ചേര്‍ത്തുവെച്ചോ	0.0352
-4.4139 ചേര്‍ത്തുവെയ്കുന്നതോരോന്നും	0.0352
-4.4139 ചേര്‍ത്തോ	-0.0582
-4.4139 ചേര്‍ന്നു	-0.0574
-4.4139 ചേർക്കണം	0.0352
-4.4139 ചേർക്കാം	0.0352
-4.4139 ചേർത്തുണ്ടാക്കുന്നതാണ്	0.0352
-4.4139 ചേർന്നിരുന്നു	0.0352
-4.4139 ചേർന്നോളു	0.0352
-4.4139 ചൈനീസാണ്	-0.0582
-3.9366 ചൈനീസ്	0.0356
-4.4139 ചൊല്ലിത്തരട്ടെ	0.0352
-4.4139 ചൊല്ലിയിരുന്നോ	0.0352
-4.4139 ചോദിക്കട്ടേ	0.0352
-4.4139 ചോദിക്കാനാണ്	0.0352
-4.4139 ചോദിക്കും	0.0352
-4.4139 ചോദിക്കുകയാണെങ്കിൽ	0.0352
-4.4139 ചോദിക്കുന്നു	0.0352
-4.4139 ചോദിച്ചിരുന്നു	0.0352
-4.4139 ചോദിച്ചു	-0.0578
-4.4139 ചോദ്യങ്ങൾക്ക്	-0.0581
-4.4139 ചോയ്സ്	-0.0575
-4.4139 ചോള	-0.0581
-4.1127 ചോളം	-0.0582
-4.4139 ചോളവും	-0.0582
-4.4139 ച്ചിത്രം	-0.0582
-3.7147 ചർച്ചിലേക്ക്	-0.0376
-4.4139 ചർച്ചിൽ	-0.0582
-4.4139 ചർച്ച്	0.0352
-4.4139 ചർദ്ധിക്കുന്നു	0.0352
-4.4139 ഛര്‍ദ്ദിക്കാൻ	-0.0582
-4.4139 ജനങ്ങളുടെ	0.0352
-4.4139 ജനങ്ങളെ	-0.0582
-4.4139 ജനങ്ങളോട്	-0.0582
-4.1127 ജനങ്ങള്‍ക്ക്	-0.0542
-4.4139 ജനങ്ങൾക്ക്	-0.0581
-4.4139 ജനത	0.0352
-4.4139 ജനപ്രീതി	-0.0582
-4.4139 ജനറേറ്ററുണ്ട്	0.0352
-4.4139 ജനലിന്‍റെ	-0.0582
-4.1127 ജനസംഖ്യ	-0.0582
-4.4139 ജനാലകൾ	-0.0582
-4.4139 ജനിക്കേണ്ടവനായിരുന്നു	0.0352
-4.1127 ജനിച്ചത്	0.0356
-4.4139 ജനിതക	-0.0582
-4.4139 ജപ്പാനീസ്	-0.0581
-4.4139 ജപ്പാൻ	0.0352
-4.4139 ജയിച്ചു	0.0352
-4.4139 ജയിലിൽ	-0.0582
-4.4139 ജലം	-0.0582
-4.4139 ജലമാണ്	0.0352
-4.4139 ജാഗ്രതയ്കുള്ള	-0.0582
-4.4139 ജാർഗണ്ടിലും	-0.0582
-4.4139 ജിപിസും	-0.0582
-4.4139 ജിലേബി	-0.0579
-4.4139 ജീത്	-0.0582
-4.4139 ജീന്‍	-0.0582
-4.4139 ജീവജാലങ്ങള്‍ക്ക്	-0.0576
-4.4139 ജീവനില്ല	-0.0582
-4.4139 ജീവനോടെ	-0.0582
-4.1127 ജീവന്റെ	-0.0582
-4.4139 ജീവന്‍	-0.0582
-4.4139 ജീവശാസ്ത്ര	-0.0582
-4.4139 ജീവികളാണ്	0.0352
-4.4139 ജീവിക്കണം	0.0352
-4.1127 ജീവിക്കാനുള്ള	-0.0581
-4.4139 ജീവിക്കുക	0.0352
-4.4139 ജീവിക്കുന്നതായിരുന്നു	-0.0580
-4.4139 ജീവിക്കുന്നതെന്ന്	0.0352
-4.4139 ജീവിക്കുന്നുമുണ്ട്	0.0352
-4.4139 ജീവിച്ചിരിക്കുന്നെന്നോ	0.0352
-4.1127 ജീവിച്ചിരിപ്പുണ്ടോ	-0.1783
-4.4139 ജീവിച്ചിരുന്നതിൽ	-0.0580
-4.4139 ജീവിച്ചിരുന്നത്	0.0352
-4.4139 ജീവിച്ചു	0.0352
-3.9366 ജീവിതം	-0.0949
-4.4139 ജീവിതകാലയളവിനും	0.0352
-4.4139 ജീവിതത്തിൽ	-0.0582
-4.4139 ജീവിതത്തെ	-0.0581
-4.4139 ജീവിതത്തെപ്പറ്റി	0.0352
-4.4139 ജീവിതവും	-0.0582
-4.4139 ജീവൻറിക്കി	0.0352
-4.4139 ജീൻസിന്‍റെയും	-0.0582
-4.1127 ജൂള്‍സ്	-0.0582
-4.4139 ജെസ്സി	-0.0581
-4.4139 ജെസ്സിയും	-0.0581
-4.1127 ജെസ്സിയുടെയും	-0.0578
-4.4139 ജേനിനോട്	-0.0582
-4.1127 ജേനും	0.0355
-4.4139 ജേനുമായി	-0.0572
-4.1127 ജേന്‍	-0.0568
-4.4139 ജോടിയല്ലാത്തതാണ്	0.0352
-4.4139 ജോലി	-0.0579
-4.4139 ജൈവകങ്ങളെ	-0.0582
-4.4139 ജോര്‍ജസിനെ	0.0352
-4.4139 ജോര്‍ജസിനെപ്പോലെ	0.0352
-4.4139 ജോര്‍ജസിന്റെ	-0.0578
-3.7147 ജോര്‍ജസ്	-0.0374
-4.4139 ജോര്‍ജിനെ	-0.0559
-3.8116 ജോര്‍ജിന്റെ	-0.0580
-4.4139 ജോര്‍ജും	-0.0581
-3.5686 ജോര്‍ജ്	-0.1658
-3.5686 ജോലി	-0.0575
-4.4139 ജോലിക്കാരിയാണ്	0.0352
-4.4139 ജോലിക്കാർ	-0.0582
-4.4139 ജോലിക്കിവിടെ	0.0352
-4.4139 ജോലിക്ക്	-0.0581
-4.4139 ജോലിയാണ്	0.0352
-3.9366 ജോലിയുണ്ട്	-0.2640
-4.4139 ജോലിയെയൊള്ളൂ	0.0352
-4.4139 ജ്യൂസ്‌	0.0352
-4.4139 ജ്വലനം	0.0352
-4.4139 ജ്വലിക്കണം	0.0352
-4.4139 ജ്വലിക്കുന്നതു	0.0352
-4.4139 ജ്വലിക്കുന്നില്ല	0.0352
-4.4139 ജ്വാലയെ	-0.0582
-4.4139 ഞങ്ങക്കായി	-0.0582
-4.4139 ഞങ്ങടെ	-0.0582
-4.4139 ഞങ്ങളാ	-0.0582
-4.4139 ഞങ്ങളിങ്ങോട്ട്	-0.0581
-4.1127 ഞങ്ങളിതാ	-0.0580
-4.1127 ഞങ്ങളും	-0.0581
-3.4137 ഞങ്ങളുടെ	-0.0571
-4.4139 ഞങ്ങളുണ്ട്	0.0352
-3.5686 ഞങ്ങളെ	-0.0579
-4.1127 ഞങ്ങളെപ്പോളും	0.0353
-4.4139 ഞങ്ങളെല്ലാം	-0.0582
-4.1127 ഞങ്ങളോട്	-0.0577
-4.4139 ഞങ്ങള്ക്ക്	-0.0582
-2.9823 ഞങ്ങള്‍	-0.0257
-4.4139 ഞങ്ങള്‍ക്കുണ്ടായിരുന്നതെല്ലാതും	-0.0582
-4.4139 ഞങ്ങള്‍ക്കുവേണ്ടി	-0.0581
-4.1127 ഞങ്ങള്‍ക്കൊരു	-0.0581
-3.4595 ഞങ്ങള്‍ക്ക്	0.0014
-2.9366 ഞങ്ങൾ	-0.0984
-4.4139 ഞങ്ങൾക്കിവരുടെ	-0.0582
-4.4139 ഞങ്ങൾക്കു	-0.0579
-3.8116 ഞങ്ങൾക്ക്	-0.0530
-4.4139 ഞണ്ടും	0.0352
-4.4139 ഞണ്ട്	-0.0576
-4.4139 ഞനിതിൽനിന്നും	-0.0582
-4.1127 ഞാനങ്ങനെ	-0.0574
-4.4139 ഞാനതറിഞ്ഞു	-0.0576
-4.4139 ഞാനതിനനുസരിച്ച്	-0.0582
-4.1127 ഞാനതിനെ	-0.0582
-4.4139 ഞാനതിപ്പോഴും	-0.0581
-4.1127 ഞാനതില്‍	-0.0572
-4.1127 ഞാനതു	-0.0579
-3.6356 ഞാനത്	0.0358
-4.4139 ഞാനത്തരം	-0.0582
-4.4139 ഞാനദ്ദേഹത്തെ	-0.0582
-4.4139 ഞാനറിഞ്ഞു	0.0352
-4.4139 ഞാനല്ല	0.0352
-4.4139 ഞാനല്ലെന്നു	-0.0578
-4.1127 ഞാനവനെ	-0.0578
-4.4139 ഞാനവനോട്	-0.0581
-4.4139 ഞാനവരോട്	-0.0577
-4.4139 ഞാനവിടുന്ന്	0.0352
-4.4139 ഞാനാ	-0.0582
-3.9366 ഞാനാണ്	-0.0581
-4.4139 ഞാനാദ്യം	-0.0581
-4.1127 ഞാനായിരുന്നു	-0.0568
-4.4139 ഞാനാരാണ്	0.0352
-4.4139 ഞാനിതാ	-0.0581
-3.9366 ഞാനിതിന്റെ	-0.0578
-4.1127 ഞാനിതുവരെ	-0.0579
-3.8116 ഞാനിത്	-0.0547
-4.4139 ഞാനിന്നു	-0.0572
-3.9366 ഞാനിപ്പോള്‍	-0.0577
-4.4139 ഞാനില്ലാതെ	-0.0570
-3.5106 ഞാനിവിടെ	-0.0569
-4.4139 ഞാനിവിടെയുണ്ട്	-0.0581
-4.4139 ഞാനീ	-0.0581
-3.4137 ഞാനും	-0.0843
-4.4139 ഞാനുണ്ടാക്കിയ	-0.0579
-4.4139 ഞാനുണ്ടായി	0.0352
-4.1127 ഞാനുമായി	-0.0542
-4.4139 ഞാനുമായിരിക്കില്ല	-0.0571
-4.1127 ഞാനെങ്ങനെ	-0.0580
-4.4139 ഞാനെങ്ങനെയാ	-0.0582
-4.4139 ഞാനെങ്ങനെയാണ്	-0.0582
-4.4139 ഞാനെങ്ങോട്ടും	-0.0582
-4.4139 ഞാനെടുത്തോളാം	0.0352
-4.4139 ഞാനെത്തി	0.0352
-4.4139 ഞാനെന്താ	-0.0574
-3.7147 ഞാനെന്താണ്	-0.0578
-4.4139 ഞാനെന്തായാലും	-0.0582
-4.4139 ഞാനെന്തു	-0.0581
-4.4139 ഞാനെന്ത്	-0.0581
-4.4139 ഞാനെന്നും	-0.0574
-3.8116 ഞാനെന്റെ	-0.0580
-4.1127 ഞാനെന്‍റെ	-0.0580
-4.4139 ഞാനെപ്പോഴും	-0.0582
-4.4139 ഞാനെല്ലാ	-0.0579
-4.4139 ഞാനേറ്റു	0.0352
-4.4139 ഞാനൊന്നും	-0.0582
-4.4139 ഞാനൊന്ന്	-0.0582
-4.4139 ഞാനൊരിക്കലും	-0.0582
-3.2676 ഞാനൊരു	0.0371
-4.1127 ഞാനോ	-0.1783
-1.8490 ഞാന്‍	-0.0214
-4.4139 ഞെരുങ്ങുകയും	0.0352
-4.4139 ടബാര്‍ഡിനെ	-0.0582
-4.4139 ടബാര്‍ഡിനെക്കൊണ്ട്	-0.0562
-3.8116 ടബാര്‍ഡ്	-0.0541
-3.8116 ടയര്‍	-0.1783
-4.4139 ടവറാണ്	0.0352
-4.4139 ടവറിന്‍റെ	-0.0580
-4.4139 ടവറും	-0.0580
-3.9366 ടവർ	0.0353
-3.7147 ടാക്ക	0.0376
-4.4139 ടാക്കക്ക്	-0.0582
-4.4139 ടാക്കജപ്പാനിൽ	-0.0580
-4.1127 ടാക്സി	0.0353
-4.4139 ടാങ്കുകൾ	-0.0581
-2.8822 ടാര്‍‌സ്	-0.1093
-4.4139 ടിംഫ്രാൻസിൽ	-0.0580
-4.4139 ടികിടാക്കയോചില്ലി	-0.0582
-4.4139 ടിക്കറ്റും	-0.0582
-4.1127 ടിക്കറ്റ്‌	-0.1783
-4.4139 ടിന്നിൽ	-0.0574
-4.4139 ടിവി	-0.0582
-4.4139 ടിഷർട്ടാണ്	-0.0582
-4.4139 ടീം	-0.0582
-4.4139 ടീമാണ്	-0.0580
-4.4139 ടുഡയമൻഷനിൽ	-0.0582
-4.4139 ടുഡയമൻഷൻ	-0.0582
-4.4139 ടുവിൽ	-0.0582
-4.4139 ടൂട്ടോറിയലിൽ	-0.0582
-4.4139 ടൂട്ടോറിയിലാണ്	0.0352
-4.4139 ടെക്നിക്കൽ	-0.0582
-4.1127 ടെല്ലി	-0.0582
-4.4139 ടെൻഷനായോ	0.0352
-4.1127 ടോം	-0.0578
-4.4139 ടൈപ്പ്	-0.0582
-4.4139 ടോപ്‌	-0.0582
-4.4139 ടോമിനെ	-0.0581
-3.9366 ടോമിന്‍റെ	-0.0581
-4.4139 ടോയ്ബൂത്തിലാണ്	-0.0582
-4.4139 ടോസ്റ്റ്‌	0.0352
-4.4139 ടൌണിലേക്ക്	-0.0582
-4.4139 ട്രക്കിൽ	0.0352
-4.1127 ട്രക്ക്	-0.0519
-4.4139 ട്രയിനില്‍	-0.0582
-4.4139 ട്രാക്കിലൊരു	-0.0580
-4.1127 ട്രാക്കില്‍	-0.2678
-4.4139 ട്രാക്ടര്‍	-0.0582
-4.4139 ട്രാജഡിയാണിത്‌	0.0352
-4.4139 ട്രാജഡിയായിപ്പോയി	0.0352
-4.4139 ട്രാന്‍സ്മിറ്ററുകള്‍	0.0352
-4.4139 ട്രാന്‍സ്മിറ്റിര്‍	-0.0578
-4.4139 ട്രാൻസ്മിഷൻ	-0.0581
-4.4139 ട്രിക്ക്	-0.0579
-4.4139 ട്രെയിനിന്	-0.0581
-3.5106 ട്രെയിന്‍	-0.1515
-4.4139 ട്രെഷര്‍	-0.0582
-4.4139 ഡഗ്ലസ്	-0.0582
-4.4139 ഡയമനുള്ള	-0.0582
-4.4139 ഡയമെൻഷനാണ്	0.0352
-4.4139 ഡയമൻഷനിൽ	0.0352
-4.4139 ഡയമൻഷനു	-0.0582
-3.4595 ഡാഡി	-0.0809
-3.9366 ഡാഡിക്ക്	-0.0540
-4.4139 ഡാഡിയല്ല	-0.0578
-4.4139 ഡാഡിയും	0.0352
-4.4139 ഡാഡിയുടെ	-0.0582
-3.5686 ഡാഡ്	-0.1193
-4.4139 ഡാഡ്‌	-0.0559
-4.4139 ഡാറ്റ	-0.0582
-4.4139 ഡാറ്റാ	-0.0582
-3.8116 ഡാഷ്	-0.1783
-4.4139 ഡാഷ്ഡാഷ്	0.0352
-4.4139 ഡാഷ്ഡാഷ്ഡാഷ്	0.0352
-4.4139 ഡാഷ്ഡോട്ട്	0.0352
-4.4139 ഡാൻസിന്‍റെ	-0.0582
-4.4139 ഡാൻസും	-0.0582
-3.5106 ഡാൻസ്	0.0366
-4.1127 ഡാർലിംഗ്	0.0353
-4.4139 ഡിക്കിയില്‍	-0.0582
-4.4139 ഡിഗ്രി	-0.0582
-4.4139 ഡിഗ്രിയുമുണ്ട്	0.0352
-3.6356 ഡിപ്പാർട്ട്മെന്റിലെ	-0.4293
-3.6356 ഡിപ്പാർട്ട്മെന്റിലേക്കുള്ള	-0.4290
-4.4139 ഡിപ്പാർട്ട്മെന്റുകൾ	-0.0578
-4.4139 ഡിപ്പാർട്ട്മെന്റ്	-0.0582
-4.4139 ഡിമെന്‍ഷനില്‍	0.0352
-4.4139 ഡിമെന്‍ഷനുകള്‍ക്കപ്പുറത്തെത്താനാകും	0.0352
-4.1127 ഡിയര്‍	0.0356
-3.8116 ഡൊണാൾഡ്	-0.0487
-4.4139 ഡേവിഡ്	-0.0582
-3.9366 ഡോ	-0.0581
-4.4139 ഡോക്ടർ	-0.0582
-4.4139 ഡോമാന്	-0.0564
-3.9366 ഡോയൽ	0.0381
-4.4139 ഡോറുകൾ	-0.0582
-3.1127 ഡോ	-0.5421
-4.4139 ഡോക്ടര്‍ക്ക്	-0.0582
-4.4139 ഡോക്ടർ	-0.0582
-4.4139 ഡോഗ്	-0.0577
-4.4139 ഡോട്ട്ഡാഷ്ഡോട്ട്ഡോട്ട്	0.0352
-4.4139 ഡോട്ട്ഡോട്ട്	0.0352
-4.4139 ഡോട്ട്ഡോട്ട്ഡാഷ്ഡോട്ട്	0.0352
-4.4139 ഡോണാള്‍ഡ്	-0.0577
-4.4139 ഡോണാൾഡ്	0.0352
-4.4139 ഡോബ്രാന്റ്	-0.0582
-4.4139 ഡോബ്രാൻഡിനെ	-0.0581
-4.1127 ഡോബ്രാൻഡ്‌	0.0354
-4.4139 ഡോമാനിന്റടുത്തേയ്ക്	-0.0582
-4.4139 ഡോമാന്സിന്റെ	-0.0578
-4.4139 ഡോമാന്സിന്റെയും	-0.0582
-4.4139 ഡോമാൻസിന്റെതിനെക്കളും	0.0352
-4.4139 ഡോയലിനോട്	-0.0581
-4.4139 ഡോയലിന്	-0.0582
-3.6356 ഡോയൽ	-0.0224
-4.4139 ഡോളി	-0.0574
-3.8116 ഡ്രസ്സ്‌	-0.0472
-4.4139 ഡ്രാഗണിന്റെ	-0.0581
-4.1127 ഡ്രാമാമൈൻ	-0.0577
-4.4139 ഡ്രൈവിങ്ങല്ല	0.0352
-4.1127 ഡ്രൈവ്	-0.0581
-4.1127 ഡ്രോണ്‍	-0.2713
-4.4139 ഡൽഹി	-0.0581
-4.4139 ഡൽഹിയിലാണ്	0.0352
-4.1127 ഡൽഹിയിലെ	-0.0582
-4.4139 ഡൽഹിയിലേക്ക്	-0.0581
-4.4139 ഡൽഹിയിലോട്ട്	-0.0580
-3.7147 ഡൽഹിയിൽ	-0.2118
-4.4139 തകരുന്നതിനു	0.0352
-4.4139 തകര്ന്നു	-0.0582
-4.4139 തകർച്ച	-0.0581
-4.4139 തകർച്ചയെ	-0.0582
-4.4139 തകർച്ചയെക്കുറിച്ച്‌	-0.0581
-4.4139 തകർത്തു	-0.0574
-4.4139 തകർന്ന	0.0352
-4.4139 തകർന്നു	-0.0582
-4.4139 തടയാനാവില്ല	0.0352
-4.4139 തടയാന്‍	-0.0582
-4.4139 തടയുന്നത്	0.0352
-4.4139 തടയ്	-0.0581
-4.4139 തടസ്സം	-0.0582
-4.4139 തടസ്സപ്പെടുത്തി	0.0352
-4.4139 തടാകത്തിന്‍റെ	0.0352
-4.4139 തടി	-0.0582
-4.4139 തടിച്ച	-0.0542
-4.4139 തടിച്ചത്	-0.0579
-4.4139 തട്ടി	-0.0582
-4.4139 തട്ടിന്‍പുറത്ത്	0.0352
-4.4139 തട്ടിപ്പായിരുന്നു	0.0352
-4.4139 തണുത്ത	-0.0581
-4.1127 തണുത്തതാണ്	-0.1783
-4.4139 തണുത്തുറഞ്ഞ	-0.0582
-4.4139 തണുപ്പുണ്ടോ	0.0352
-4.4139 തണുപ്പൊന്നുമില്ലാ	0.0352
-4.4139 തണുപ്പോ	-0.0582
-4.4139 തണുപ്പ്	-0.0582
-4.4139 തനിയെ	-0.0582
-4.4139 തന്തുക്കള്‍	0.0352
-4.4139 തന്ത്രം	0.0352
-4.4139 തന്നത്	0.0352
-4.1127 തന്നത്താന്‍	-0.0579
-4.4139 തന്നാൽ	-0.0581
-4.4139 തന്നിട്ടുണ്ട്	0.0352
-3.9366 തന്നില്ല	-0.2640
-3.9366 തന്നു	-0.2640
-4.4139 തന്നൂടെ	0.0352
-2.7605 തന്നെ	-0.1930
-3.8116 തന്നെയല്ലേ	-0.1677
-4.4139 തന്നെയാണല്ലോ	0.0352
-4.1127 തന്നെയാണോ	0.0352
-3.9366 തന്നെയാണ്	0.0377
-4.4139 തന്നെയാവും	0.0352
-4.4139 തന്നെയുണ്ടാവും	0.0352
-4.4139 തന്റെ	-0.0582
-4.4139 തന്റേയും	-0.0582
-4.4139 തപ്പിനോക്കിയിരുന്നു	0.0352
-3.6356 തമാശ	-0.0872
-4.1127 തമാശകളറിയാം	0.0363
-4.4139 തമാശക്കാരാണോ	0.0352
-4.4139 തമാശയാണല്ലേ	0.0352
-4.4139 തമാശയായാൽ	-0.0582
-4.4139 തമാശയാവും	0.0352
-4.4139 തമാശിക്കുകയല്ല	0.0352
-3.6356 തമോഗര്‍ത്തം	0.0413
-4.4139 തമോഗര്‍ത്തത്തിനു	-0.0581
-4.4139 തമോഗര്‍ത്തത്തിന്റെ	0.0352
-4.1127 തമോഗര്‍ത്തത്തിലേയ്ക്	-0.0581
-4.4139 തമോഗര്‍ത്തത്തില്‍	-0.0582
-4.4139 തമോഗര്‍ത്തത്തെ	-0.0582
-4.4139 തമോഗര്‍ത്തമാണ്	0.0352
-4.4139 തമ്മിലോ	0.0352
-3.8116 തമ്മിൽ	-0.1509
-4.4139 തയാറാവു	0.0352
-4.4139 തയാറാവുന്നു	0.0352
-4.4139 തയ്യാര്‍	0.0352
-4.4139 തയ്യാറല്ലായിരുന്നു	0.0352
-3.9366 തയ്യാറല്ലേ	-0.2640
-4.4139 തയ്യാറാകൂ	0.0352
-4.4139 തയ്യാറാക്	0.0352
-4.4139 തയ്യാറാക്കുക	0.0352
-4.1127 തയ്യാറാണെന്ന്	-0.1783
-4.1127 തയ്യാറാണോ	-0.1783
-4.4139 തയ്യാറാണ്	0.0352
-4.4139 തയ്യാറായാൽ	-0.0520
-4.4139 തയ്യാറായിട്ടുണ്ട്	0.0352
-4.4139 തയ്യാറായിരിക്കുന്നു	0.0352
-4.4139 തയ്യാറായിരുന്നു	0.0352
-4.4139 തയ്യാറാവു	0.0352
-4.4139 തയ്യാറെടുക്കുകയായിരിക്കും	-0.0579
-4.4139 തയ്യാറെടുക്കുന്നു	0.0352
-4.1127 തയ്യാറെടുത്തോളൂ	-0.1783
-4.4139 തരം	-0.0582
-4.4139 തരംഗദൈര്‍ഘ്യത്തിലും	-0.0582
-4.4139 തരട്ടേ	0.0352
-3.5686 തരാം	-0.6848
-4.4139 തരാനാണ്	-0.0579
-4.4139 തരാമെന്ന്	-0.0582
-3.9366 തരാൻ	0.0355
-4.4139 തരിക	0.0352
-4.1127 തരികയുള്ളൂ	-0.1783
-4.4139 തരികള്‍	0.0352
-4.1127 തരില്ല	-0.1783
-4.4139 തരിശാണ്	0.0352
-4.1127 തരു	-0.1783
-4.1127 തരും	-0.1783
-4.4139 തരുകയാണോ	0.0352
-4.1127 തരുകയാണ്‌	0.0357
-4.4139 തരുന്ന	-0.0581
-4.4139 തരുന്നതിനെപ്പറ്റി	0.0352
-4.1127 തരുന്നു	-0.1783
-4.4139 തരുന്നുണ്ട്	0.0352
-4.4139 തരുമെന്ന്	-0.0554
-4.4139 തരുമോ	0.0352
-3.4595 തരൂ	-0.9480
-4.4139 തരേണ്ട	-0.0582
-4.4139 തരേണ്ട്	0.0352
-4.4139 തറച്ചു	-0.0581
-4.4139 തറയ്ക്കുന്നത്	0.0352
-3.8116 തല	-0.0581
-4.4139 തലച്ചോറിലെ	-0.0582
-4.4139 തലമാണ്	-0.0559
-4.4139 തലമുറ	-0.0581
-4.4139 തലയണ	-0.0581
-4.4139 തലവന്മാരെയും	-0.0578
-4.4139 തലേന്നെന്താണ്	0.0352
-4.4139 തല്‍കിയത്	0.0352
-4.4139 തളിക്കാനുണ്ട്	0.0352
-4.1127 തള്ളി	-0.0581
-3.5106 തവണ	0.0374
-4.4139 തവണയല്ലല്ലോ	-0.0569
-4.4139 തവണയാണ്	-0.0582
-4.4139 തവണയും	-0.0581
-4.1127 തവണവരെ	-0.0581
-3.8116 താ	-0.2947
-3.9366 താക്കോല്‍	-0.0566
-4.4139 താക്കോല്‍ദ്വാരം	0.0352
-4.4139 താക്കോൽ	-0.0569
-4.1127 താങ്കളുടെ	-0.0582
-4.4139 താങ്കളെ	-0.0582
-4.4139 താങ്കളെപ്പറ്റി	0.0352
-4.1127 താങ്കള്‍	0.0352
-3.8116 താങ്കള്‍ക്ക്	-0.0579
-4.4139 താങ്കൾ	-0.0582
-4.4139 താതാപര്യമുണ്ടോ	0.0352
-4.1127 താന്‍	-0.0582
-4.4139 താപകവചമില്ല	0.0352
-4.1127 താമസം	0.0353
-4.4139 താമസിക്കാനാവില്ല	0.0352
-4.4139 താമസിക്കാനാവുന്ന	-0.0542
-4.4139 താമസിക്കാൻ	0.0352
-4.4139 താമസിക്കില്ലാ	0.0352
-4.4139 താമസിക്കുന്നതെന്ന്	0.0352
-3.9366 താമസിക്കുന്നത്	-0.2640
-4.4139 താമസിച്ചോളൂ	0.0352
-4.4139 താരതമ്യം	-0.0581
-4.4139 താരതമ്യേന	-0.0542
-4.4139 താല്പര്യമുണ്ടന്നല്ലാ	0.0352
-4.4139 താല്പര്യമുണ്ടായിരുന്നില്ല	0.0352
-4.4139 താല്‍പര്യമില്ല	0.0352
-3.5686 താഴെ	0.0354
-4.4139 താഴെയിട്ടു	0.0352
-4.4139 താഴെയെത്താൻ	-0.0582
-3.9366 താഴേക്ക്	-0.0580
-4.4139 താഴേയ്ക്	-0.0582
-4.1127 താഴോട്ട്	-0.0579
-4.4139 താഴ്ത്തിയിടണം	0.0352
-4.4139 താഴ്ന്ന്	-0.0582
-4.4139 താവളം	-0.0582
-4.4139 താൽപര്യത്തിലാണ്	0.0352
-4.4139 താൽപര്യമാണല്ലോ	0.0352
-4.4139 തികച്ചും	-0.0582
-4.4139 തികഞ്ഞ	-0.0581
-4.4139 തിട്ടയില്‍	0.0352
-4.4139 തിന്ത	-0.0582
-4.4139 തിയറി	-0.0581
-4.4139 തിര	-0.0581
-4.4139 തിരകളാണ്	0.0352
-4.4139 തിരക്കു	-0.0582
-4.4139 തിരക്ക്	-0.0582
-4.1127 തിരഞ്ഞു	-0.1783
-4.4139 തിരഞ്ഞുകൊണ്ടിരിക്കുകയായിരുന്നു	0.0352
-4.4139 തിരഞ്ഞെടുക്കല്‍	0.0352
-4.4139 തിരഞ്ഞെടുക്കേണ്ടതുണ്ട്	0.0352
-4.1127 തിരഞ്ഞെടുത്തത്	0.0356
-3.8116 തിരഞ്ഞെടുത്തു	-0.0558
-4.4139 തിരഞ്ഞെടുത്തെന്നാണ്	-0.0520
-4.4139 തിരയണമെന്ന്	-0.0582
-4.4139 തിരയയുകയായിരുന്നു	0.0352
-4.4139 തിരയുകയാണോ	0.0352
-4.4139 തിരയുന്നുണ്ടാകും	0.0352
-4.4139 തിരശ്ശീലയുള്ള	-0.0542
-3.5686 തിരികെ	-0.0577
-4.4139 തിരിക്കരുത്	0.0352
-4.4139 തിരിക്കാന്‍	-0.0582
-4.4139 തിരിക്കുന്നതിനുമുമ്പ്	-0.0574
-4.4139 തിരിക്കൽ	0.0352
-4.4139 തിരിചെത്തു	-0.0582
-4.4139 തിരിച്ചറിയുന്നു	-0.0582
-4.4139 തിരിച്ചറിയൂ	0.0352
-3.0520 തിരിച്ചു	-0.1571
-4.4139 തിരിച്ചുപോകുന്നതിനുള്ള	-0.0581
-4.4139 തിരിച്ചുപോണോ	0.0352
-4.4139 തിരിച്ചുപോവണം	0.0352
-4.4139 തിരിച്ചുവന്നില്ലെങ്കില്‍	-0.0582
-4.4139 തിരിച്ചുവന്നു	-0.0547
-4.4139 തിരിച്ചുവരാതിരിക്കുന്നതോ	0.0352
-4.4139 തിരിച്ചുവരാനായി	0.0352
-4.4139 തിരിച്ചുവരാന്‍	-0.0582
-4.4139 തിരിച്ചുവരും	0.0352
-4.4139 തിരിച്ചുവരുമെന്ന്	-0.0581
-4.4139 തിരിച്ചുവരുമ്പോള്‍	0.0352
-4.4139 തിരിച്ചുവേണം	0.0352
-4.4139 തിരിച്ചെത്തു	0.0352
-4.4139 തിരിച്ചെത്തുന്നത്	0.0352
-3.2676 തിരിച്ച്	-0.1065
-4.4139 തിരിഞ്ഞുവെന്ന്	-0.0580
-4.4139 തിരിയുന്ന	-0.0579
-4.4139 തിരുത്തി	-0.0580
-4.4139 തിരുത്തിയതോ	0.0352
-4.1127 തീ	-0.0581
-4.1127 തീയതി	-0.1783
-4.4139 തീയറ്റര്‍	-0.0582
-4.4139 തീയറ്ററും	-0.0582
-4.4139 തീയേറ്റര്‍	-0.0581
-4.4139 തീയേറ്ററില്‍	-0.0554
-4.4139 തീരുന്നതിന്	-0.0582
-4.1127 തീരുമാനം	0.0352
-4.4139 തീരുമാനമാകും	-0.0582
-4.4139 തീരുമാനമായിരുന്നില്ല	0.0352
-4.4139 തീരുമാനവുമായി	-0.0582
-4.4139 തീരുമാനിക്കാം	-0.0581
-4.4139 തീരുമാനിക്കും	0.0352
-4.4139 തീരുമാനിച്ചതാണ്	0.0352
-4.1127 തീരുമാനിച്ചു	-0.1783
-4.1127 തീരെ	-0.0582
-4.1127 തീര്ച്ചയായും	0.0353
-4.4139 തീര്‍ക്കാനായിരുന്നു	0.0352
-4.4139 തീര്‍ക്കാനുണ്ടായിരുന്നു	0.0352
-4.4139 തീര്‍ക്ക്	0.0352
-3.8116 തീര്‍ച്ചയായും	0.0358
-4.4139 തീര്‍ത്തും	-0.0582
-4.4139 തീര്‍ന്നിട്ടില്ല	0.0352
-4.4139 തീര്‍ന്നു	0.0352
-4.4139 തീര്‍ന്നോ	-0.0579
-4.4139 തീവണ്ടി	-0.0582
-4.1127 തീർച്ചയായും	-0.0581
-4.4139 തീർന്നിരിക്കുന്നു	0.0352
-4.4139 തുക	-0.0577
-4.4139 തുടക്കം	-0.0578
-4.4139 തുടക്കത്തില്‍	-0.0577
-4.4139 തുടങ്ങട്ടെ	0.0352
-4.4139 തുടങ്ങണമെന്ന്	0.0352
-4.4139 തുടങ്ങാം	0.0352
-4.4139 തുടങ്ങാനുള്ളതാണ്	0.0352
-3.7147 തുടങ്ങി	-0.2055
-4.4139 തുടങ്ങിക്കോ	0.0352
-4.4139 തുടങ്ങിക്കോളൂ	0.0352
-4.4139 തുടങ്ങിയതല്ല	0.0352
-4.4139 തുടങ്ങിയതില്‍	-0.0581
-3.6356 തുടങ്ങിയത്	-0.6449
-4.4139 തുടങ്ങിയാല്‍	0.0352
-4.4139 തുടങ്ങിയിടത്തുതന്നെ	-0.0582
-4.1127 തുടങ്ങിയിട്ട്	-0.1783
-4.4139 തുടങ്ങിയിരുന്നു	0.0352
-4.4139 തുടങ്ങിയോ	0.0352
-4.4139 തുടങ്ങും	0.0352
-4.4139 തുടങ്ങുന്നതിന്	-0.0580
-4.4139 തുടങ്ങുവാൻ	-0.0580
-4.4139 തുടങ്ങൂ	0.0352
-4.4139 തുടങ്ങേടോ	0.0352
-4.4139 തുടങ്ങേണ്ടത്	0.0352
-4.4139 തുടരാനാണ്	-0.0547
-4.4139 തുടര്‍ന്നാല്‍	0.0352
-4.4139 തുണി	-0.0582
-4.4139 തുണികള്‍	0.0352
-4.4139 തുരുമ്പെടുത്തിരിക്കുന്നു	0.0352
-3.9366 തുറക്കരുത്	-0.0872
-4.1127 തുറക്കാം	-0.1783
-4.4139 തുറക്കാനാവില്ല	0.0352
-4.4139 തുറക്കു	-0.0581
-3.6356 തുറക്ക്	-0.2637
-4.4139 തുറന്നാല്‍	0.0352
-4.4139 തുറന്നു	-0.0581
-4.4139 തുറന്നുകൊണ്ടാണ്	0.0352
-4.4139 തുലയെടാ	0.0352
-4.4139 തൂക്കം	0.0352
-4.4139 തൃപ്തികരമാണ്	0.0352
-4.4139 തെന്നി	-0.0582
-4.4139 തെമ്മാടിക്ക്	-0.0520
-4.4139 തെരയുകയായിരുന്നു	0.0352
-4.4139 തെരുവിന്‍റെ	-0.0562
-4.4139 തെറ്റ	-0.0582
-4.4139 തെറ്റാകാനും	-0.0579
-4.4139 തെറ്റാണെന്നല്ല	0.0352
-4.4139 തെറ്റാണെന്ന്	-0.0580
-3.7147 തെറ്റായ	-0.0579
-4.4139 തെറ്റായി	-0.0582
-4.4139 തെറ്റായിരുന്നു	-0.0578
-4.4139 തെറ്റിദ്ധരിച്ചു	0.0352
-4.4139 തെറ്റിപ്പോയി	0.0352
-4.4139 തെറ്റിയെങ്കില്‍	-0.0572
-4.1127 തെറ്റുകൾ	-0.0582
-4.4139 തെറ്റൊക്കെ	-0.0582
-4.4139 തെറ്റ്	-0.0579
-4.4139 തെളിയിക്കണം	0.0352
-3.9366 തെളിയിക്കാന്‍	0.0353
-4.4139 തെളിയിക്ക്	0.0352
-4.4139 തെളിയിച്ചാലും	-0.0582
-4.4139 തെളിയിച്ചിരുന്നു	0.0352
-4.4139 തെളിവുകള്‍	0.0352
-3.9366 തൊണ്ണൂറു	-0.1882
-4.4139 തേജസ്സുള്ളതാണ്	0.0352
-4.1127 തേനിൽ	-0.0574
-4.4139 തോന്നുന്നില്ല	0.0352
-4.4139 തോന്നുന്നു	0.0352
-4.4139 തൊടൂ	-0.0581
-4.4139 തൊട്ടിട്ടില്ല	0.0352
-4.4139 തൊട്ടുപുറം	-0.0581
-4.4139 തൊട്ടുമുമ്പാണ്	0.0352
-4.4139 തൊപ്പി	-0.0582
-4.4139 തൊപ്പിയാണ്‌	0.0352
-4.4139 തൊലയെടാ	0.0352
-4.4139 തൊഴിലല്ല	-0.0580
-4.4139 തൊഴില്‍	-0.0582
-4.4139 തോട്ടുപുറത്ത്	0.0352
-4.4139 തോന്നല്‍	0.0352
-3.7147 തോന്നി	-0.2056
-4.4139 തോന്നിയതുകൊണ്ടാണ്	0.0352
-4.1127 തോന്നിയത്	0.0366
-4.4139 തോന്നിയപ്പോള്‍	0.0352
-4.4139 തോന്നിയിട്ടില്ല	0.0352
-4.4139 തോന്നിയിരുന്നില്ലാ	0.0352
-3.4137 തോന്നുന്നത്	-0.1424
-4.1127 തോന്നുന്നില്ല	-0.1783
-4.4139 തോന്നുന്നില്ലാ	0.0352
-4.4139 തോന്നുന്നില്ലേ	0.0352
-3.2998 തോന്നുന്നു	-1.1109
-4.4139 തോന്നുന്നുണ്ടാവും	0.0352
-4.1127 തോന്നുന്നുണ്ടോ	-0.1783
-4.4139 തോമോട്രോപ്പിലോ	-0.0582
-4.4139 ത്യാഗം	-0.0578
-4.4139 ത്യാഗമാണ്	-0.0576
-4.4139 ത്രത്തോളം	-0.0581
-4.4139 ത്രസ്ട്ടെർസ്	-0.0581
-4.4139 ത്രസ്റ്റർ	-0.0578
-4.4139 ത്രിമാനഡയമൻഷൻ	-0.0581
-4.4139 ത്രീഡയമൻഷനിൽ	-0.0582
-4.4139 ത്രീഡയമൻഷൻ	-0.0582
-4.4139 ത്വരയാണ്	-0.0574
-4.4139 ദയയുണ്ടായിരുന്നില്ല	0.0352
-3.5106 ദയവായി	-0.0031
-3.9366 ദയവു	-0.3573
-3.5686 ദയവുചെയ്ത്	-0.0156
-4.1127 ദയവ്	-0.2716
-4.4139 ദരിദ്രനായ	-0.0582
-4.4139 ദശകമോ	-0.0582
-4.4139 ദശാബ്ദമായി	-0.0582
-4.4139 ദസ്തേ	-0.0581
-3.9366 ദാ	-0.0576
-4.1127 ദി	-0.0581
-4.4139 ദിനം	-0.0582
-4.4139 ദിപ്പം	-0.0580
-3.1584 ദിവസം	-0.0303
-4.4139 ദിവസങ്ങളില്‍	-0.0576
-4.4139 ദിവസങ്ങളിൽ	-0.0582
-4.1127 ദിവസങ്ങള്‍ക്കകം	-0.0577
-4.1127 ദിവസത്തിനു	-0.2715
-4.4139 ദിവസത്തിൽ	-0.0582
-4.4139 ദിവസത്തെ	-0.0582
-3.7147 ദിൻഗ്രാ	-0.1184
-4.4139 ദീപിനേയും	-0.0582
-4.4139 ദീര്‍ഘകാലത്തേക്കുള്ള	-0.0582
-4.4139 ദുഖിക്കുകയാണ്	0.0352
-4.4139 ദുര്‍ബലമാണ്	0.0352
-3.7147 ദൂരം	-0.0571
-4.4139 ദൂരത്തിനും	-0.0582
-4.1127 ദൂരെ	0.0357
-4.4139 ദൂരെനിന്നും	-0.0581
-4.4139 ദൃശ്യമാകുന്നു	0.0352
-4.4139 ദൌത്യത്തില്‍	-0.0582
-4.4139 ദേ	-0.0582
-4.4139 ദേവതകളേ	0.0352
-4.4139 ദേവതകള്‍	-0.0582
-4.4139 ദേഷ്യം	0.0352
-4.4139 ദേഷ്യത്തിലാണ്	0.0352
-4.4139 ദേഹത്തേക്ക്	-0.0582
-4.1127 ദൈവം	-0.0581
-3.9366 ദൈവമേ	-0.2640
-4.4139 ദൈവമേഞാന്‍	-0.0581
-4.4139 ദോഷക്കരനാണോ	0.0352
-3.8116 ദൌത്യം	-0.0581
-4.4139 ദൌത്യത്തിന്	-0.0581
-4.4139 ദൌത്യത്തിന്ന്	-0.0542
-4.4139 ദ്രവിച്ച	-0.0582
-4.4139 ദ്രവ്യം	0.0352
-3.8116 ദൗത്യം	0.0360
-4.4139 ദൗത്യങ്ങളിലാണ്	-0.0560
-4.4139 ദൗത്യത്തിലൂടെ	-0.0581
-4.4139 ദൗത്യമുണ്ട്	0.0352
-4.4139 ദർശനത്തിന്	-0.0582
-4.4139 ധരിക്കുക	0.0352
-4.4139 ധരിക്കുന്നതെന്ന്	0.0352
-4.4139 ധരിക്കുമായിരുന്നു	0.0352
-4.4139 ധരിച്ചിരിക്കുന്നത്	0.0352
-4.4139 ധരിച്ചിരുന്നത്	0.0352
-4.4139 ധരിച്ചിരുന്നു	0.0352
-4.4139 ധരിച്ചു	0.0352
-4.4139 ധാരണ	-0.0582
-4.1127 ധാരാളം	0.0354
-4.4139 ധീരതയെ	0.0352
-4.4139 ധീരനായ	-0.0542
-4.4139 ധീരന്മാരായ	-0.0582
-4.1127 ധൈര്യം	-0.0582
-4.4139 ധൈര്യമായിരിക്കണം	0.0352
-4.1127 ധൈര്യമായിരിക്കൂ	-0.1783
-4.4139 ധൈര്യശാലിയുമാണ്	0.0352
-4.4139 നക്ഷത്രം	-0.0582
-4.4139 നക്ഷത്രങ്ങളിലും	-0.0582
-4.4139 നക്ഷത്രങ്ങളിലേക്ക്	-0.0581
-4.4139 നക്ഷത്രങ്ങളില്‍	-0.0574
-4.4139 നക്ഷത്രങ്ങൾ	0.0352
-4.4139 നക്ഷത്രങ്ങൾക്ക്	0.0352
-4.4139 നക്ഷത്രാന്തര	-0.0582
-4.4139 നഗര്‍	-0.0576
-4.4139 നഗറിലും	-0.0580
-4.4139 നഗ്നമായ	0.0352
-4.1127 നഗർ	0.0352
-4.4139 നടക്കാണോ	0.0352
-4.4139 നടക്കാറുണ്ട്	0.0352
-4.4139 നടക്കില്ല	-0.0582
-4.4139 നടക്കില്ലല്ലോ	0.0352
-4.1127 നടക്കില്ലാ	-0.1783
-4.1127 നടക്കും	0.0352
-4.4139 നടക്കുന്നതെന്ന്	-0.0582
-3.8116 നടക്കുന്നത്	-0.2947
-4.4139 നടക്കുന്നില്ല	0.0352
-4.4139 നടക്കുമോ	0.0352
-4.4139 നടക്കൂ	0.0352
-4.4139 നടക്കേണ്ടതായിരുന്നു	0.0352
-4.4139 നടക്ക്	0.0352
-4.4139 നടത്താനാവില്ല	0.0352
-4.4139 നടത്താനും	0.0352
-4.4139 നടത്താന്‍	-0.0582
-4.4139 നടത്തിയ	0.0352
-4.4139 നടത്തിയത്	0.0352
-3.9366 നടത്തിയിട്ടുണ്ട്	-0.2640
-4.4139 നടത്തും	0.0352
-4.4139 നടത്തുകയും	0.0352
-4.4139 നടത്തുന്ന	-0.0582
-4.4139 നടന്ന	-0.0582
-4.4139 നടന്നതിൽ	-0.0581
-4.4139 നടന്നില്ലെങ്ങിൽ	-0.0578
-4.4139 നടന്നില്ലെന്ന്	-0.0520
-3.7147 നടന്നു	0.0357
-4.4139 നടാമായിരുന്നു	0.0352
-4.4139 നടിയായിരുന്നു	0.0352
-4.4139 നടുക്കമായിരുന്നു	0.0352
-4.4139 നടുവിലാണ്	0.0352
-4.4139 നദി	-0.0581
-4.4139 നനഞ്ഞ	-0.0582
-3.3723 നന്ദി	-0.2002
-4.4139 നന്ദിയുണ്ട്	0.0352
-4.4139 നന്ദിറോഷേ	0.0352
-3.3723 നന്നായി	0.0041
-4.4139 നന്നായിട്ടില്ലേ	0.0352
-4.1127 നന്നായിട്ടുണ്ട്	0.0374
-4.4139 നന്നായിരിക്കണം	0.0352
-4.4139 നന്നായിരിക്കും	0.0352
-3.9366 നന്നായിരിക്കുന്നു	-0.0906
-4.4139 നന്നായിരിക്കുന്നോ	0.0352
-3.9366 നന്നായിരുന്നു	-0.2640
-4.4139 നന്നായ്	0.0352
-4.1127 നന്ന്	-0.0581
-3.6356 നമസ്ക്കാരം	-0.0246
-4.4139 നമസ്ക്കാരംനമസ്ക്കാരം	0.0352
-4.4139 നമുക്കതിനു	-0.0581
-3.9366 നമുക്കതിനെ	-0.0581
-3.8116 നമുക്കത്	-0.0579
-4.4139 നമുക്കധികം	-0.0581
-4.4139 നമുക്കറിയാവുന്ന	-0.0582
-4.4139 നമുക്കാവില്ല	-0.0581
-4.4139 നമുക്കിതിനുള്ള	-0.0581
-4.4139 നമുക്കിതുവരെ	-0.0582
-3.8116 നമുക്കിത്	-0.0581
-4.4139 നമുക്കിത്തിരി	-0.0582
-4.4139 നമുക്കിനി	-0.0581
-4.4139 നമുക്കിനിയും	-0.0582
-4.4139 നമുക്കിവനെ	-0.0582
-3.9366 നമുക്കിവിടെ	-0.0580
-4.4139 നമുക്കു	-0.0582
-3.9366 നമുക്കെന്തെങ്കിലും	-0.0581
-4.4139 നമുക്കെല്ലാവര്‍ക്കും	-0.0578
-4.4139 നമുക്കൊരു	-0.0542
-4.4139 നമുക്കൊരുമിച്ച്	-0.0580
-2.6075 നമുക്ക്	-0.0068
-4.4139 നമ്പര്‍	-0.0578
-4.4139 നമ്മളതിനെ	-0.0581
-4.1127 നമ്മളത്	-0.0581
-4.4139 നമ്മളറിയൂ	0.0352
-4.1127 നമ്മളാണ്	-0.0581
-4.4139 നമ്മളാരാണെന്ന്	-0.0582
-4.4139 നമ്മളിത്	-0.0582
-4.4139 നമ്മളില്‍	-0.0580
-3.8116 നമ്മളിവിടെ	-0.0580
-4.4139 നമ്മളിൽ	-0.0572
-3.0915 നമ്മളെ	0.0217
-4.4139 നമ്മളെക്കൊണ്ട്	0.0352
-4.4139 നമ്മളെങ്ങോട്ടാ	-0.0582
-4.4139 നമ്മളെങ്ങോട്ടാണ്	-0.0581
-4.4139 നമ്മളെപോലെയുള്ള	-0.0582
-4.4139 നമ്മളെപ്പോലെ	-0.0582
-4.4139 നമ്മളെയെല്ലാം	-0.0582
-4.4139 നമ്മളൊന്നും	-0.0582
-2.7235 നമ്മള്‍	0.0352
-4.4139 നമ്മള്‍ക്ക്	-0.0582
-4.1127 നമ്മിൽ	-0.0578
-4.4139 നമ്മുക്കിവിടെന്ന്	-0.0581
-4.4139 നമ്മുക്കുള്ള	-0.0581
-3.7147 നമ്മുക്ക്	-0.1311
-2.7325 നമ്മുടെ	-0.0110
-4.4139 നമ്മുടെത്	-0.0582
-4.1127 നമ്മുടേത്	-0.0579
-3.8116 നമ്മെ	-0.0579
-4.4139 നമ്മോട്	-0.0582
-3.0335 നമ്മൾ	0.0309
-4.1127 നമ്മൾക്ക്	-0.0580
-4.1127 നയിക്കുന്നത്	-0.1783
-4.1127 നയിച്ചത്	0.0357
-4.4139 നയിച്ചവർ	0.0352
-4.4139 നല്കിയിരിക്കുന്നത്	0.0352
-2.6503 നല്ല	0.0186
-4.4139 നല്ലതല്ലേ	0.0352
-4.4139 നല്ലതാണെങ്കിൽ	-0.0582
-4.4139 നല്ലതാണെന്ന്	-0.0582
-3.9366 നല്ലതാണ്	-0.0936
-4.1127 നല്ലതും	-0.0582
-4.4139 നല്ലതുപോലെ	0.0352
-4.1127 നല്ലതെന്ന്	-0.1783
-3.4137 നല്ലത്	-0.3234
-4.4139 നല്ലവനെന്ന്	0.0352
-4.4139 നല്ലവരാണ്	0.0352
-3.8116 നല്ലൊരു	-0.0577
-4.4139 നല്‍കരുത്	-0.0581
-4.1127 നല്‍കി	-0.1783
-4.4139 നല്‍കിയതിന്	-0.0582
-4.4139 നല്‍കുന്നതാണ്	0.0352
-4.4139 നല്‍കൂ	0.0352
